svm_type one_class
kernel_type rbf
gamma 0.5
nr_class 2
total_sv 16593
rho 18.3168
SV
1 1:167.89896 2:431.55666 
1 1:143.9252 2:503.57036 
1 1:204.48662 2:265.41194 
1 1:563.64909 2:988.20827 
1 1:1318.1479 2:332.85694 
1 1:167.89896 2:431.55666 
1 1:143.9252 2:503.57036 
1 1:204.48662 2:265.41194 
1 1:563.64909 2:988.20827 
1 1:1318.1479 2:332.85694 
1 1:167.89896 2:431.55666 
1 1:143.9252 2:503.57036 
1 1:204.48662 2:265.41194 
1 1:563.64909 2:988.20827 
1 1:1318.1479 2:332.85694 
1 1:167.89896 2:431.55666 
1 1:143.9252 2:503.57036 
1 1:204.48662 2:265.41194 
1 1:563.64909 2:988.20827 
1 1:1318.1479 2:332.85694 
1 1:167.89896 2:431.55666 
1 1:143.9252 2:503.57036 
1 1:204.48662 2:265.41194 
1 1:563.64909 2:988.20827 
1 1:1318.1479 2:332.85694 
1 1:167.89896 2:431.55666 
1 1:143.9252 2:503.57036 
1 1:204.48662 2:265.41194 
1 1:563.64909 2:988.20827 
1 1:1318.1479 2:332.85694 
1 1:167.89896 2:431.55666 
1 1:143.9252 2:503.57036 
1 1:204.48662 2:265.41194 
1 1:563.64909 2:988.20827 
1 1:1318.1479 2:332.85694 
1 1:167.89896 2:431.55666 
1 1:143.9252 2:503.57036 
1 1:204.48662 2:265.41194 
1 1:563.64909 2:988.20827 
1 1:1318.1479 2:332.85694 
1 1:167.89896 2:431.55666 
1 1:143.9252 2:503.57036 
1 1:204.48662 2:265.41194 
1 1:563.64909 2:988.20827 
1 1:1318.1479 2:332.85694 
1 1:167.89896 2:431.55666 
1 1:143.9252 2:503.57036 
1 1:204.48662 2:265.41194 
1 1:563.64909 2:988.20827 
1 1:1318.1479 2:332.85694 
1 1:167.89896 2:431.55666 
1 1:143.9252 2:503.57036 
1 1:204.48662 2:265.41194 
1 1:563.64909 2:988.20827 
1 1:1318.1479 2:332.85694 
1 1:167.89896 2:431.55666 
1 1:143.9252 2:503.57036 
1 1:204.48662 2:265.41194 
1 1:563.64909 2:988.20827 
1 1:1318.1479 2:332.85694 
1 1:167.89896 2:431.55666 
1 1:143.9252 2:503.57036 
1 1:204.48662 2:265.41194 
1 1:563.64909 2:988.20827 
1 1:1318.1479 2:332.85694 
1 1:167.89896 2:431.55666 
1 1:143.9252 2:503.57036 
1 1:204.48662 2:265.41194 
1 1:563.64909 2:988.20827 
1 1:1318.1479 2:332.85694 
1 1:167.89896 2:431.55666 
1 1:143.9252 2:503.57036 
1 1:204.48662 2:265.41194 
1 1:563.64909 2:988.20827 
1 1:1318.1479 2:332.85694 
1 1:167.89896 2:431.55666 
1 1:143.9252 2:503.57036 
1 1:204.48662 2:265.41194 
1 1:563.64909 2:988.20827 
1 1:1318.1479 2:332.85694 
1 1:167.89896 2:431.55666 
1 1:143.9252 2:503.57036 
1 1:204.48662 2:265.41194 
1 1:563.64909 2:988.20827 
1 1:1318.1479 2:332.85694 
1 1:167.89896 2:431.55666 
1 1:143.9252 2:503.57036 
1 1:204.48662 2:265.41194 
1 1:563.64909 2:988.20827 
1 1:1318.1479 2:332.85694 
0.3125000059123302 1:167.89896 2:431.55666 
0.3125000053460187 1:143.9252 2:503.57036 
0.2499999141504006 1:204.48662 2:265.41194 
0.3125000059925558 1:563.64909 2:988.20827 
0.3125000066361459 1:1318.1479 2:332.85694 
0.004287261412160959 1:143.9252 2:503.57036 
0.06735126980744433 1:204.48662 2:265.41194 
0.004418423242354308 1:563.64909 2:988.20827 
0.004377773554390174 1:1318.1479 2:332.85694 
0.004269436729842369 1:167.89896 2:431.55666 
1 1:323.59797 2:262.38499 
1 1:77.944999 2:201.96182 
1 1:360.93959 2:362.00612 
1 1:300.57308 2:308.37155 
1 1:539.03722 2:241.07384 
1 1:323.59797 2:262.38499 
1 1:77.944999 2:201.96182 
1 1:360.93959 2:362.00612 
1 1:300.57308 2:308.37155 
1 1:539.03722 2:241.07384 
1 1:323.59797 2:262.38499 
1 1:77.944999 2:201.96182 
1 1:360.93959 2:362.00612 
1 1:300.57308 2:308.37155 
1 1:539.03722 2:241.07384 
1 1:323.59797 2:262.38499 
1 1:77.944999 2:201.96182 
1 1:360.93959 2:362.00612 
1 1:300.57308 2:308.37155 
1 1:539.03722 2:241.07384 
1 1:323.59797 2:262.38499 
1 1:77.944999 2:201.96182 
1 1:360.93959 2:362.00612 
1 1:300.57308 2:308.37155 
1 1:539.03722 2:241.07384 
1 1:323.59797 2:262.38499 
1 1:77.944999 2:201.96182 
1 1:360.93959 2:362.00612 
1 1:300.57308 2:308.37155 
1 1:539.03722 2:241.07384 
1 1:323.59797 2:262.38499 
1 1:77.944999 2:201.96182 
1 1:360.93959 2:362.00612 
1 1:300.57308 2:308.37155 
1 1:539.03722 2:241.07384 
1 1:323.59797 2:262.38499 
1 1:77.944999 2:201.96182 
1 1:360.93959 2:362.00612 
1 1:300.57308 2:308.37155 
1 1:539.03722 2:241.07384 
1 1:323.59797 2:262.38499 
1 1:77.944999 2:201.96182 
1 1:360.93959 2:362.00612 
1 1:300.57308 2:308.37155 
1 1:539.03722 2:241.07384 
1 1:323.59797 2:262.38499 
1 1:77.944999 2:201.96182 
1 1:360.93959 2:362.00612 
1 1:300.57308 2:308.37155 
1 1:539.03722 2:241.07384 
1 1:323.59797 2:262.38499 
1 1:77.944999 2:201.96182 
1 1:360.93959 2:362.00612 
1 1:300.57308 2:308.37155 
1 1:539.03722 2:241.07384 
1 1:323.59797 2:262.38499 
1 1:77.944999 2:201.96182 
1 1:360.93959 2:362.00612 
1 1:300.57308 2:308.37155 
1 1:539.03722 2:241.07384 
1 1:323.59797 2:262.38499 
1 1:77.944999 2:201.96182 
1 1:360.93959 2:362.00612 
1 1:300.57308 2:308.37155 
1 1:539.03722 2:241.07384 
1 1:323.59797 2:262.38499 
1 1:77.944999 2:201.96182 
1 1:360.93959 2:362.00612 
1 1:300.57308 2:308.37155 
1 1:539.03722 2:241.07384 
1 1:323.59797 2:262.38499 
1 1:77.944999 2:201.96182 
1 1:360.93959 2:362.00612 
1 1:300.57308 2:308.37155 
1 1:539.03722 2:241.07384 
1 1:323.59797 2:262.38499 
1 1:77.944999 2:201.96182 
1 1:360.93959 2:362.00612 
1 1:300.57308 2:308.37155 
1 1:539.03722 2:241.07384 
1 1:323.59797 2:262.38499 
1 1:77.944999 2:201.96182 
1 1:360.93959 2:362.00612 
1 1:300.57308 2:308.37155 
1 1:539.03722 2:241.07384 
1 1:323.59797 2:262.38499 
1 1:77.944999 2:201.96182 
1 1:360.93959 2:362.00612 
1 1:300.57308 2:308.37155 
1 1:539.03722 2:241.07384 
0.2499999846240684 1:323.59797 2:262.38499 
0.3125000066346058 1:77.944999 2:201.96182 
0.2006431275513023 1:360.93959 2:362.00612 
0.2500000000016342 1:300.57308 2:308.37155 
0.2763101193122584 1:539.03722 2:241.07384 
0.04047360804855593 1:539.03722 2:241.07384 
0.06678148022674613 1:323.59797 2:262.38499 
0.00438718700274876 1:77.944999 2:201.96182 
0.04950307626578443 1:360.93959 2:362.00612 
0.06685062851755141 1:300.57308 2:308.37155 
1 1:466.68795 2:256.77488 
1 1:495.61118 2:350.42458 
1 1:243.56237 2:111.04495 
1 1:543.74572 2:211.81205 
1 1:665.25655 2:460.92161 
1 1:466.68795 2:256.77488 
1 1:495.61118 2:350.42458 
1 1:243.56237 2:111.04495 
1 1:543.74572 2:211.81205 
1 1:665.25655 2:460.92161 
1 1:466.68795 2:256.77488 
1 1:495.61118 2:350.42458 
1 1:243.56237 2:111.04495 
1 1:543.74572 2:211.81205 
1 1:665.25655 2:460.92161 
1 1:466.68795 2:256.77488 
1 1:495.61118 2:350.42458 
1 1:243.56237 2:111.04495 
1 1:543.74572 2:211.81205 
1 1:665.25655 2:460.92161 
1 1:466.68795 2:256.77488 
1 1:495.61118 2:350.42458 
1 1:243.56237 2:111.04495 
1 1:543.74572 2:211.81205 
1 1:665.25655 2:460.92161 
1 1:466.68795 2:256.77488 
1 1:495.61118 2:350.42458 
1 1:243.56237 2:111.04495 
1 1:543.74572 2:211.81205 
1 1:665.25655 2:460.92161 
1 1:466.68795 2:256.77488 
1 1:495.61118 2:350.42458 
1 1:243.56237 2:111.04495 
1 1:543.74572 2:211.81205 
1 1:665.25655 2:460.92161 
1 1:466.68795 2:256.77488 
1 1:495.61118 2:350.42458 
1 1:243.56237 2:111.04495 
1 1:543.74572 2:211.81205 
1 1:665.25655 2:460.92161 
1 1:466.68795 2:256.77488 
1 1:495.61118 2:350.42458 
1 1:243.56237 2:111.04495 
1 1:543.74572 2:211.81205 
1 1:665.25655 2:460.92161 
1 1:466.68795 2:256.77488 
1 1:495.61118 2:350.42458 
1 1:243.56237 2:111.04495 
1 1:543.74572 2:211.81205 
1 1:665.25655 2:460.92161 
1 1:466.68795 2:256.77488 
1 1:495.61118 2:350.42458 
1 1:243.56237 2:111.04495 
1 1:543.74572 2:211.81205 
1 1:665.25655 2:460.92161 
1 1:466.68795 2:256.77488 
1 1:495.61118 2:350.42458 
1 1:243.56237 2:111.04495 
1 1:543.74572 2:211.81205 
1 1:665.25655 2:460.92161 
1 1:466.68795 2:256.77488 
1 1:495.61118 2:350.42458 
1 1:243.56237 2:111.04495 
1 1:543.74572 2:211.81205 
1 1:665.25655 2:460.92161 
1 1:466.68795 2:256.77488 
1 1:495.61118 2:350.42458 
1 1:243.56237 2:111.04495 
1 1:543.74572 2:211.81205 
1 1:665.25655 2:460.92161 
1 1:466.68795 2:256.77488 
1 1:495.61118 2:350.42458 
1 1:243.56237 2:111.04495 
1 1:543.74572 2:211.81205 
1 1:665.25655 2:460.92161 
1 1:466.68795 2:256.77488 
1 1:495.61118 2:350.42458 
1 1:243.56237 2:111.04495 
1 1:543.74572 2:211.81205 
1 1:665.25655 2:460.92161 
1 1:466.68795 2:256.77488 
1 1:495.61118 2:350.42458 
1 1:243.56237 2:111.04495 
1 1:543.74572 2:211.81205 
1 1:665.25655 2:460.92161 
1 1:466.68795 2:256.77488 
1 1:495.61118 2:350.42458 
1 1:243.56237 2:111.04495 
1 1:543.74572 2:211.81205 
1 1:665.25655 2:460.92161 
0.31250000745972 1:466.68795 2:256.77488 
0.2498751265658417 1:495.61118 2:350.42458 
0.3125000076539184 1:243.56237 2:111.04495 
0.3125000083948599 1:543.74572 2:211.81205 
0.3125000083948599 1:665.25655 2:460.92161 
0.004403793342159901 1:466.68795 2:256.77488 
0.06655168260945743 1:495.61118 2:350.42458 
0.004409170747859292 1:243.56237 2:111.04495 
0.004328169511477853 1:543.74572 2:211.81205 
0.004328140702343219 1:665.25655 2:460.92161 
1 1:1500.7766 2:253.152 
1 1:952.74883 2:197.86598 
1 1:654.46665 2:129.7534 
1 1:1216.0274 2:238.99146 
1 1:1285.5551 2:285.98133 
1 1:1500.7766 2:253.152 
1 1:952.74883 2:197.86598 
1 1:654.46665 2:129.7534 
1 1:1216.0274 2:238.99146 
1 1:1285.5551 2:285.98133 
1 1:1500.7766 2:253.152 
1 1:952.74883 2:197.86598 
1 1:654.46665 2:129.7534 
1 1:1216.0274 2:238.99146 
1 1:1285.5551 2:285.98133 
1 1:1500.7766 2:253.152 
1 1:952.74883 2:197.86598 
1 1:654.46665 2:129.7534 
1 1:1216.0274 2:238.99146 
1 1:1285.5551 2:285.98133 
1 1:1500.7766 2:253.152 
1 1:952.74883 2:197.86598 
1 1:654.46665 2:129.7534 
1 1:1216.0274 2:238.99146 
1 1:1285.5551 2:285.98133 
1 1:1500.7766 2:253.152 
1 1:952.74883 2:197.86598 
1 1:654.46665 2:129.7534 
1 1:1216.0274 2:238.99146 
1 1:1285.5551 2:285.98133 
1 1:1500.7766 2:253.152 
1 1:952.74883 2:197.86598 
1 1:654.46665 2:129.7534 
1 1:1216.0274 2:238.99146 
1 1:1285.5551 2:285.98133 
1 1:1500.7766 2:253.152 
1 1:952.74883 2:197.86598 
1 1:654.46665 2:129.7534 
1 1:1216.0274 2:238.99146 
1 1:1285.5551 2:285.98133 
1 1:1500.7766 2:253.152 
1 1:952.74883 2:197.86598 
1 1:654.46665 2:129.7534 
1 1:1216.0274 2:238.99146 
1 1:1285.5551 2:285.98133 
1 1:1500.7766 2:253.152 
1 1:952.74883 2:197.86598 
1 1:654.46665 2:129.7534 
1 1:1216.0274 2:238.99146 
1 1:1285.5551 2:285.98133 
1 1:1500.7766 2:253.152 
1 1:952.74883 2:197.86598 
1 1:654.46665 2:129.7534 
1 1:1216.0274 2:238.99146 
1 1:1285.5551 2:285.98133 
1 1:1500.7766 2:253.152 
1 1:952.74883 2:197.86598 
1 1:654.46665 2:129.7534 
1 1:1216.0274 2:238.99146 
1 1:1285.5551 2:285.98133 
1 1:1500.7766 2:253.152 
1 1:952.74883 2:197.86598 
1 1:654.46665 2:129.7534 
1 1:1216.0274 2:238.99146 
1 1:1285.5551 2:285.98133 
1 1:1500.7766 2:253.152 
1 1:952.74883 2:197.86598 
1 1:654.46665 2:129.7534 
1 1:1216.0274 2:238.99146 
1 1:1285.5551 2:285.98133 
1 1:1500.7766 2:253.152 
1 1:952.74883 2:197.86598 
1 1:654.46665 2:129.7534 
1 1:1216.0274 2:238.99146 
1 1:1285.5551 2:285.98133 
1 1:1500.7766 2:253.152 
1 1:952.74883 2:197.86598 
1 1:654.46665 2:129.7534 
1 1:1216.0274 2:238.99146 
1 1:1285.5551 2:285.98133 
1 1:1500.7766 2:253.152 
1 1:952.74883 2:197.86598 
1 1:654.46665 2:129.7534 
1 1:1216.0274 2:238.99146 
1 1:1285.5551 2:285.98133 
1 1:1500.7766 2:253.152 
1 1:952.74883 2:197.86598 
1 1:654.46665 2:129.7534 
1 1:1216.0274 2:238.99146 
1 1:1285.5551 2:285.98133 
0.3125000082811855 1:1500.7766 2:253.152 
0.3125000100414912 1:952.74883 2:197.86598 
0.3125000100398037 1:654.46665 2:129.7534 
0.3125000129999957 1:1216.0274 2:238.99146 
0.3125000131776652 1:1285.5551 2:285.98133 
0.004333313895605428 1:1500.7766 2:253.152 
0.004309766168077545 1:952.74883 2:197.86598 
0.004328466197152991 1:654.46665 2:129.7534 
0.004289965514972849 1:1216.0274 2:238.99146 
0.004267627650003547 1:1285.5551 2:285.98133 
1 1:782.49453 2:631.66731 
1 1:759.287 2:520.31304 
1 1:279.79372 2:356.95295 
1 1:669.89232 2:806.46107 
1 1:852.50606 2:677.4804 
1 1:782.49453 2:631.66731 
1 1:759.287 2:520.31304 
1 1:279.79372 2:356.95295 
1 1:669.89232 2:806.46107 
1 1:852.50606 2:677.4804 
1 1:782.49453 2:631.66731 
1 1:759.287 2:520.31304 
1 1:279.79372 2:356.95295 
1 1:669.89232 2:806.46107 
1 1:852.50606 2:677.4804 
1 1:782.49453 2:631.66731 
1 1:759.287 2:520.31304 
1 1:279.79372 2:356.95295 
1 1:669.89232 2:806.46107 
1 1:852.50606 2:677.4804 
1 1:782.49453 2:631.66731 
1 1:759.287 2:520.31304 
1 1:279.79372 2:356.95295 
1 1:669.89232 2:806.46107 
1 1:852.50606 2:677.4804 
1 1:782.49453 2:631.66731 
1 1:759.287 2:520.31304 
1 1:279.79372 2:356.95295 
1 1:669.89232 2:806.46107 
1 1:852.50606 2:677.4804 
1 1:782.49453 2:631.66731 
1 1:759.287 2:520.31304 
1 1:279.79372 2:356.95295 
1 1:669.89232 2:806.46107 
1 1:852.50606 2:677.4804 
1 1:782.49453 2:631.66731 
1 1:759.287 2:520.31304 
1 1:279.79372 2:356.95295 
1 1:669.89232 2:806.46107 
1 1:852.50606 2:677.4804 
1 1:782.49453 2:631.66731 
1 1:759.287 2:520.31304 
1 1:279.79372 2:356.95295 
1 1:669.89232 2:806.46107 
1 1:852.50606 2:677.4804 
1 1:782.49453 2:631.66731 
1 1:759.287 2:520.31304 
1 1:279.79372 2:356.95295 
1 1:669.89232 2:806.46107 
1 1:852.50606 2:677.4804 
1 1:782.49453 2:631.66731 
1 1:759.287 2:520.31304 
1 1:279.79372 2:356.95295 
1 1:669.89232 2:806.46107 
1 1:852.50606 2:677.4804 
1 1:782.49453 2:631.66731 
1 1:759.287 2:520.31304 
1 1:279.79372 2:356.95295 
1 1:669.89232 2:806.46107 
1 1:852.50606 2:677.4804 
1 1:782.49453 2:631.66731 
1 1:759.287 2:520.31304 
1 1:279.79372 2:356.95295 
1 1:669.89232 2:806.46107 
1 1:852.50606 2:677.4804 
1 1:782.49453 2:631.66731 
1 1:759.287 2:520.31304 
1 1:279.79372 2:356.95295 
1 1:669.89232 2:806.46107 
1 1:852.50606 2:677.4804 
1 1:782.49453 2:631.66731 
1 1:759.287 2:520.31304 
1 1:279.79372 2:356.95295 
1 1:669.89232 2:806.46107 
1 1:852.50606 2:677.4804 
1 1:782.49453 2:631.66731 
1 1:759.287 2:520.31304 
1 1:279.79372 2:356.95295 
1 1:669.89232 2:806.46107 
1 1:852.50606 2:677.4804 
1 1:782.49453 2:631.66731 
1 1:759.287 2:520.31304 
1 1:279.79372 2:356.95295 
1 1:669.89232 2:806.46107 
1 1:852.50606 2:677.4804 
1 1:782.49453 2:631.66731 
1 1:759.287 2:520.31304 
1 1:279.79372 2:356.95295 
1 1:669.89232 2:806.46107 
1 1:852.50606 2:677.4804 
0.3125000133982407 1:782.49453 2:631.66731 
0.3125000143154484 1:759.287 2:520.31304 
0.3125000142950025 1:279.79372 2:356.95295 
0.3125000143689949 1:669.89232 2:806.46107 
0.3125000150845079 1:852.50606 2:677.4804 
0.004322238363570818 1:279.79372 2:356.95295 
0.004851327045452436 1:669.89232 2:806.46107 
0.004851315541284151 1:852.50606 2:677.4804 
0.004268300545371417 1:782.49453 2:631.66731 
0.004314684292360482 1:759.287 2:520.31304 
1 1:407.29547 2:437.60389 
1 1:464.0596 2:821.05878 
1 1:477.19769 2:554.98546 
1 1:926.24877 2:515.59405 
1 1:584.94722 2:333.66098 
1 1:407.29547 2:437.60389 
1 1:464.0596 2:821.05878 
1 1:477.19769 2:554.98546 
1 1:926.24877 2:515.59405 
1 1:584.94722 2:333.66098 
1 1:407.29547 2:437.60389 
1 1:464.0596 2:821.05878 
1 1:477.19769 2:554.98546 
1 1:926.24877 2:515.59405 
1 1:584.94722 2:333.66098 
1 1:407.29547 2:437.60389 
1 1:464.0596 2:821.05878 
1 1:477.19769 2:554.98546 
1 1:926.24877 2:515.59405 
1 1:584.94722 2:333.66098 
1 1:407.29547 2:437.60389 
1 1:464.0596 2:821.05878 
1 1:477.19769 2:554.98546 
1 1:926.24877 2:515.59405 
1 1:584.94722 2:333.66098 
1 1:407.29547 2:437.60389 
1 1:464.0596 2:821.05878 
1 1:477.19769 2:554.98546 
1 1:926.24877 2:515.59405 
1 1:584.94722 2:333.66098 
1 1:407.29547 2:437.60389 
1 1:464.0596 2:821.05878 
1 1:477.19769 2:554.98546 
1 1:926.24877 2:515.59405 
1 1:584.94722 2:333.66098 
1 1:407.29547 2:437.60389 
1 1:464.0596 2:821.05878 
1 1:477.19769 2:554.98546 
1 1:926.24877 2:515.59405 
1 1:584.94722 2:333.66098 
1 1:407.29547 2:437.60389 
1 1:464.0596 2:821.05878 
1 1:477.19769 2:554.98546 
1 1:926.24877 2:515.59405 
1 1:584.94722 2:333.66098 
1 1:407.29547 2:437.60389 
1 1:464.0596 2:821.05878 
1 1:477.19769 2:554.98546 
1 1:926.24877 2:515.59405 
1 1:584.94722 2:333.66098 
1 1:407.29547 2:437.60389 
1 1:464.0596 2:821.05878 
1 1:477.19769 2:554.98546 
1 1:926.24877 2:515.59405 
1 1:584.94722 2:333.66098 
1 1:407.29547 2:437.60389 
1 1:464.0596 2:821.05878 
1 1:477.19769 2:554.98546 
1 1:926.24877 2:515.59405 
1 1:584.94722 2:333.66098 
1 1:407.29547 2:437.60389 
1 1:464.0596 2:821.05878 
1 1:477.19769 2:554.98546 
1 1:926.24877 2:515.59405 
1 1:584.94722 2:333.66098 
1 1:407.29547 2:437.60389 
1 1:464.0596 2:821.05878 
1 1:477.19769 2:554.98546 
1 1:926.24877 2:515.59405 
1 1:584.94722 2:333.66098 
1 1:407.29547 2:437.60389 
1 1:464.0596 2:821.05878 
1 1:477.19769 2:554.98546 
1 1:926.24877 2:515.59405 
1 1:584.94722 2:333.66098 
1 1:407.29547 2:437.60389 
1 1:464.0596 2:821.05878 
1 1:477.19769 2:554.98546 
1 1:926.24877 2:515.59405 
1 1:584.94722 2:333.66098 
1 1:407.29547 2:437.60389 
1 1:464.0596 2:821.05878 
1 1:477.19769 2:554.98546 
1 1:926.24877 2:515.59405 
1 1:584.94722 2:333.66098 
1 1:407.29547 2:437.60389 
1 1:464.0596 2:821.05878 
1 1:477.19769 2:554.98546 
1 1:926.24877 2:515.59405 
1 1:584.94722 2:333.66098 
0.3125000196758965 1:407.29547 2:437.60389 
0.3125000199479597 1:464.0596 2:821.05878 
0.3125000235452724 1:477.19769 2:554.98546 
0.3125000243603093 1:926.24877 2:515.59405 
0.3125000238710243 1:584.94722 2:333.66098 
0.004373553235327066 1:926.24877 2:515.59405 
0.004373714008172769 1:584.94722 2:333.66098 
0.004732511416897012 1:407.29547 2:437.60389 
0.004732495113149326 1:464.0596 2:821.05878 
0.004650339874432419 1:477.19769 2:554.98546 
1 1:1181.6785 2:442.1406 
1 1:401.50227 2:367.52327 
1 1:489.36766 2:310.20994 
1 1:488.00646 2:600.57286 
1 1:740.92056 2:625.78963 
1 1:1181.6785 2:442.1406 
1 1:401.50227 2:367.52327 
1 1:489.36766 2:310.20994 
1 1:488.00646 2:600.57286 
1 1:740.92056 2:625.78963 
1 1:1181.6785 2:442.1406 
1 1:401.50227 2:367.52327 
1 1:489.36766 2:310.20994 
1 1:488.00646 2:600.57286 
1 1:740.92056 2:625.78963 
1 1:1181.6785 2:442.1406 
1 1:401.50227 2:367.52327 
1 1:489.36766 2:310.20994 
1 1:488.00646 2:600.57286 
1 1:740.92056 2:625.78963 
1 1:1181.6785 2:442.1406 
1 1:401.50227 2:367.52327 
1 1:489.36766 2:310.20994 
1 1:488.00646 2:600.57286 
1 1:740.92056 2:625.78963 
1 1:1181.6785 2:442.1406 
1 1:401.50227 2:367.52327 
1 1:489.36766 2:310.20994 
1 1:488.00646 2:600.57286 
1 1:740.92056 2:625.78963 
1 1:1181.6785 2:442.1406 
1 1:401.50227 2:367.52327 
1 1:489.36766 2:310.20994 
1 1:488.00646 2:600.57286 
1 1:740.92056 2:625.78963 
1 1:1181.6785 2:442.1406 
1 1:401.50227 2:367.52327 
1 1:489.36766 2:310.20994 
1 1:488.00646 2:600.57286 
1 1:740.92056 2:625.78963 
1 1:1181.6785 2:442.1406 
1 1:401.50227 2:367.52327 
1 1:489.36766 2:310.20994 
1 1:488.00646 2:600.57286 
1 1:740.92056 2:625.78963 
1 1:1181.6785 2:442.1406 
1 1:401.50227 2:367.52327 
1 1:489.36766 2:310.20994 
1 1:488.00646 2:600.57286 
1 1:740.92056 2:625.78963 
1 1:1181.6785 2:442.1406 
1 1:401.50227 2:367.52327 
1 1:489.36766 2:310.20994 
1 1:488.00646 2:600.57286 
1 1:740.92056 2:625.78963 
1 1:1181.6785 2:442.1406 
1 1:401.50227 2:367.52327 
1 1:489.36766 2:310.20994 
1 1:488.00646 2:600.57286 
1 1:740.92056 2:625.78963 
1 1:1181.6785 2:442.1406 
1 1:401.50227 2:367.52327 
1 1:489.36766 2:310.20994 
1 1:488.00646 2:600.57286 
1 1:740.92056 2:625.78963 
1 1:1181.6785 2:442.1406 
1 1:401.50227 2:367.52327 
1 1:489.36766 2:310.20994 
1 1:488.00646 2:600.57286 
1 1:740.92056 2:625.78963 
1 1:1181.6785 2:442.1406 
1 1:401.50227 2:367.52327 
1 1:489.36766 2:310.20994 
1 1:488.00646 2:600.57286 
1 1:740.92056 2:625.78963 
1 1:1181.6785 2:442.1406 
1 1:401.50227 2:367.52327 
1 1:489.36766 2:310.20994 
1 1:488.00646 2:600.57286 
1 1:740.92056 2:625.78963 
1 1:1181.6785 2:442.1406 
1 1:401.50227 2:367.52327 
1 1:489.36766 2:310.20994 
1 1:488.00646 2:600.57286 
1 1:740.92056 2:625.78963 
1 1:1181.6785 2:442.1406 
1 1:401.50227 2:367.52327 
0.8629444690599559 1:489.36766 2:310.20994 
1 1:488.00646 2:600.57286 
1 1:740.92056 2:625.78963 
0.3125000314595958 1:1181.6785 2:442.1406 
0.3125000291335027 1:401.50227 2:367.52327 
0.3125000314590896 1:488.00646 2:600.57286 
0.312500032437347 1:740.92056 2:625.78963 
0.004168904326192546 1:1181.6785 2:442.1406 
0.004281751765990549 1:401.50227 2:367.52327 
0.004190657451022872 1:488.00646 2:600.57286 
0.004099686408304493 1:740.92056 2:625.78963 
1 1:1224.0787 2:627.23617 
1 1:380.86828 2:313.58488 
1 1:536.80063 2:418.75489 
1 1:903.50151 2:574.41578 
1 1:741.49308 2:711.94686 
1 1:1224.0787 2:627.23617 
1 1:380.86828 2:313.58488 
1 1:536.80063 2:418.75489 
1 1:903.50151 2:574.41578 
1 1:741.49308 2:711.94686 
1 1:1224.0787 2:627.23617 
1 1:380.86828 2:313.58488 
1 1:536.80063 2:418.75489 
1 1:903.50151 2:574.41578 
1 1:741.49308 2:711.94686 
1 1:1224.0787 2:627.23617 
1 1:380.86828 2:313.58488 
1 1:536.80063 2:418.75489 
1 1:903.50151 2:574.41578 
1 1:741.49308 2:711.94686 
1 1:1224.0787 2:627.23617 
1 1:380.86828 2:313.58488 
1 1:536.80063 2:418.75489 
1 1:903.50151 2:574.41578 
1 1:741.49308 2:711.94686 
1 1:1224.0787 2:627.23617 
1 1:380.86828 2:313.58488 
1 1:536.80063 2:418.75489 
1 1:903.50151 2:574.41578 
1 1:741.49308 2:711.94686 
1 1:1224.0787 2:627.23617 
1 1:380.86828 2:313.58488 
1 1:536.80063 2:418.75489 
1 1:903.50151 2:574.41578 
1 1:741.49308 2:711.94686 
1 1:1224.0787 2:627.23617 
1 1:380.86828 2:313.58488 
1 1:536.80063 2:418.75489 
1 1:903.50151 2:574.41578 
1 1:741.49308 2:711.94686 
1 1:1224.0787 2:627.23617 
1 1:380.86828 2:313.58488 
1 1:536.80063 2:418.75489 
1 1:903.50151 2:574.41578 
1 1:741.49308 2:711.94686 
1 1:1224.0787 2:627.23617 
1 1:380.86828 2:313.58488 
1 1:536.80063 2:418.75489 
1 1:903.50151 2:574.41578 
1 1:741.49308 2:711.94686 
1 1:1224.0787 2:627.23617 
1 1:380.86828 2:313.58488 
1 1:536.80063 2:418.75489 
1 1:903.50151 2:574.41578 
1 1:741.49308 2:711.94686 
1 1:1224.0787 2:627.23617 
1 1:380.86828 2:313.58488 
1 1:536.80063 2:418.75489 
1 1:903.50151 2:574.41578 
1 1:741.49308 2:711.94686 
1 1:1224.0787 2:627.23617 
1 1:380.86828 2:313.58488 
1 1:536.80063 2:418.75489 
1 1:903.50151 2:574.41578 
1 1:741.49308 2:711.94686 
1 1:1224.0787 2:627.23617 
1 1:380.86828 2:313.58488 
1 1:536.80063 2:418.75489 
1 1:903.50151 2:574.41578 
1 1:741.49308 2:711.94686 
1 1:1224.0787 2:627.23617 
1 1:380.86828 2:313.58488 
1 1:536.80063 2:418.75489 
1 1:903.50151 2:574.41578 
1 1:741.49308 2:711.94686 
1 1:1224.0787 2:627.23617 
1 1:380.86828 2:313.58488 
1 1:536.80063 2:418.75489 
1 1:903.50151 2:574.41578 
1 1:741.49308 2:711.94686 
1 1:1224.0787 2:627.23617 
1 1:380.86828 2:313.58488 
1 1:536.80063 2:418.75489 
1 1:903.50151 2:574.41578 
1 1:741.49308 2:711.94686 
1 1:1224.0787 2:627.23617 
1 1:380.86828 2:313.58488 
1 1:536.80063 2:418.75489 
1 1:903.50151 2:574.41578 
1 1:741.49308 2:711.94686 
0.3125000332011059 1:1224.0787 2:627.23617 
0.2499748832269493 1:380.86828 2:313.58488 
0.2499719526315403 1:536.80063 2:418.75489 
0.3125000337295933 1:903.50151 2:574.41578 
0.3125000342279431 1:741.49308 2:711.94686 
0.004096042918167342 1:1224.0787 2:627.23617 
0.06722347801244943 1:380.86828 2:313.58488 
0.06718121063507532 1:536.80063 2:418.75489 
0.004043781537772517 1:903.50151 2:574.41578 
0.004036786870917908 1:741.49308 2:711.94686 
1 1:1307.1968 2:836.99968 
1 1:903.86999 2:732.01675 
1 1:572.76366 2:428.31222 
1 1:859.56278 2:690.61769 
1 1:861.36529 2:767.70483 
1 1:1307.1968 2:836.99968 
1 1:903.86999 2:732.01675 
1 1:572.76366 2:428.31222 
1 1:859.56278 2:690.61769 
1 1:861.36529 2:767.70483 
1 1:1307.1968 2:836.99968 
1 1:903.86999 2:732.01675 
1 1:572.76366 2:428.31222 
1 1:859.56278 2:690.61769 
1 1:861.36529 2:767.70483 
1 1:1307.1968 2:836.99968 
1 1:903.86999 2:732.01675 
1 1:572.76366 2:428.31222 
1 1:859.56278 2:690.61769 
1 1:861.36529 2:767.70483 
1 1:1307.1968 2:836.99968 
1 1:903.86999 2:732.01675 
1 1:572.76366 2:428.31222 
1 1:859.56278 2:690.61769 
1 1:861.36529 2:767.70483 
1 1:1307.1968 2:836.99968 
1 1:903.86999 2:732.01675 
1 1:572.76366 2:428.31222 
1 1:859.56278 2:690.61769 
1 1:861.36529 2:767.70483 
1 1:1307.1968 2:836.99968 
1 1:903.86999 2:732.01675 
1 1:572.76366 2:428.31222 
1 1:859.56278 2:690.61769 
1 1:861.36529 2:767.70483 
1 1:1307.1968 2:836.99968 
1 1:903.86999 2:732.01675 
1 1:572.76366 2:428.31222 
1 1:859.56278 2:690.61769 
1 1:861.36529 2:767.70483 
1 1:1307.1968 2:836.99968 
1 1:903.86999 2:732.01675 
1 1:572.76366 2:428.31222 
1 1:859.56278 2:690.61769 
1 1:861.36529 2:767.70483 
1 1:1307.1968 2:836.99968 
1 1:903.86999 2:732.01675 
1 1:572.76366 2:428.31222 
1 1:859.56278 2:690.61769 
1 1:861.36529 2:767.70483 
1 1:1307.1968 2:836.99968 
1 1:903.86999 2:732.01675 
1 1:572.76366 2:428.31222 
1 1:859.56278 2:690.61769 
1 1:861.36529 2:767.70483 
1 1:1307.1968 2:836.99968 
1 1:903.86999 2:732.01675 
1 1:572.76366 2:428.31222 
1 1:859.56278 2:690.61769 
1 1:861.36529 2:767.70483 
1 1:1307.1968 2:836.99968 
1 1:903.86999 2:732.01675 
1 1:572.76366 2:428.31222 
1 1:859.56278 2:690.61769 
1 1:861.36529 2:767.70483 
1 1:1307.1968 2:836.99968 
1 1:903.86999 2:732.01675 
1 1:572.76366 2:428.31222 
1 1:859.56278 2:690.61769 
1 1:861.36529 2:767.70483 
1 1:1307.1968 2:836.99968 
1 1:903.86999 2:732.01675 
1 1:572.76366 2:428.31222 
1 1:859.56278 2:690.61769 
1 1:861.36529 2:767.70483 
1 1:1307.1968 2:836.99968 
1 1:903.86999 2:732.01675 
1 1:572.76366 2:428.31222 
1 1:859.56278 2:690.61769 
1 1:861.36529 2:767.70483 
1 1:1307.1968 2:836.99968 
1 1:903.86999 2:732.01675 
1 1:572.76366 2:428.31222 
1 1:859.56278 2:690.61769 
1 1:861.36529 2:767.70483 
1 1:1307.1968 2:836.99968 
1 1:903.86999 2:732.01675 
1 1:572.76366 2:428.31222 
1 1:859.56278 2:690.61769 
1 1:861.36529 2:767.70483 
0.3125000401033944 1:1307.1968 2:836.99968 
0.3125000423261017 1:903.86999 2:732.01675 
0.3125000492527725 1:572.76366 2:428.31222 
0.3125000516449816 1:859.56278 2:690.61769 
0.312500050960363 1:861.36529 2:767.70483 
0.003903074289933528 1:1307.1968 2:836.99968 
0.003902057264932424 1:903.86999 2:732.01675 
0.004314874393482881 1:572.76366 2:428.31222 
0.004307502135825203 1:859.56278 2:690.61769 
0.004267699180537932 1:861.36529 2:767.70483 
1 1:615.59958 2:640.04185 
1 1:242.77583 2:682.87184 
1 1:292.72346 2:540.97826 
1 1:324.81834 2:743.21577 
1 1:402.36898 2:680.24942 
1 1:615.59958 2:640.04185 
1 1:242.77583 2:682.87184 
1 1:292.72346 2:540.97826 
1 1:324.81834 2:743.21577 
1 1:402.36898 2:680.24942 
1 1:615.59958 2:640.04185 
1 1:242.77583 2:682.87184 
1 1:292.72346 2:540.97826 
1 1:324.81834 2:743.21577 
1 1:402.36898 2:680.24942 
1 1:615.59958 2:640.04185 
1 1:242.77583 2:682.87184 
1 1:292.72346 2:540.97826 
1 1:324.81834 2:743.21577 
1 1:402.36898 2:680.24942 
1 1:615.59958 2:640.04185 
1 1:242.77583 2:682.87184 
1 1:292.72346 2:540.97826 
1 1:324.81834 2:743.21577 
1 1:402.36898 2:680.24942 
1 1:615.59958 2:640.04185 
1 1:242.77583 2:682.87184 
1 1:292.72346 2:540.97826 
1 1:324.81834 2:743.21577 
1 1:402.36898 2:680.24942 
1 1:615.59958 2:640.04185 
1 1:242.77583 2:682.87184 
1 1:292.72346 2:540.97826 
1 1:324.81834 2:743.21577 
1 1:402.36898 2:680.24942 
1 1:615.59958 2:640.04185 
1 1:242.77583 2:682.87184 
1 1:292.72346 2:540.97826 
1 1:324.81834 2:743.21577 
1 1:402.36898 2:680.24942 
1 1:615.59958 2:640.04185 
1 1:242.77583 2:682.87184 
1 1:292.72346 2:540.97826 
1 1:324.81834 2:743.21577 
1 1:402.36898 2:680.24942 
1 1:615.59958 2:640.04185 
1 1:242.77583 2:682.87184 
1 1:292.72346 2:540.97826 
1 1:324.81834 2:743.21577 
1 1:402.36898 2:680.24942 
1 1:615.59958 2:640.04185 
1 1:242.77583 2:682.87184 
1 1:292.72346 2:540.97826 
1 1:324.81834 2:743.21577 
1 1:402.36898 2:680.24942 
1 1:615.59958 2:640.04185 
1 1:242.77583 2:682.87184 
1 1:292.72346 2:540.97826 
1 1:324.81834 2:743.21577 
1 1:402.36898 2:680.24942 
1 1:615.59958 2:640.04185 
1 1:242.77583 2:682.87184 
1 1:292.72346 2:540.97826 
1 1:324.81834 2:743.21577 
1 1:402.36898 2:680.24942 
1 1:615.59958 2:640.04185 
1 1:242.77583 2:682.87184 
1 1:292.72346 2:540.97826 
1 1:324.81834 2:743.21577 
1 1:402.36898 2:680.24942 
1 1:615.59958 2:640.04185 
1 1:242.77583 2:682.87184 
1 1:292.72346 2:540.97826 
1 1:324.81834 2:743.21577 
1 1:402.36898 2:680.24942 
1 1:615.59958 2:640.04185 
1 1:242.77583 2:682.87184 
1 1:292.72346 2:540.97826 
1 1:324.81834 2:743.21577 
1 1:402.36898 2:680.24942 
1 1:615.59958 2:640.04185 
1 1:242.77583 2:682.87184 
1 1:292.72346 2:540.97826 
1 1:324.81834 2:743.21577 
1 1:402.36898 2:680.24942 
1 1:615.59958 2:640.04185 
1 1:242.77583 2:682.87184 
1 1:292.72346 2:540.97826 
1 1:324.81834 2:743.21577 
1 1:402.36898 2:680.24942 
0.3125000652850787 1:615.59958 2:640.04185 
0.3125000652847145 1:242.77583 2:682.87184 
0.3125000687946322 1:292.72346 2:540.97826 
0.3125000877905979 1:324.81834 2:743.21577 
0.3125000792115742 1:402.36898 2:680.24942 
0.004381677297516262 1:615.59958 2:640.04185 
0.004330976491230487 1:242.77583 2:682.87184 
0.004325724042807622 1:292.72346 2:540.97826 
0.004386796537414028 1:324.81834 2:743.21577 
0.00431842397153126 1:402.36898 2:680.24942 
1 1:424.95965 2:474.11175 
1 1:439.02134 2:649.61093 
1 1:420.99649 2:348.29617 
1 1:344.18113 2:533.15573 
1 1:639.16373 2:721.81891 
1 1:424.95965 2:474.11175 
1 1:439.02134 2:649.61093 
1 1:420.99649 2:348.29617 
1 1:344.18113 2:533.15573 
1 1:639.16373 2:721.81891 
1 1:424.95965 2:474.11175 
1 1:439.02134 2:649.61093 
1 1:420.99649 2:348.29617 
1 1:344.18113 2:533.15573 
1 1:639.16373 2:721.81891 
1 1:424.95965 2:474.11175 
1 1:439.02134 2:649.61093 
1 1:420.99649 2:348.29617 
1 1:344.18113 2:533.15573 
1 1:639.16373 2:721.81891 
1 1:424.95965 2:474.11175 
1 1:439.02134 2:649.61093 
1 1:420.99649 2:348.29617 
1 1:344.18113 2:533.15573 
1 1:639.16373 2:721.81891 
1 1:424.95965 2:474.11175 
1 1:439.02134 2:649.61093 
1 1:420.99649 2:348.29617 
1 1:344.18113 2:533.15573 
1 1:639.16373 2:721.81891 
1 1:424.95965 2:474.11175 
1 1:439.02134 2:649.61093 
1 1:420.99649 2:348.29617 
1 1:344.18113 2:533.15573 
1 1:639.16373 2:721.81891 
1 1:424.95965 2:474.11175 
1 1:439.02134 2:649.61093 
1 1:420.99649 2:348.29617 
1 1:344.18113 2:533.15573 
1 1:639.16373 2:721.81891 
1 1:424.95965 2:474.11175 
1 1:439.02134 2:649.61093 
1 1:420.99649 2:348.29617 
1 1:344.18113 2:533.15573 
1 1:639.16373 2:721.81891 
1 1:424.95965 2:474.11175 
1 1:439.02134 2:649.61093 
1 1:420.99649 2:348.29617 
1 1:344.18113 2:533.15573 
1 1:639.16373 2:721.81891 
1 1:424.95965 2:474.11175 
1 1:439.02134 2:649.61093 
1 1:420.99649 2:348.29617 
1 1:344.18113 2:533.15573 
1 1:639.16373 2:721.81891 
1 1:424.95965 2:474.11175 
1 1:439.02134 2:649.61093 
1 1:420.99649 2:348.29617 
1 1:344.18113 2:533.15573 
1 1:639.16373 2:721.81891 
1 1:424.95965 2:474.11175 
1 1:439.02134 2:649.61093 
1 1:420.99649 2:348.29617 
1 1:344.18113 2:533.15573 
1 1:639.16373 2:721.81891 
1 1:424.95965 2:474.11175 
1 1:439.02134 2:649.61093 
1 1:420.99649 2:348.29617 
1 1:344.18113 2:533.15573 
1 1:639.16373 2:721.81891 
1 1:424.95965 2:474.11175 
1 1:439.02134 2:649.61093 
1 1:420.99649 2:348.29617 
1 1:344.18113 2:533.15573 
1 1:639.16373 2:721.81891 
1 1:424.95965 2:474.11175 
1 1:439.02134 2:649.61093 
1 1:420.99649 2:348.29617 
1 1:344.18113 2:533.15573 
1 1:639.16373 2:721.81891 
1 1:424.95965 2:474.11175 
1 1:439.02134 2:649.61093 
1 1:420.99649 2:348.29617 
1 1:344.18113 2:533.15573 
1 1:639.16373 2:721.81891 
1 1:424.95965 2:474.11175 
1 1:439.02134 2:649.61093 
1 1:420.99649 2:348.29617 
1 1:344.18113 2:533.15573 
1 1:639.16373 2:721.81891 
0.2499999996616591 1:424.95965 2:474.11175 
0.3125000776175266 1:439.02134 2:649.61093 
0.249999797953615 1:420.99649 2:348.29617 
0.3125000918544458 1:344.18113 2:533.15573 
0.3125001143007928 1:639.16373 2:721.81891 
0.004270324603092845 1:439.02134 2:649.61093 
0.06640537587528783 1:420.99649 2:348.29617 
0.004398113526631775 1:344.18113 2:533.15573 
0.004364688442560549 1:639.16373 2:721.81891 
0.06690923592566733 1:424.95965 2:474.11175 
1 1:557.69353 2:334.55263 
1 1:274.66744 2:221.47307 
1 1:971.34989 2:382.59713 
1 1:505.32997 2:566.40964 
1 1:695.36772 2:205.77517 
1 1:557.69353 2:334.55263 
1 1:274.66744 2:221.47307 
1 1:971.34989 2:382.59713 
1 1:505.32997 2:566.40964 
1 1:695.36772 2:205.77517 
1 1:557.69353 2:334.55263 
1 1:274.66744 2:221.47307 
1 1:971.34989 2:382.59713 
1 1:505.32997 2:566.40964 
1 1:695.36772 2:205.77517 
1 1:557.69353 2:334.55263 
1 1:274.66744 2:221.47307 
1 1:971.34989 2:382.59713 
1 1:505.32997 2:566.40964 
1 1:695.36772 2:205.77517 
1 1:557.69353 2:334.55263 
1 1:274.66744 2:221.47307 
1 1:971.34989 2:382.59713 
1 1:505.32997 2:566.40964 
1 1:695.36772 2:205.77517 
1 1:557.69353 2:334.55263 
1 1:274.66744 2:221.47307 
1 1:971.34989 2:382.59713 
1 1:505.32997 2:566.40964 
1 1:695.36772 2:205.77517 
1 1:557.69353 2:334.55263 
1 1:274.66744 2:221.47307 
1 1:971.34989 2:382.59713 
1 1:505.32997 2:566.40964 
1 1:695.36772 2:205.77517 
1 1:557.69353 2:334.55263 
1 1:274.66744 2:221.47307 
1 1:971.34989 2:382.59713 
1 1:505.32997 2:566.40964 
1 1:695.36772 2:205.77517 
1 1:557.69353 2:334.55263 
1 1:274.66744 2:221.47307 
1 1:971.34989 2:382.59713 
1 1:505.32997 2:566.40964 
1 1:695.36772 2:205.77517 
1 1:557.69353 2:334.55263 
1 1:274.66744 2:221.47307 
1 1:971.34989 2:382.59713 
1 1:505.32997 2:566.40964 
1 1:695.36772 2:205.77517 
1 1:557.69353 2:334.55263 
1 1:274.66744 2:221.47307 
1 1:971.34989 2:382.59713 
1 1:505.32997 2:566.40964 
1 1:695.36772 2:205.77517 
1 1:557.69353 2:334.55263 
1 1:274.66744 2:221.47307 
1 1:971.34989 2:382.59713 
1 1:505.32997 2:566.40964 
1 1:695.36772 2:205.77517 
1 1:557.69353 2:334.55263 
1 1:274.66744 2:221.47307 
1 1:971.34989 2:382.59713 
1 1:505.32997 2:566.40964 
1 1:695.36772 2:205.77517 
1 1:557.69353 2:334.55263 
1 1:274.66744 2:221.47307 
1 1:971.34989 2:382.59713 
1 1:505.32997 2:566.40964 
1 1:695.36772 2:205.77517 
1 1:557.69353 2:334.55263 
1 1:274.66744 2:221.47307 
1 1:971.34989 2:382.59713 
1 1:505.32997 2:566.40964 
1 1:695.36772 2:205.77517 
1 1:557.69353 2:334.55263 
1 1:274.66744 2:221.47307 
1 1:971.34989 2:382.59713 
1 1:505.32997 2:566.40964 
1 1:695.36772 2:205.77517 
1 1:557.69353 2:334.55263 
1 1:274.66744 2:221.47307 
1 1:971.34989 2:382.59713 
1 1:505.32997 2:566.40964 
1 1:695.36772 2:205.77517 
1 1:557.69353 2:334.55263 
1 1:274.66744 2:221.47307 
1 1:971.34989 2:382.59713 
1 1:505.32997 2:566.40964 
1 1:695.36772 2:205.77517 
0.3125001142946129 1:557.69353 2:334.55263 
0.2499998115952469 1:274.66744 2:221.47307 
0.3125002040876854 1:971.34989 2:382.59713 
0.312500213546075 1:505.32997 2:566.40964 
0.3125002082804009 1:695.36772 2:205.77517 
0.004331238513064051 1:695.36772 2:205.77517 
0.004453187581857421 1:557.69353 2:334.55263 
0.0665373011372612 1:274.66744 2:221.47307 
0.004350484594292325 1:971.34989 2:382.59713 
0.004289635262923142 1:505.32997 2:566.40964 
1 1:444.06474 2:344.9562 
1 1:488.81671 2:421.75198 
1 1:331.35935 2:448.24473 
1 1:536.56746 2:557.93988 
1 1:550.62773 2:559.34672 
1 1:444.06474 2:344.9562 
1 1:488.81671 2:421.75198 
1 1:331.35935 2:448.24473 
1 1:536.56746 2:557.93988 
1 1:550.62773 2:559.34672 
1 1:444.06474 2:344.9562 
1 1:488.81671 2:421.75198 
1 1:331.35935 2:448.24473 
1 1:536.56746 2:557.93988 
1 1:550.62773 2:559.34672 
1 1:444.06474 2:344.9562 
1 1:488.81671 2:421.75198 
1 1:331.35935 2:448.24473 
1 1:536.56746 2:557.93988 
1 1:550.62773 2:559.34672 
1 1:444.06474 2:344.9562 
1 1:488.81671 2:421.75198 
1 1:331.35935 2:448.24473 
1 1:536.56746 2:557.93988 
1 1:550.62773 2:559.34672 
1 1:444.06474 2:344.9562 
1 1:488.81671 2:421.75198 
1 1:331.35935 2:448.24473 
1 1:536.56746 2:557.93988 
1 1:550.62773 2:559.34672 
1 1:444.06474 2:344.9562 
1 1:488.81671 2:421.75198 
1 1:331.35935 2:448.24473 
1 1:536.56746 2:557.93988 
1 1:550.62773 2:559.34672 
1 1:444.06474 2:344.9562 
1 1:488.81671 2:421.75198 
1 1:331.35935 2:448.24473 
1 1:536.56746 2:557.93988 
1 1:550.62773 2:559.34672 
1 1:444.06474 2:344.9562 
1 1:488.81671 2:421.75198 
1 1:331.35935 2:448.24473 
1 1:536.56746 2:557.93988 
1 1:550.62773 2:559.34672 
1 1:444.06474 2:344.9562 
1 1:488.81671 2:421.75198 
1 1:331.35935 2:448.24473 
1 1:536.56746 2:557.93988 
1 1:550.62773 2:559.34672 
1 1:444.06474 2:344.9562 
1 1:488.81671 2:421.75198 
1 1:331.35935 2:448.24473 
1 1:536.56746 2:557.93988 
1 1:550.62773 2:559.34672 
1 1:444.06474 2:344.9562 
1 1:488.81671 2:421.75198 
1 1:331.35935 2:448.24473 
1 1:536.56746 2:557.93988 
1 1:550.62773 2:559.34672 
1 1:444.06474 2:344.9562 
1 1:488.81671 2:421.75198 
1 1:331.35935 2:448.24473 
1 1:536.56746 2:557.93988 
1 1:550.62773 2:559.34672 
1 1:444.06474 2:344.9562 
1 1:488.81671 2:421.75198 
1 1:331.35935 2:448.24473 
1 1:536.56746 2:557.93988 
1 1:550.62773 2:559.34672 
1 1:444.06474 2:344.9562 
1 1:488.81671 2:421.75198 
1 1:331.35935 2:448.24473 
1 1:536.56746 2:557.93988 
1 1:550.62773 2:559.34672 
1 1:444.06474 2:344.9562 
1 1:488.81671 2:421.75198 
1 1:331.35935 2:448.24473 
1 1:536.56746 2:557.93988 
1 1:550.62773 2:559.34672 
1 1:444.06474 2:344.9562 
1 1:488.81671 2:421.75198 
1 1:331.35935 2:448.24473 
1 1:536.56746 2:557.93988 
1 1:550.62773 2:559.34672 
1 1:444.06474 2:344.9562 
1 1:488.81671 2:421.75198 
1 1:331.35935 2:448.24473 
1 1:536.56746 2:557.93988 
1 1:550.62773 2:559.34672 
0.3125002317281247 1:444.06474 2:344.9562 
0.2499999999661764 1:488.81671 2:421.75198 
0.3125002469485896 1:331.35935 2:448.24473 
0.3125002932253853 1:536.56746 2:557.93988 
0.3125004542829704 1:550.62773 2:559.34672 
0.004323839205392588 1:444.06474 2:344.9562 
0.06688495743062894 1:488.81671 2:421.75198 
0.00426720251811652 1:331.35935 2:448.24473 
0.004294722457208522 1:536.56746 2:557.93988 
0.004397784987469677 1:550.62773 2:559.34672 
1 1:1048.7815 2:381.96908 
1 1:784.51259 2:550.07648 
1 1:674.70561 2:345.66132 
1 1:763.97881 2:698.09643 
1 1:943.57094 2:487.38876 
1 1:1048.7815 2:381.96908 
1 1:784.51259 2:550.07648 
1 1:674.70561 2:345.66132 
1 1:763.97881 2:698.09643 
1 1:943.57094 2:487.38876 
1 1:1048.7815 2:381.96908 
1 1:784.51259 2:550.07648 
1 1:674.70561 2:345.66132 
1 1:763.97881 2:698.09643 
1 1:943.57094 2:487.38876 
1 1:1048.7815 2:381.96908 
1 1:784.51259 2:550.07648 
1 1:674.70561 2:345.66132 
1 1:763.97881 2:698.09643 
1 1:943.57094 2:487.38876 
1 1:1048.7815 2:381.96908 
1 1:784.51259 2:550.07648 
1 1:674.70561 2:345.66132 
1 1:763.97881 2:698.09643 
1 1:943.57094 2:487.38876 
1 1:1048.7815 2:381.96908 
1 1:784.51259 2:550.07648 
1 1:674.70561 2:345.66132 
1 1:763.97881 2:698.09643 
1 1:943.57094 2:487.38876 
1 1:1048.7815 2:381.96908 
1 1:784.51259 2:550.07648 
1 1:674.70561 2:345.66132 
1 1:763.97881 2:698.09643 
1 1:943.57094 2:487.38876 
1 1:1048.7815 2:381.96908 
1 1:784.51259 2:550.07648 
1 1:674.70561 2:345.66132 
1 1:763.97881 2:698.09643 
1 1:943.57094 2:487.38876 
1 1:1048.7815 2:381.96908 
1 1:784.51259 2:550.07648 
1 1:674.70561 2:345.66132 
1 1:763.97881 2:698.09643 
1 1:943.57094 2:487.38876 
1 1:1048.7815 2:381.96908 
1 1:784.51259 2:550.07648 
1 1:674.70561 2:345.66132 
1 1:763.97881 2:698.09643 
1 1:943.57094 2:487.38876 
1 1:1048.7815 2:381.96908 
1 1:784.51259 2:550.07648 
1 1:674.70561 2:345.66132 
1 1:763.97881 2:698.09643 
1 1:943.57094 2:487.38876 
1 1:1048.7815 2:381.96908 
1 1:784.51259 2:550.07648 
1 1:674.70561 2:345.66132 
1 1:763.97881 2:698.09643 
1 1:943.57094 2:487.38876 
1 1:1048.7815 2:381.96908 
1 1:784.51259 2:550.07648 
1 1:674.70561 2:345.66132 
1 1:763.97881 2:698.09643 
1 1:943.57094 2:487.38876 
1 1:1048.7815 2:381.96908 
1 1:784.51259 2:550.07648 
1 1:674.70561 2:345.66132 
1 1:763.97881 2:698.09643 
1 1:943.57094 2:487.38876 
1 1:1048.7815 2:381.96908 
1 1:784.51259 2:550.07648 
1 1:674.70561 2:345.66132 
1 1:763.97881 2:698.09643 
1 1:943.57094 2:487.38876 
1 1:1048.7815 2:381.96908 
1 1:784.51259 2:550.07648 
1 1:674.70561 2:345.66132 
1 1:763.97881 2:698.09643 
1 1:943.57094 2:487.38876 
1 1:1048.7815 2:381.96908 
1 1:784.51259 2:550.07648 
1 1:674.70561 2:345.66132 
1 1:763.97881 2:698.09643 
1 1:943.57094 2:487.38876 
1 1:1048.7815 2:381.96908 
1 1:784.51259 2:550.07648 
1 1:674.70561 2:345.66132 
1 1:763.97881 2:698.09643 
1 1:943.57094 2:487.38876 
0.3125003642124771 1:1048.7815 2:381.96908 
0.3125003568799603 1:784.51259 2:550.07648 
0.3125005392037483 1:674.70561 2:345.66132 
0.3125004934505444 1:763.97881 2:698.09643 
0.312500598903771 1:943.57094 2:487.38876 
0.004431034906755116 1:784.51259 2:550.07648 
0.004386504794993584 1:674.70561 2:345.66132 
0.004388996719166371 1:763.97881 2:698.09643 
0.004371347536498149 1:943.57094 2:487.38876 
0.004418065022433026 1:1048.7815 2:381.96908 
1 1:357.28233 2:325.09993 
1 1:608.67865 2:156.8626 
1 1:295.61785 2:290.52072 
1 1:496.80525 2:299.92852 
1 1:728.42271 2:263.2752 
1 1:357.28233 2:325.09993 
1 1:608.67865 2:156.8626 
1 1:295.61785 2:290.52072 
1 1:496.80525 2:299.92852 
1 1:728.42271 2:263.2752 
1 1:357.28233 2:325.09993 
1 1:608.67865 2:156.8626 
1 1:295.61785 2:290.52072 
1 1:496.80525 2:299.92852 
1 1:728.42271 2:263.2752 
1 1:357.28233 2:325.09993 
1 1:608.67865 2:156.8626 
1 1:295.61785 2:290.52072 
1 1:496.80525 2:299.92852 
1 1:728.42271 2:263.2752 
1 1:357.28233 2:325.09993 
1 1:608.67865 2:156.8626 
1 1:295.61785 2:290.52072 
1 1:496.80525 2:299.92852 
1 1:728.42271 2:263.2752 
1 1:357.28233 2:325.09993 
1 1:608.67865 2:156.8626 
1 1:295.61785 2:290.52072 
1 1:496.80525 2:299.92852 
1 1:728.42271 2:263.2752 
1 1:357.28233 2:325.09993 
1 1:608.67865 2:156.8626 
1 1:295.61785 2:290.52072 
1 1:496.80525 2:299.92852 
1 1:728.42271 2:263.2752 
1 1:357.28233 2:325.09993 
1 1:608.67865 2:156.8626 
1 1:295.61785 2:290.52072 
1 1:496.80525 2:299.92852 
1 1:728.42271 2:263.2752 
1 1:357.28233 2:325.09993 
1 1:608.67865 2:156.8626 
1 1:295.61785 2:290.52072 
1 1:496.80525 2:299.92852 
1 1:728.42271 2:263.2752 
1 1:357.28233 2:325.09993 
1 1:608.67865 2:156.8626 
1 1:295.61785 2:290.52072 
1 1:496.80525 2:299.92852 
1 1:728.42271 2:263.2752 
1 1:357.28233 2:325.09993 
1 1:608.67865 2:156.8626 
1 1:295.61785 2:290.52072 
1 1:496.80525 2:299.92852 
1 1:728.42271 2:263.2752 
1 1:357.28233 2:325.09993 
1 1:608.67865 2:156.8626 
1 1:295.61785 2:290.52072 
1 1:496.80525 2:299.92852 
1 1:728.42271 2:263.2752 
1 1:357.28233 2:325.09993 
1 1:608.67865 2:156.8626 
1 1:295.61785 2:290.52072 
1 1:496.80525 2:299.92852 
1 1:728.42271 2:263.2752 
1 1:357.28233 2:325.09993 
1 1:608.67865 2:156.8626 
1 1:295.61785 2:290.52072 
1 1:496.80525 2:299.92852 
1 1:728.42271 2:263.2752 
1 1:357.28233 2:325.09993 
1 1:608.67865 2:156.8626 
1 1:295.61785 2:290.52072 
1 1:496.80525 2:299.92852 
1 1:728.42271 2:263.2752 
1 1:357.28233 2:325.09993 
1 1:608.67865 2:156.8626 
1 1:295.61785 2:290.52072 
1 1:496.80525 2:299.92852 
1 1:728.42271 2:263.2752 
1 1:357.28233 2:325.09993 
1 1:608.67865 2:156.8626 
1 1:295.61785 2:290.52072 
1 1:496.80525 2:299.92852 
1 1:728.42271 2:263.2752 
1 1:357.28233 2:325.09993 
1 1:608.67865 2:156.8626 
1 1:295.61785 2:290.52072 
1 1:496.80525 2:299.92852 
1 1:728.42271 2:263.2752 
0.2499993144342838 1:357.28233 2:325.09993 
0.3125005925096414 1:608.67865 2:156.8626 
0.3125005925096414 1:295.61785 2:290.52072 
0.2500000000017781 1:496.80525 2:299.92852 
0.3125006030324702 1:728.42271 2:263.2752 
0.004364199961417015 1:728.42271 2:263.2752 
0.06696391670113755 1:357.28233 2:325.09993 
0.004372354333073147 1:608.67865 2:156.8626 
0.004370787365244766 1:295.61785 2:290.52072 
0.06687777815920271 1:496.80525 2:299.92852 
1 1:370.59507 2:546.43954 
1 1:233.34817 2:438.74899 
1 1:435.06283 2:352.3334 
1 1:278.05516 2:365.62865 
1 1:431.73785 2:475.82396 
1 1:370.59507 2:546.43954 
1 1:233.34817 2:438.74899 
1 1:435.06283 2:352.3334 
1 1:278.05516 2:365.62865 
1 1:431.73785 2:475.82396 
1 1:370.59507 2:546.43954 
1 1:233.34817 2:438.74899 
1 1:435.06283 2:352.3334 
1 1:278.05516 2:365.62865 
1 1:431.73785 2:475.82396 
1 1:370.59507 2:546.43954 
1 1:233.34817 2:438.74899 
1 1:435.06283 2:352.3334 
1 1:278.05516 2:365.62865 
1 1:431.73785 2:475.82396 
1 1:370.59507 2:546.43954 
1 1:233.34817 2:438.74899 
1 1:435.06283 2:352.3334 
1 1:278.05516 2:365.62865 
1 1:431.73785 2:475.82396 
1 1:370.59507 2:546.43954 
1 1:233.34817 2:438.74899 
1 1:435.06283 2:352.3334 
1 1:278.05516 2:365.62865 
1 1:431.73785 2:475.82396 
1 1:370.59507 2:546.43954 
1 1:233.34817 2:438.74899 
1 1:435.06283 2:352.3334 
1 1:278.05516 2:365.62865 
1 1:431.73785 2:475.82396 
1 1:370.59507 2:546.43954 
1 1:233.34817 2:438.74899 
1 1:435.06283 2:352.3334 
1 1:278.05516 2:365.62865 
1 1:431.73785 2:475.82396 
1 1:370.59507 2:546.43954 
1 1:233.34817 2:438.74899 
1 1:435.06283 2:352.3334 
1 1:278.05516 2:365.62865 
1 1:431.73785 2:475.82396 
1 1:370.59507 2:546.43954 
1 1:233.34817 2:438.74899 
1 1:435.06283 2:352.3334 
1 1:278.05516 2:365.62865 
1 1:431.73785 2:475.82396 
1 1:370.59507 2:546.43954 
1 1:233.34817 2:438.74899 
1 1:435.06283 2:352.3334 
1 1:278.05516 2:365.62865 
1 1:431.73785 2:475.82396 
1 1:370.59507 2:546.43954 
1 1:233.34817 2:438.74899 
1 1:435.06283 2:352.3334 
1 1:278.05516 2:365.62865 
1 1:431.73785 2:475.82396 
1 1:370.59507 2:546.43954 
1 1:233.34817 2:438.74899 
1 1:435.06283 2:352.3334 
1 1:278.05516 2:365.62865 
1 1:431.73785 2:475.82396 
1 1:370.59507 2:546.43954 
1 1:233.34817 2:438.74899 
1 1:435.06283 2:352.3334 
1 1:278.05516 2:365.62865 
1 1:431.73785 2:475.82396 
1 1:370.59507 2:546.43954 
1 1:233.34817 2:438.74899 
1 1:435.06283 2:352.3334 
1 1:278.05516 2:365.62865 
1 1:431.73785 2:475.82396 
1 1:370.59507 2:546.43954 
1 1:233.34817 2:438.74899 
1 1:435.06283 2:352.3334 
1 1:278.05516 2:365.62865 
1 1:431.73785 2:475.82396 
1 1:370.59507 2:546.43954 
1 1:233.34817 2:438.74899 
1 1:435.06283 2:352.3334 
1 1:278.05516 2:365.62865 
1 1:431.73785 2:475.82396 
1 1:370.59507 2:546.43954 
1 1:233.34817 2:438.74899 
1 1:435.06283 2:352.3334 
1 1:278.05516 2:365.62865 
1 1:431.73785 2:475.82396 
0.3125007127519286 1:370.59507 2:546.43954 
0.3125007226510697 1:233.34817 2:438.74899 
0.3125008179747493 1:435.06283 2:352.3334 
0.2499999995142126 1:278.05516 2:365.62865 
0.2499999996620428 1:431.73785 2:475.82396 
0.004407143011933456 1:370.59507 2:546.43954 
0.004403047593898535 1:233.34817 2:438.74899 
0.004395656644222257 1:435.06283 2:352.3334 
0.06688416733156899 1:278.05516 2:365.62865 
0.06685785310137149 1:431.73785 2:475.82396 
1 1:278.65961 2:414.2424 
1 1:447.93147 2:379.75682 
1 1:280.54183 2:427.21594 
1 1:465.6669 2:416.50123 
1 1:219.11872 2:587.73323 
1 1:278.65961 2:414.2424 
1 1:447.93147 2:379.75682 
1 1:280.54183 2:427.21594 
1 1:465.6669 2:416.50123 
1 1:219.11872 2:587.73323 
1 1:278.65961 2:414.2424 
1 1:447.93147 2:379.75682 
1 1:280.54183 2:427.21594 
1 1:465.6669 2:416.50123 
1 1:219.11872 2:587.73323 
1 1:278.65961 2:414.2424 
1 1:447.93147 2:379.75682 
1 1:280.54183 2:427.21594 
1 1:465.6669 2:416.50123 
1 1:219.11872 2:587.73323 
1 1:278.65961 2:414.2424 
1 1:447.93147 2:379.75682 
1 1:280.54183 2:427.21594 
1 1:465.6669 2:416.50123 
1 1:219.11872 2:587.73323 
1 1:278.65961 2:414.2424 
1 1:447.93147 2:379.75682 
1 1:280.54183 2:427.21594 
1 1:465.6669 2:416.50123 
1 1:219.11872 2:587.73323 
1 1:278.65961 2:414.2424 
1 1:447.93147 2:379.75682 
1 1:280.54183 2:427.21594 
1 1:465.6669 2:416.50123 
1 1:219.11872 2:587.73323 
1 1:278.65961 2:414.2424 
1 1:447.93147 2:379.75682 
1 1:280.54183 2:427.21594 
1 1:465.6669 2:416.50123 
1 1:219.11872 2:587.73323 
1 1:278.65961 2:414.2424 
1 1:447.93147 2:379.75682 
1 1:280.54183 2:427.21594 
1 1:465.6669 2:416.50123 
1 1:219.11872 2:587.73323 
1 1:278.65961 2:414.2424 
1 1:447.93147 2:379.75682 
1 1:280.54183 2:427.21594 
1 1:465.6669 2:416.50123 
1 1:219.11872 2:587.73323 
1 1:278.65961 2:414.2424 
1 1:447.93147 2:379.75682 
1 1:280.54183 2:427.21594 
1 1:465.6669 2:416.50123 
1 1:219.11872 2:587.73323 
1 1:278.65961 2:414.2424 
1 1:447.93147 2:379.75682 
1 1:280.54183 2:427.21594 
1 1:465.6669 2:416.50123 
1 1:219.11872 2:587.73323 
1 1:278.65961 2:414.2424 
1 1:447.93147 2:379.75682 
1 1:280.54183 2:427.21594 
1 1:465.6669 2:416.50123 
1 1:219.11872 2:587.73323 
1 1:278.65961 2:414.2424 
1 1:447.93147 2:379.75682 
1 1:280.54183 2:427.21594 
1 1:465.6669 2:416.50123 
1 1:219.11872 2:587.73323 
1 1:278.65961 2:414.2424 
1 1:447.93147 2:379.75682 
1 1:280.54183 2:427.21594 
1 1:465.6669 2:416.50123 
1 1:219.11872 2:587.73323 
1 1:278.65961 2:414.2424 
1 1:447.93147 2:379.75682 
1 1:280.54183 2:427.21594 
1 1:465.6669 2:416.50123 
1 1:219.11872 2:587.73323 
1 1:278.65961 2:414.2424 
1 1:447.93147 2:379.75682 
1 1:280.54183 2:427.21594 
1 1:465.6669 2:416.50123 
1 1:219.11872 2:587.73323 
0.9963741725191788 1:278.65961 2:414.2424 
1 1:447.93147 2:379.75682 
1 1:280.54183 2:427.21594 
1 1:465.6669 2:416.50123 
1 1:219.11872 2:587.73323 
0.3125008739121249 1:447.93147 2:379.75682 
0.2499999403059903 1:280.54183 2:427.21594 
0.2499999997891926 1:465.6669 2:416.50123 
0.3125008860491363 1:219.11872 2:587.73323 
0.0006136822747642157 1:278.65961 2:414.2424 
0.004365406932317129 1:447.93147 2:379.75682 
0.06681192189510909 1:280.54183 2:427.21594 
0.06681752859362788 1:465.6669 2:416.50123 
0.004354911544471207 1:219.11872 2:587.73323 
1 1:561.40069 2:396.70998 
1 1:594.63509 2:492.50744 
1 1:207.56525 2:394.39034 
1 1:1001.2192 2:722.21743 
1 1:231.90221 2:486.05421 
1 1:561.40069 2:396.70998 
1 1:594.63509 2:492.50744 
1 1:207.56525 2:394.39034 
1 1:1001.2192 2:722.21743 
1 1:231.90221 2:486.05421 
1 1:561.40069 2:396.70998 
1 1:594.63509 2:492.50744 
1 1:207.56525 2:394.39034 
1 1:1001.2192 2:722.21743 
1 1:231.90221 2:486.05421 
1 1:561.40069 2:396.70998 
1 1:594.63509 2:492.50744 
1 1:207.56525 2:394.39034 
1 1:1001.2192 2:722.21743 
1 1:231.90221 2:486.05421 
1 1:561.40069 2:396.70998 
1 1:594.63509 2:492.50744 
1 1:207.56525 2:394.39034 
1 1:1001.2192 2:722.21743 
1 1:231.90221 2:486.05421 
1 1:561.40069 2:396.70998 
1 1:594.63509 2:492.50744 
1 1:207.56525 2:394.39034 
1 1:1001.2192 2:722.21743 
1 1:231.90221 2:486.05421 
1 1:561.40069 2:396.70998 
1 1:594.63509 2:492.50744 
1 1:207.56525 2:394.39034 
1 1:1001.2192 2:722.21743 
1 1:231.90221 2:486.05421 
1 1:561.40069 2:396.70998 
1 1:594.63509 2:492.50744 
1 1:207.56525 2:394.39034 
1 1:1001.2192 2:722.21743 
1 1:231.90221 2:486.05421 
1 1:561.40069 2:396.70998 
1 1:594.63509 2:492.50744 
1 1:207.56525 2:394.39034 
1 1:1001.2192 2:722.21743 
1 1:231.90221 2:486.05421 
1 1:561.40069 2:396.70998 
1 1:594.63509 2:492.50744 
1 1:207.56525 2:394.39034 
1 1:1001.2192 2:722.21743 
1 1:231.90221 2:486.05421 
1 1:561.40069 2:396.70998 
1 1:594.63509 2:492.50744 
1 1:207.56525 2:394.39034 
1 1:1001.2192 2:722.21743 
1 1:231.90221 2:486.05421 
1 1:561.40069 2:396.70998 
1 1:594.63509 2:492.50744 
1 1:207.56525 2:394.39034 
1 1:1001.2192 2:722.21743 
1 1:231.90221 2:486.05421 
1 1:561.40069 2:396.70998 
1 1:594.63509 2:492.50744 
1 1:207.56525 2:394.39034 
1 1:1001.2192 2:722.21743 
1 1:231.90221 2:486.05421 
1 1:561.40069 2:396.70998 
1 1:594.63509 2:492.50744 
1 1:207.56525 2:394.39034 
1 1:1001.2192 2:722.21743 
1 1:231.90221 2:486.05421 
1 1:561.40069 2:396.70998 
1 1:594.63509 2:492.50744 
1 1:207.56525 2:394.39034 
1 1:1001.2192 2:722.21743 
1 1:231.90221 2:486.05421 
1 1:561.40069 2:396.70998 
1 1:594.63509 2:492.50744 
1 1:207.56525 2:394.39034 
1 1:1001.2192 2:722.21743 
1 1:231.90221 2:486.05421 
1 1:561.40069 2:396.70998 
1 1:594.63509 2:492.50744 
1 1:207.56525 2:394.39034 
1 1:1001.2192 2:722.21743 
1 1:231.90221 2:486.05421 
1 1:561.40069 2:396.70998 
1 1:594.63509 2:492.50744 
1 1:207.56525 2:394.39034 
1 1:1001.2192 2:722.21743 
1 1:231.90221 2:486.05421 
0.3125011992901694 1:561.40069 2:396.70998 
0.3125012530540747 1:594.63509 2:492.50744 
0.2499760213299176 1:207.56525 2:394.39034 
0.3125012530514066 1:1001.2192 2:722.21743 
0.3125015964155651 1:231.90221 2:486.05421 
0.004342809962517791 1:561.40069 2:396.70998 
0.00432978872186851 1:594.63509 2:492.50744 
0.0667609258681594 1:207.56525 2:394.39034 
0.0043292781900508 1:1001.2192 2:722.21743 
0.004326539664868179 1:231.90221 2:486.05421 
1 1:228.95279 2:401.46561 
1 1:469.54431 2:410.60344 
1 1:142.34962 2:401.99573 
1 1:340.80315 2:489.12949 
1 1:180.90786 2:308.53891 
1 1:228.95279 2:401.46561 
1 1:469.54431 2:410.60344 
1 1:142.34962 2:401.99573 
1 1:340.80315 2:489.12949 
1 1:180.90786 2:308.53891 
1 1:228.95279 2:401.46561 
1 1:469.54431 2:410.60344 
1 1:142.34962 2:401.99573 
1 1:340.80315 2:489.12949 
1 1:180.90786 2:308.53891 
1 1:228.95279 2:401.46561 
1 1:469.54431 2:410.60344 
1 1:142.34962 2:401.99573 
1 1:340.80315 2:489.12949 
1 1:180.90786 2:308.53891 
1 1:228.95279 2:401.46561 
1 1:469.54431 2:410.60344 
1 1:142.34962 2:401.99573 
1 1:340.80315 2:489.12949 
1 1:180.90786 2:308.53891 
1 1:228.95279 2:401.46561 
1 1:469.54431 2:410.60344 
1 1:142.34962 2:401.99573 
1 1:340.80315 2:489.12949 
1 1:180.90786 2:308.53891 
1 1:228.95279 2:401.46561 
1 1:469.54431 2:410.60344 
1 1:142.34962 2:401.99573 
1 1:340.80315 2:489.12949 
1 1:180.90786 2:308.53891 
1 1:228.95279 2:401.46561 
1 1:469.54431 2:410.60344 
1 1:142.34962 2:401.99573 
1 1:340.80315 2:489.12949 
1 1:180.90786 2:308.53891 
1 1:228.95279 2:401.46561 
1 1:469.54431 2:410.60344 
1 1:142.34962 2:401.99573 
1 1:340.80315 2:489.12949 
1 1:180.90786 2:308.53891 
1 1:228.95279 2:401.46561 
1 1:469.54431 2:410.60344 
1 1:142.34962 2:401.99573 
1 1:340.80315 2:489.12949 
1 1:180.90786 2:308.53891 
1 1:228.95279 2:401.46561 
1 1:469.54431 2:410.60344 
1 1:142.34962 2:401.99573 
1 1:340.80315 2:489.12949 
1 1:180.90786 2:308.53891 
1 1:228.95279 2:401.46561 
1 1:469.54431 2:410.60344 
1 1:142.34962 2:401.99573 
1 1:340.80315 2:489.12949 
1 1:180.90786 2:308.53891 
1 1:228.95279 2:401.46561 
1 1:469.54431 2:410.60344 
1 1:142.34962 2:401.99573 
1 1:340.80315 2:489.12949 
1 1:180.90786 2:308.53891 
1 1:228.95279 2:401.46561 
1 1:469.54431 2:410.60344 
1 1:142.34962 2:401.99573 
1 1:340.80315 2:489.12949 
1 1:180.90786 2:308.53891 
1 1:228.95279 2:401.46561 
1 1:469.54431 2:410.60344 
1 1:142.34962 2:401.99573 
1 1:340.80315 2:489.12949 
1 1:180.90786 2:308.53891 
1 1:228.95279 2:401.46561 
1 1:469.54431 2:410.60344 
1 1:142.34962 2:401.99573 
1 1:340.80315 2:489.12949 
1 1:180.90786 2:308.53891 
1 1:228.95279 2:401.46561 
1 1:469.54431 2:410.60344 
1 1:142.34962 2:401.99573 
1 1:340.80315 2:489.12949 
1 1:180.90786 2:308.53891 
1 1:228.95279 2:401.46561 
1 1:469.54431 2:410.60344 
1 1:142.34962 2:401.99573 
1 1:340.80315 2:489.12949 
1 1:180.90786 2:308.53891 
0.3125017441745275 1:228.95279 2:401.46561 
0.2499999997889937 1:469.54431 2:410.60344 
0.3125016518444106 1:142.34962 2:401.99573 
0.249999914599897 1:340.80315 2:489.12949 
0.3125017721505241 1:180.90786 2:308.53891 
0.004326990423205501 1:228.95279 2:401.46561 
0.06738565908824867 1:469.54431 2:410.60344 
0.004328943054025203 1:142.34962 2:401.99573 
0.06731484280846622 1:340.80315 2:489.12949 
0.004316731032577792 1:180.90786 2:308.53891 
1 1:357.57671 2:488.59321 
1 1:406.55167 2:427.63823 
1 1:55.843301 2:89.475978 
1 1:501.87135 2:293.87436 
1 1:177.37899 2:190.72374 
1 1:357.57671 2:488.59321 
1 1:406.55167 2:427.63823 
1 1:55.843301 2:89.475978 
1 1:501.87135 2:293.87436 
1 1:177.37899 2:190.72374 
1 1:357.57671 2:488.59321 
1 1:406.55167 2:427.63823 
1 1:55.843301 2:89.475978 
1 1:501.87135 2:293.87436 
1 1:177.37899 2:190.72374 
1 1:357.57671 2:488.59321 
1 1:406.55167 2:427.63823 
1 1:55.843301 2:89.475978 
1 1:501.87135 2:293.87436 
1 1:177.37899 2:190.72374 
1 1:357.57671 2:488.59321 
1 1:406.55167 2:427.63823 
1 1:55.843301 2:89.475978 
1 1:501.87135 2:293.87436 
1 1:177.37899 2:190.72374 
1 1:357.57671 2:488.59321 
1 1:406.55167 2:427.63823 
1 1:55.843301 2:89.475978 
1 1:501.87135 2:293.87436 
1 1:177.37899 2:190.72374 
1 1:357.57671 2:488.59321 
1 1:406.55167 2:427.63823 
1 1:55.843301 2:89.475978 
1 1:501.87135 2:293.87436 
1 1:177.37899 2:190.72374 
1 1:357.57671 2:488.59321 
1 1:406.55167 2:427.63823 
1 1:55.843301 2:89.475978 
1 1:501.87135 2:293.87436 
1 1:177.37899 2:190.72374 
1 1:357.57671 2:488.59321 
1 1:406.55167 2:427.63823 
1 1:55.843301 2:89.475978 
1 1:501.87135 2:293.87436 
1 1:177.37899 2:190.72374 
1 1:357.57671 2:488.59321 
1 1:406.55167 2:427.63823 
1 1:55.843301 2:89.475978 
1 1:501.87135 2:293.87436 
1 1:177.37899 2:190.72374 
1 1:357.57671 2:488.59321 
1 1:406.55167 2:427.63823 
1 1:55.843301 2:89.475978 
1 1:501.87135 2:293.87436 
1 1:177.37899 2:190.72374 
1 1:357.57671 2:488.59321 
1 1:406.55167 2:427.63823 
1 1:55.843301 2:89.475978 
1 1:501.87135 2:293.87436 
1 1:177.37899 2:190.72374 
1 1:357.57671 2:488.59321 
1 1:406.55167 2:427.63823 
1 1:55.843301 2:89.475978 
1 1:501.87135 2:293.87436 
1 1:177.37899 2:190.72374 
1 1:357.57671 2:488.59321 
1 1:406.55167 2:427.63823 
1 1:55.843301 2:89.475978 
1 1:501.87135 2:293.87436 
1 1:177.37899 2:190.72374 
1 1:357.57671 2:488.59321 
1 1:406.55167 2:427.63823 
1 1:55.843301 2:89.475978 
1 1:501.87135 2:293.87436 
1 1:177.37899 2:190.72374 
1 1:357.57671 2:488.59321 
1 1:406.55167 2:427.63823 
1 1:55.843301 2:89.475978 
1 1:501.87135 2:293.87436 
1 1:177.37899 2:190.72374 
1 1:357.57671 2:488.59321 
1 1:406.55167 2:427.63823 
1 1:55.843301 2:89.475978 
1 1:501.87135 2:293.87436 
1 1:177.37899 2:190.72374 
1 1:357.57671 2:488.59321 
1 1:406.55167 2:427.63823 
1 1:55.843301 2:89.475978 
1 1:501.87135 2:293.87436 
1 1:177.37899 2:190.72374 
0.312501822752159 1:357.57671 2:488.59321 
0.3125018860397066 1:406.55167 2:427.63823 
0.249911036715325 1:55.843301 2:89.475978 
0.2500000000007976 1:501.87135 2:293.87436 
0.2499999997092992 1:177.37899 2:190.72374 
0.004307126544526696 1:357.57671 2:488.59321 
0.004309746782251267 1:406.55167 2:427.63823 
0.06663573267818457 1:55.843301 2:89.475978 
0.06688793846300278 1:501.87135 2:293.87436 
0.06685443813478642 1:177.37899 2:190.72374 
1 1:228.58929 2:286.16498 
1 1:158.32394 2:264.70304 
1 1:70.318801 2:71.92804 
1 1:236.47355 2:336.62019 
1 1:72.552105 2:144.77426 
1 1:228.58929 2:286.16498 
1 1:158.32394 2:264.70304 
1 1:70.318801 2:71.92804 
1 1:236.47355 2:336.62019 
1 1:72.552105 2:144.77426 
1 1:228.58929 2:286.16498 
1 1:158.32394 2:264.70304 
1 1:70.318801 2:71.92804 
1 1:236.47355 2:336.62019 
1 1:72.552105 2:144.77426 
1 1:228.58929 2:286.16498 
1 1:158.32394 2:264.70304 
1 1:70.318801 2:71.92804 
1 1:236.47355 2:336.62019 
1 1:72.552105 2:144.77426 
1 1:228.58929 2:286.16498 
1 1:158.32394 2:264.70304 
1 1:70.318801 2:71.92804 
1 1:236.47355 2:336.62019 
1 1:72.552105 2:144.77426 
1 1:228.58929 2:286.16498 
1 1:158.32394 2:264.70304 
1 1:70.318801 2:71.92804 
1 1:236.47355 2:336.62019 
1 1:72.552105 2:144.77426 
1 1:228.58929 2:286.16498 
1 1:158.32394 2:264.70304 
1 1:70.318801 2:71.92804 
1 1:236.47355 2:336.62019 
1 1:72.552105 2:144.77426 
1 1:228.58929 2:286.16498 
1 1:158.32394 2:264.70304 
1 1:70.318801 2:71.92804 
1 1:236.47355 2:336.62019 
1 1:72.552105 2:144.77426 
1 1:228.58929 2:286.16498 
1 1:158.32394 2:264.70304 
1 1:70.318801 2:71.92804 
1 1:236.47355 2:336.62019 
1 1:72.552105 2:144.77426 
1 1:228.58929 2:286.16498 
1 1:158.32394 2:264.70304 
1 1:70.318801 2:71.92804 
1 1:236.47355 2:336.62019 
1 1:72.552105 2:144.77426 
1 1:228.58929 2:286.16498 
1 1:158.32394 2:264.70304 
1 1:70.318801 2:71.92804 
1 1:236.47355 2:336.62019 
1 1:72.552105 2:144.77426 
1 1:228.58929 2:286.16498 
1 1:158.32394 2:264.70304 
1 1:70.318801 2:71.92804 
1 1:236.47355 2:336.62019 
1 1:72.552105 2:144.77426 
1 1:228.58929 2:286.16498 
1 1:158.32394 2:264.70304 
1 1:70.318801 2:71.92804 
1 1:236.47355 2:336.62019 
1 1:72.552105 2:144.77426 
1 1:228.58929 2:286.16498 
1 1:158.32394 2:264.70304 
1 1:70.318801 2:71.92804 
1 1:236.47355 2:336.62019 
1 1:72.552105 2:144.77426 
1 1:228.58929 2:286.16498 
1 1:158.32394 2:264.70304 
1 1:70.318801 2:71.92804 
1 1:236.47355 2:336.62019 
1 1:72.552105 2:144.77426 
1 1:228.58929 2:286.16498 
1 1:158.32394 2:264.70304 
1 1:70.318801 2:71.92804 
1 1:236.47355 2:336.62019 
1 1:72.552105 2:144.77426 
1 1:228.58929 2:286.16498 
1 1:158.32394 2:264.70304 
1 1:70.318801 2:71.92804 
1 1:236.47355 2:336.62019 
1 1:72.552105 2:144.77426 
1 1:228.58929 2:286.16498 
1 1:158.32394 2:264.70304 
1 1:70.318801 2:71.92804 
1 1:236.47355 2:336.62019 
1 1:72.552105 2:144.77426 
0.3125019688217368 1:228.58929 2:286.16498 
0.2474466628118535 1:158.32394 2:264.70304 
0.2499999968239752 1:70.318801 2:71.92804 
0.2499998057239168 1:236.47355 2:336.62019 
0.3125023184728679 1:72.552105 2:144.77426 
0.00428857934184812 1:228.58929 2:286.16498 
0.06591864032422912 1:158.32394 2:264.70304 
0.06678996420654393 1:70.318801 2:71.92804 
0.06653301275760271 1:236.47355 2:336.62019 
0.004287660042098906 1:72.552105 2:144.77426 
1 1:368.00529 2:187.4804 
1 1:225.22047 2:191.8705 
1 1:65.06955 2:39.843392 
1 1:736.42895 2:300.24835 
1 1:641.10719 2:161.76431 
1 1:368.00529 2:187.4804 
1 1:225.22047 2:191.8705 
1 1:65.06955 2:39.843392 
1 1:736.42895 2:300.24835 
1 1:641.10719 2:161.76431 
1 1:368.00529 2:187.4804 
1 1:225.22047 2:191.8705 
1 1:65.06955 2:39.843392 
1 1:736.42895 2:300.24835 
1 1:641.10719 2:161.76431 
1 1:368.00529 2:187.4804 
1 1:225.22047 2:191.8705 
1 1:65.06955 2:39.843392 
1 1:736.42895 2:300.24835 
1 1:641.10719 2:161.76431 
1 1:368.00529 2:187.4804 
1 1:225.22047 2:191.8705 
1 1:65.06955 2:39.843392 
1 1:736.42895 2:300.24835 
1 1:641.10719 2:161.76431 
1 1:368.00529 2:187.4804 
1 1:225.22047 2:191.8705 
1 1:65.06955 2:39.843392 
1 1:736.42895 2:300.24835 
1 1:641.10719 2:161.76431 
1 1:368.00529 2:187.4804 
1 1:225.22047 2:191.8705 
1 1:65.06955 2:39.843392 
1 1:736.42895 2:300.24835 
1 1:641.10719 2:161.76431 
1 1:368.00529 2:187.4804 
1 1:225.22047 2:191.8705 
1 1:65.06955 2:39.843392 
1 1:736.42895 2:300.24835 
1 1:641.10719 2:161.76431 
1 1:368.00529 2:187.4804 
1 1:225.22047 2:191.8705 
1 1:65.06955 2:39.843392 
1 1:736.42895 2:300.24835 
1 1:641.10719 2:161.76431 
1 1:368.00529 2:187.4804 
1 1:225.22047 2:191.8705 
1 1:65.06955 2:39.843392 
1 1:736.42895 2:300.24835 
1 1:641.10719 2:161.76431 
1 1:368.00529 2:187.4804 
1 1:225.22047 2:191.8705 
1 1:65.06955 2:39.843392 
1 1:736.42895 2:300.24835 
1 1:641.10719 2:161.76431 
1 1:368.00529 2:187.4804 
1 1:225.22047 2:191.8705 
1 1:65.06955 2:39.843392 
1 1:736.42895 2:300.24835 
1 1:641.10719 2:161.76431 
1 1:368.00529 2:187.4804 
1 1:225.22047 2:191.8705 
1 1:65.06955 2:39.843392 
1 1:736.42895 2:300.24835 
1 1:641.10719 2:161.76431 
1 1:368.00529 2:187.4804 
1 1:225.22047 2:191.8705 
1 1:65.06955 2:39.843392 
1 1:736.42895 2:300.24835 
1 1:641.10719 2:161.76431 
1 1:368.00529 2:187.4804 
1 1:225.22047 2:191.8705 
1 1:65.06955 2:39.843392 
1 1:736.42895 2:300.24835 
1 1:641.10719 2:161.76431 
1 1:368.00529 2:187.4804 
1 1:225.22047 2:191.8705 
1 1:65.06955 2:39.843392 
1 1:736.42895 2:300.24835 
1 1:641.10719 2:161.76431 
1 1:368.00529 2:187.4804 
1 1:225.22047 2:191.8705 
1 1:65.06955 2:39.843392 
1 1:736.42895 2:300.24835 
1 1:641.10719 2:161.76431 
1 1:368.00529 2:187.4804 
1 1:225.22047 2:191.8705 
1 1:65.06955 2:39.843392 
1 1:736.42895 2:300.24835 
1 1:641.10719 2:161.76431 
0.3125023184724025 1:368.00529 2:187.4804 
0.2499999988391508 1:225.22047 2:191.8705 
0.3125037349798969 1:65.06955 2:39.843392 
0.3125036827585088 1:736.42895 2:300.24835 
0.3125034258697745 1:641.10719 2:161.76431 
0.00428775979434981 1:368.00529 2:187.4804 
0.06690353644236247 1:225.22047 2:191.8705 
0.004264578963717014 1:65.06955 2:39.843392 
0.004265759883658404 1:736.42895 2:300.24835 
0.004264023596935118 1:641.10719 2:161.76431 
1 1:316.83491 2:265.97338 
1 1:433.0485 2:389.70408 
1 1:36.321618 2:36.496746 
1 1:522.5767 2:193.38231 
1 1:291.90861 2:180.90762 
1 1:316.83491 2:265.97338 
1 1:433.0485 2:389.70408 
1 1:36.321618 2:36.496746 
1 1:522.5767 2:193.38231 
1 1:291.90861 2:180.90762 
1 1:316.83491 2:265.97338 
1 1:433.0485 2:389.70408 
1 1:36.321618 2:36.496746 
1 1:522.5767 2:193.38231 
1 1:291.90861 2:180.90762 
1 1:316.83491 2:265.97338 
1 1:433.0485 2:389.70408 
1 1:36.321618 2:36.496746 
1 1:522.5767 2:193.38231 
1 1:291.90861 2:180.90762 
1 1:316.83491 2:265.97338 
1 1:433.0485 2:389.70408 
1 1:36.321618 2:36.496746 
1 1:522.5767 2:193.38231 
1 1:291.90861 2:180.90762 
1 1:316.83491 2:265.97338 
1 1:433.0485 2:389.70408 
1 1:36.321618 2:36.496746 
1 1:522.5767 2:193.38231 
1 1:291.90861 2:180.90762 
1 1:316.83491 2:265.97338 
1 1:433.0485 2:389.70408 
1 1:36.321618 2:36.496746 
1 1:522.5767 2:193.38231 
1 1:291.90861 2:180.90762 
1 1:316.83491 2:265.97338 
1 1:433.0485 2:389.70408 
1 1:36.321618 2:36.496746 
1 1:522.5767 2:193.38231 
1 1:291.90861 2:180.90762 
1 1:316.83491 2:265.97338 
1 1:433.0485 2:389.70408 
1 1:36.321618 2:36.496746 
1 1:522.5767 2:193.38231 
1 1:291.90861 2:180.90762 
1 1:316.83491 2:265.97338 
1 1:433.0485 2:389.70408 
1 1:36.321618 2:36.496746 
1 1:522.5767 2:193.38231 
1 1:291.90861 2:180.90762 
1 1:316.83491 2:265.97338 
1 1:433.0485 2:389.70408 
1 1:36.321618 2:36.496746 
1 1:522.5767 2:193.38231 
1 1:291.90861 2:180.90762 
1 1:316.83491 2:265.97338 
1 1:433.0485 2:389.70408 
1 1:36.321618 2:36.496746 
1 1:522.5767 2:193.38231 
1 1:291.90861 2:180.90762 
1 1:316.83491 2:265.97338 
1 1:433.0485 2:389.70408 
1 1:36.321618 2:36.496746 
1 1:522.5767 2:193.38231 
1 1:291.90861 2:180.90762 
1 1:316.83491 2:265.97338 
1 1:433.0485 2:389.70408 
1 1:36.321618 2:36.496746 
1 1:522.5767 2:193.38231 
1 1:291.90861 2:180.90762 
1 1:316.83491 2:265.97338 
1 1:433.0485 2:389.70408 
1 1:36.321618 2:36.496746 
1 1:522.5767 2:193.38231 
1 1:291.90861 2:180.90762 
1 1:316.83491 2:265.97338 
1 1:433.0485 2:389.70408 
1 1:36.321618 2:36.496746 
1 1:522.5767 2:193.38231 
1 1:291.90861 2:180.90762 
1 1:316.83491 2:265.97338 
1 1:433.0485 2:389.70408 
1 1:36.321618 2:36.496746 
1 1:522.5767 2:193.38231 
1 1:291.90861 2:180.90762 
1 1:316.83491 2:265.97338 
1 1:433.0485 2:389.70408 
1 1:36.321618 2:36.496746 
1 1:522.5767 2:193.38231 
1 1:291.90861 2:180.90762 
0.2499999999976215 1:316.83491 2:265.97338 
0.2499999608701611 1:433.0485 2:389.70408 
0.3125038106252251 1:36.321618 2:36.496746 
0.2499999999971543 1:522.5767 2:193.38231 
0.2500000000008455 1:291.90861 2:180.90762 
0.06662347882664577 1:291.90861 2:180.90762 
0.06693206018135633 1:316.83491 2:265.97338 
0.06686441915550212 1:433.0485 2:389.70408 
0.004284588085187835 1:36.321618 2:36.496746 
0.06678148571139886 1:522.5767 2:193.38231 
1 1:296.2065 2:315.15064 
1 1:319.23577 2:205.47722 
1 1:461.69076 2:300.62587 
1 1:47.924142 2:56.196191 
1 1:80.93979 2:175.26237 
1 1:296.2065 2:315.15064 
1 1:319.23577 2:205.47722 
1 1:461.69076 2:300.62587 
1 1:47.924142 2:56.196191 
1 1:80.93979 2:175.26237 
1 1:296.2065 2:315.15064 
1 1:319.23577 2:205.47722 
1 1:461.69076 2:300.62587 
1 1:47.924142 2:56.196191 
1 1:80.93979 2:175.26237 
1 1:296.2065 2:315.15064 
1 1:319.23577 2:205.47722 
1 1:461.69076 2:300.62587 
1 1:47.924142 2:56.196191 
1 1:80.93979 2:175.26237 
1 1:296.2065 2:315.15064 
1 1:319.23577 2:205.47722 
1 1:461.69076 2:300.62587 
1 1:47.924142 2:56.196191 
1 1:80.93979 2:175.26237 
1 1:296.2065 2:315.15064 
1 1:319.23577 2:205.47722 
1 1:461.69076 2:300.62587 
1 1:47.924142 2:56.196191 
1 1:80.93979 2:175.26237 
1 1:296.2065 2:315.15064 
1 1:319.23577 2:205.47722 
1 1:461.69076 2:300.62587 
1 1:47.924142 2:56.196191 
1 1:80.93979 2:175.26237 
1 1:296.2065 2:315.15064 
1 1:319.23577 2:205.47722 
1 1:461.69076 2:300.62587 
1 1:47.924142 2:56.196191 
1 1:80.93979 2:175.26237 
1 1:296.2065 2:315.15064 
1 1:319.23577 2:205.47722 
1 1:461.69076 2:300.62587 
1 1:47.924142 2:56.196191 
1 1:80.93979 2:175.26237 
1 1:296.2065 2:315.15064 
1 1:319.23577 2:205.47722 
1 1:461.69076 2:300.62587 
1 1:47.924142 2:56.196191 
1 1:80.93979 2:175.26237 
1 1:296.2065 2:315.15064 
1 1:319.23577 2:205.47722 
1 1:461.69076 2:300.62587 
1 1:47.924142 2:56.196191 
1 1:80.93979 2:175.26237 
1 1:296.2065 2:315.15064 
1 1:319.23577 2:205.47722 
1 1:461.69076 2:300.62587 
1 1:47.924142 2:56.196191 
1 1:80.93979 2:175.26237 
1 1:296.2065 2:315.15064 
1 1:319.23577 2:205.47722 
1 1:461.69076 2:300.62587 
1 1:47.924142 2:56.196191 
1 1:80.93979 2:175.26237 
1 1:296.2065 2:315.15064 
1 1:319.23577 2:205.47722 
1 1:461.69076 2:300.62587 
1 1:47.924142 2:56.196191 
1 1:80.93979 2:175.26237 
1 1:296.2065 2:315.15064 
1 1:319.23577 2:205.47722 
1 1:461.69076 2:300.62587 
1 1:47.924142 2:56.196191 
1 1:80.93979 2:175.26237 
1 1:296.2065 2:315.15064 
1 1:319.23577 2:205.47722 
1 1:461.69076 2:300.62587 
1 1:47.924142 2:56.196191 
1 1:80.93979 2:175.26237 
1 1:296.2065 2:315.15064 
1 1:319.23577 2:205.47722 
1 1:461.69076 2:300.62587 
1 1:47.924142 2:56.196191 
1 1:80.93979 2:175.26237 
1 1:296.2065 2:315.15064 
1 1:319.23577 2:205.47722 
1 1:461.69076 2:300.62587 
1 1:47.924142 2:56.196191 
1 1:80.93979 2:175.26237 
0.3125000019925235 1:296.2065 2:315.15064 
0.1364761739969254 1:319.23577 2:205.47722 
0.3125037957302812 1:461.69076 2:300.62587 
0.2460341309331522 1:47.924142 2:56.196191 
0.2499860892872903 1:80.93979 2:175.26237 
0.02814207432179572 1:319.23577 2:205.47722 
0.004277520723155348 1:461.69076 2:300.62587 
0.06562091788243229 1:47.924142 2:56.196191 
0.06676131226236848 1:80.93979 2:175.26237 
0.004311478380484957 1:296.2065 2:315.15064 
1 1:456.49386 2:366.95611 
1 1:327.48344 2:233.99096 
1 1:23.583518 2:46.579978 
1 1:141.96738 2:195.45221 
1 1:144.80267 2:158.68835 
1 1:456.49386 2:366.95611 
1 1:327.48344 2:233.99096 
1 1:23.583518 2:46.579978 
1 1:141.96738 2:195.45221 
1 1:144.80267 2:158.68835 
1 1:456.49386 2:366.95611 
1 1:327.48344 2:233.99096 
1 1:23.583518 2:46.579978 
1 1:141.96738 2:195.45221 
1 1:144.80267 2:158.68835 
1 1:456.49386 2:366.95611 
1 1:327.48344 2:233.99096 
1 1:23.583518 2:46.579978 
1 1:141.96738 2:195.45221 
1 1:144.80267 2:158.68835 
1 1:456.49386 2:366.95611 
1 1:327.48344 2:233.99096 
1 1:23.583518 2:46.579978 
1 1:141.96738 2:195.45221 
1 1:144.80267 2:158.68835 
1 1:456.49386 2:366.95611 
1 1:327.48344 2:233.99096 
1 1:23.583518 2:46.579978 
1 1:141.96738 2:195.45221 
1 1:144.80267 2:158.68835 
1 1:456.49386 2:366.95611 
1 1:327.48344 2:233.99096 
1 1:23.583518 2:46.579978 
1 1:141.96738 2:195.45221 
1 1:144.80267 2:158.68835 
1 1:456.49386 2:366.95611 
1 1:327.48344 2:233.99096 
1 1:23.583518 2:46.579978 
1 1:141.96738 2:195.45221 
1 1:144.80267 2:158.68835 
1 1:456.49386 2:366.95611 
1 1:327.48344 2:233.99096 
1 1:23.583518 2:46.579978 
1 1:141.96738 2:195.45221 
1 1:144.80267 2:158.68835 
1 1:456.49386 2:366.95611 
1 1:327.48344 2:233.99096 
1 1:23.583518 2:46.579978 
1 1:141.96738 2:195.45221 
1 1:144.80267 2:158.68835 
1 1:456.49386 2:366.95611 
1 1:327.48344 2:233.99096 
1 1:23.583518 2:46.579978 
1 1:141.96738 2:195.45221 
1 1:144.80267 2:158.68835 
1 1:456.49386 2:366.95611 
1 1:327.48344 2:233.99096 
1 1:23.583518 2:46.579978 
1 1:141.96738 2:195.45221 
1 1:144.80267 2:158.68835 
1 1:456.49386 2:366.95611 
1 1:327.48344 2:233.99096 
1 1:23.583518 2:46.579978 
1 1:141.96738 2:195.45221 
1 1:144.80267 2:158.68835 
1 1:456.49386 2:366.95611 
1 1:327.48344 2:233.99096 
1 1:23.583518 2:46.579978 
1 1:141.96738 2:195.45221 
1 1:144.80267 2:158.68835 
1 1:456.49386 2:366.95611 
1 1:327.48344 2:233.99096 
1 1:23.583518 2:46.579978 
1 1:141.96738 2:195.45221 
1 1:144.80267 2:158.68835 
1 1:456.49386 2:366.95611 
1 1:327.48344 2:233.99096 
1 1:23.583518 2:46.579978 
1 1:141.96738 2:195.45221 
1 1:144.80267 2:158.68835 
1 1:456.49386 2:366.95611 
0.5976769749108559 1:327.48344 2:233.99096 
1 1:23.583518 2:46.579978 
1 1:141.96738 2:195.45221 
1 1:144.80267 2:158.68835 
1 1:456.49386 2:366.95611 
1 1:23.583518 2:46.579978 
1 1:141.96738 2:195.45221 
1 1:144.80267 2:158.68835 
0.3125038915030594 1:456.49386 2:366.95611 
0.312503983898603 1:23.583518 2:46.579978 
0.3125040657557054 1:141.96738 2:195.45221 
0.3125040810609025 1:144.80267 2:158.68835 
0.004319717883785046 1:456.49386 2:366.95611 
0.004330705375176436 1:23.583518 2:46.579978 
0.004310631861480729 1:141.96738 2:195.45221 
0.004380873032983956 1:144.80267 2:158.68835 
1 1:113.66267 2:298.71627 
1 1:133.32249 2:329.53093 
1 1:50.620499 2:53.187935 
1 1:195.23036 2:287.8646 
1 1:201.76207 2:382.80241 
1 1:113.66267 2:298.71627 
1 1:133.32249 2:329.53093 
1 1:50.620499 2:53.187935 
1 1:195.23036 2:287.8646 
1 1:201.76207 2:382.80241 
1 1:113.66267 2:298.71627 
1 1:133.32249 2:329.53093 
1 1:50.620499 2:53.187935 
1 1:195.23036 2:287.8646 
1 1:201.76207 2:382.80241 
1 1:113.66267 2:298.71627 
1 1:133.32249 2:329.53093 
1 1:50.620499 2:53.187935 
1 1:195.23036 2:287.8646 
1 1:201.76207 2:382.80241 
1 1:113.66267 2:298.71627 
1 1:133.32249 2:329.53093 
1 1:50.620499 2:53.187935 
1 1:195.23036 2:287.8646 
1 1:201.76207 2:382.80241 
1 1:113.66267 2:298.71627 
1 1:133.32249 2:329.53093 
1 1:50.620499 2:53.187935 
1 1:195.23036 2:287.8646 
1 1:201.76207 2:382.80241 
1 1:113.66267 2:298.71627 
1 1:133.32249 2:329.53093 
1 1:50.620499 2:53.187935 
1 1:195.23036 2:287.8646 
1 1:201.76207 2:382.80241 
1 1:113.66267 2:298.71627 
1 1:133.32249 2:329.53093 
1 1:50.620499 2:53.187935 
1 1:195.23036 2:287.8646 
1 1:201.76207 2:382.80241 
1 1:113.66267 2:298.71627 
1 1:133.32249 2:329.53093 
1 1:50.620499 2:53.187935 
1 1:195.23036 2:287.8646 
1 1:201.76207 2:382.80241 
1 1:113.66267 2:298.71627 
1 1:133.32249 2:329.53093 
1 1:50.620499 2:53.187935 
1 1:195.23036 2:287.8646 
1 1:201.76207 2:382.80241 
1 1:113.66267 2:298.71627 
1 1:133.32249 2:329.53093 
1 1:50.620499 2:53.187935 
1 1:195.23036 2:287.8646 
1 1:201.76207 2:382.80241 
1 1:113.66267 2:298.71627 
1 1:133.32249 2:329.53093 
1 1:50.620499 2:53.187935 
1 1:195.23036 2:287.8646 
1 1:201.76207 2:382.80241 
1 1:113.66267 2:298.71627 
1 1:133.32249 2:329.53093 
1 1:50.620499 2:53.187935 
1 1:195.23036 2:287.8646 
1 1:201.76207 2:382.80241 
1 1:113.66267 2:298.71627 
1 1:133.32249 2:329.53093 
1 1:50.620499 2:53.187935 
1 1:195.23036 2:287.8646 
1 1:201.76207 2:382.80241 
1 1:113.66267 2:298.71627 
1 1:133.32249 2:329.53093 
1 1:50.620499 2:53.187935 
1 1:195.23036 2:287.8646 
1 1:201.76207 2:382.80241 
1 1:113.66267 2:298.71627 
1 1:133.32249 2:329.53093 
1 1:50.620499 2:53.187935 
1 1:195.23036 2:287.8646 
1 1:201.76207 2:382.80241 
1 1:113.66267 2:298.71627 
1 1:133.32249 2:329.53093 
1 1:50.620499 2:53.187935 
1 1:195.23036 2:287.8646 
1 1:201.76207 2:382.80241 
1 1:113.66267 2:298.71627 
1 1:133.32249 2:329.53093 
1 1:50.620499 2:53.187935 
1 1:195.23036 2:287.8646 
1 1:201.76207 2:382.80241 
0.3125040968281017 1:113.66267 2:298.71627 
0.3125041861455049 1:133.32249 2:329.53093 
0.2460341155270758 1:50.620499 2:53.187935 
0.3125041861426165 1:195.23036 2:287.8646 
0.312504277410012 1:201.76207 2:382.80241 
0.004380861207488707 1:113.66267 2:298.71627 
0.004847141766777696 1:133.32249 2:329.53093 
0.06561816893168881 1:50.620499 2:53.187935 
0.004872778658832289 1:195.23036 2:287.8646 
0.004731358378432304 1:201.76207 2:382.80241 
1 1:195.89498 2:464.36517 
1 1:141.74944 2:353.83952 
1 1:46.731985 2:66.254855 
1 1:357.62958 2:336.85979 
1 1:202.56843 2:393.47229 
1 1:195.89498 2:464.36517 
1 1:141.74944 2:353.83952 
1 1:46.731985 2:66.254855 
1 1:357.62958 2:336.85979 
1 1:202.56843 2:393.47229 
1 1:195.89498 2:464.36517 
1 1:141.74944 2:353.83952 
1 1:46.731985 2:66.254855 
1 1:357.62958 2:336.85979 
1 1:202.56843 2:393.47229 
1 1:195.89498 2:464.36517 
1 1:141.74944 2:353.83952 
1 1:46.731985 2:66.254855 
1 1:357.62958 2:336.85979 
1 1:202.56843 2:393.47229 
1 1:195.89498 2:464.36517 
1 1:141.74944 2:353.83952 
1 1:46.731985 2:66.254855 
1 1:357.62958 2:336.85979 
1 1:202.56843 2:393.47229 
1 1:195.89498 2:464.36517 
1 1:141.74944 2:353.83952 
1 1:46.731985 2:66.254855 
1 1:357.62958 2:336.85979 
1 1:202.56843 2:393.47229 
1 1:195.89498 2:464.36517 
1 1:141.74944 2:353.83952 
1 1:46.731985 2:66.254855 
1 1:357.62958 2:336.85979 
1 1:202.56843 2:393.47229 
1 1:195.89498 2:464.36517 
1 1:141.74944 2:353.83952 
1 1:46.731985 2:66.254855 
1 1:357.62958 2:336.85979 
1 1:202.56843 2:393.47229 
1 1:195.89498 2:464.36517 
1 1:141.74944 2:353.83952 
1 1:46.731985 2:66.254855 
1 1:357.62958 2:336.85979 
1 1:202.56843 2:393.47229 
1 1:195.89498 2:464.36517 
1 1:141.74944 2:353.83952 
1 1:46.731985 2:66.254855 
1 1:357.62958 2:336.85979 
1 1:202.56843 2:393.47229 
1 1:195.89498 2:464.36517 
1 1:141.74944 2:353.83952 
1 1:46.731985 2:66.254855 
1 1:357.62958 2:336.85979 
1 1:202.56843 2:393.47229 
1 1:195.89498 2:464.36517 
1 1:141.74944 2:353.83952 
1 1:46.731985 2:66.254855 
1 1:357.62958 2:336.85979 
1 1:202.56843 2:393.47229 
1 1:195.89498 2:464.36517 
1 1:141.74944 2:353.83952 
1 1:46.731985 2:66.254855 
1 1:357.62958 2:336.85979 
0.2018697849757261 1:202.56843 2:393.47229 
1 1:195.89498 2:464.36517 
1 1:141.74944 2:353.83952 
1 1:46.731985 2:66.254855 
1 1:357.62958 2:336.85979 
1 1:195.89498 2:464.36517 
1 1:141.74944 2:353.83952 
1 1:46.731985 2:66.254855 
1 1:357.62958 2:336.85979 
0.4909322083631711 1:195.89498 2:464.36517 
1 1:141.74944 2:353.83952 
1 1:46.731985 2:66.254855 
1 1:357.62958 2:336.85979 
1 1:141.74944 2:353.83952 
1 1:46.731985 2:66.254855 
1 1:357.62958 2:336.85979 
1 1:141.74944 2:353.83952 
1 1:46.731985 2:66.254855 
1 1:357.62958 2:336.85979 
0.3125042321825902 1:141.74944 2:353.83952 
0.2499997596744166 1:46.731985 2:66.254855 
0.3125042033941963 1:357.62958 2:336.85979 
0.004810655490194549 1:141.74944 2:353.83952 
0.06688537958447505 1:46.731985 2:66.254855 
0.004810669910956022 1:357.62958 2:336.85979 
1 1:162.68783 2:179.38554 
1 1:26.17813 2:71.655088 
1 1:514.04582 2:363.87744 
1 1:225.29519 2:236.18171 
1 1:311.52347 2:300.69087 
1 1:162.68783 2:179.38554 
1 1:26.17813 2:71.655088 
1 1:514.04582 2:363.87744 
1 1:225.29519 2:236.18171 
1 1:311.52347 2:300.69087 
1 1:162.68783 2:179.38554 
1 1:26.17813 2:71.655088 
1 1:514.04582 2:363.87744 
1 1:225.29519 2:236.18171 
1 1:311.52347 2:300.69087 
1 1:162.68783 2:179.38554 
1 1:26.17813 2:71.655088 
1 1:514.04582 2:363.87744 
1 1:225.29519 2:236.18171 
1 1:311.52347 2:300.69087 
1 1:162.68783 2:179.38554 
1 1:26.17813 2:71.655088 
1 1:514.04582 2:363.87744 
1 1:225.29519 2:236.18171 
1 1:311.52347 2:300.69087 
1 1:162.68783 2:179.38554 
1 1:26.17813 2:71.655088 
1 1:514.04582 2:363.87744 
1 1:225.29519 2:236.18171 
1 1:311.52347 2:300.69087 
1 1:162.68783 2:179.38554 
1 1:26.17813 2:71.655088 
1 1:514.04582 2:363.87744 
1 1:225.29519 2:236.18171 
1 1:311.52347 2:300.69087 
1 1:162.68783 2:179.38554 
1 1:26.17813 2:71.655088 
1 1:514.04582 2:363.87744 
1 1:225.29519 2:236.18171 
1 1:311.52347 2:300.69087 
1 1:162.68783 2:179.38554 
1 1:26.17813 2:71.655088 
1 1:514.04582 2:363.87744 
1 1:225.29519 2:236.18171 
1 1:311.52347 2:300.69087 
1 1:162.68783 2:179.38554 
1 1:26.17813 2:71.655088 
1 1:514.04582 2:363.87744 
1 1:225.29519 2:236.18171 
1 1:311.52347 2:300.69087 
1 1:162.68783 2:179.38554 
1 1:26.17813 2:71.655088 
1 1:514.04582 2:363.87744 
1 1:225.29519 2:236.18171 
1 1:311.52347 2:300.69087 
1 1:162.68783 2:179.38554 
1 1:26.17813 2:71.655088 
1 1:514.04582 2:363.87744 
1 1:225.29519 2:236.18171 
1 1:311.52347 2:300.69087 
1 1:162.68783 2:179.38554 
1 1:26.17813 2:71.655088 
1 1:514.04582 2:363.87744 
1 1:225.29519 2:236.18171 
1 1:311.52347 2:300.69087 
1 1:162.68783 2:179.38554 
1 1:26.17813 2:71.655088 
1 1:514.04582 2:363.87744 
1 1:225.29519 2:236.18171 
1 1:311.52347 2:300.69087 
1 1:162.68783 2:179.38554 
1 1:26.17813 2:71.655088 
1 1:514.04582 2:363.87744 
1 1:225.29519 2:236.18171 
1 1:311.52347 2:300.69087 
1 1:162.68783 2:179.38554 
1 1:26.17813 2:71.655088 
1 1:514.04582 2:363.87744 
1 1:225.29519 2:236.18171 
1 1:311.52347 2:300.69087 
1 1:162.68783 2:179.38554 
1 1:26.17813 2:71.655088 
1 1:514.04582 2:363.87744 
1 1:225.29519 2:236.18171 
1 1:311.52347 2:300.69087 
1 1:162.68783 2:179.38554 
1 1:26.17813 2:71.655088 
1 1:514.04582 2:363.87744 
1 1:225.29519 2:236.18171 
1 1:311.52347 2:300.69087 
0.2499999999997033 1:162.68783 2:179.38554 
0.09015211928635836 1:26.17813 2:71.655088 
0.3125046745741376 1:514.04582 2:363.87744 
0.3125047013145501 1:225.29519 2:236.18171 
0.1535694729536772 1:311.52347 2:300.69087 
0.03322454943986841 1:311.52347 2:300.69087 
0.06666893578486999 1:162.68783 2:179.38554 
0.01236490357197795 1:26.17813 2:71.655088 
0.004727827116765226 1:514.04582 2:363.87744 
0.004727813678544024 1:225.29519 2:236.18171 
1 1:269.71343 2:166.62683 
1 1:540.01092 2:148.94129 
1 1:41.941357 2:105.09274 
1 1:187.07923 2:242.256 
1 1:629.00144 2:253.60931 
1 1:269.71343 2:166.62683 
1 1:540.01092 2:148.94129 
1 1:41.941357 2:105.09274 
1 1:187.07923 2:242.256 
1 1:629.00144 2:253.60931 
1 1:269.71343 2:166.62683 
1 1:540.01092 2:148.94129 
1 1:41.941357 2:105.09274 
1 1:187.07923 2:242.256 
1 1:629.00144 2:253.60931 
1 1:269.71343 2:166.62683 
1 1:540.01092 2:148.94129 
1 1:41.941357 2:105.09274 
1 1:187.07923 2:242.256 
1 1:629.00144 2:253.60931 
1 1:269.71343 2:166.62683 
1 1:540.01092 2:148.94129 
1 1:41.941357 2:105.09274 
1 1:187.07923 2:242.256 
1 1:629.00144 2:253.60931 
1 1:269.71343 2:166.62683 
1 1:540.01092 2:148.94129 
1 1:41.941357 2:105.09274 
1 1:187.07923 2:242.256 
1 1:629.00144 2:253.60931 
1 1:269.71343 2:166.62683 
1 1:540.01092 2:148.94129 
1 1:41.941357 2:105.09274 
1 1:187.07923 2:242.256 
1 1:629.00144 2:253.60931 
1 1:269.71343 2:166.62683 
1 1:540.01092 2:148.94129 
1 1:41.941357 2:105.09274 
1 1:187.07923 2:242.256 
1 1:629.00144 2:253.60931 
1 1:269.71343 2:166.62683 
1 1:540.01092 2:148.94129 
1 1:41.941357 2:105.09274 
1 1:187.07923 2:242.256 
1 1:629.00144 2:253.60931 
1 1:269.71343 2:166.62683 
1 1:540.01092 2:148.94129 
1 1:41.941357 2:105.09274 
1 1:187.07923 2:242.256 
1 1:629.00144 2:253.60931 
1 1:269.71343 2:166.62683 
1 1:540.01092 2:148.94129 
1 1:41.941357 2:105.09274 
1 1:187.07923 2:242.256 
1 1:629.00144 2:253.60931 
1 1:269.71343 2:166.62683 
1 1:540.01092 2:148.94129 
1 1:41.941357 2:105.09274 
1 1:187.07923 2:242.256 
1 1:629.00144 2:253.60931 
1 1:269.71343 2:166.62683 
1 1:540.01092 2:148.94129 
1 1:41.941357 2:105.09274 
1 1:187.07923 2:242.256 
1 1:629.00144 2:253.60931 
1 1:269.71343 2:166.62683 
1 1:540.01092 2:148.94129 
1 1:41.941357 2:105.09274 
1 1:187.07923 2:242.256 
1 1:629.00144 2:253.60931 
1 1:269.71343 2:166.62683 
1 1:540.01092 2:148.94129 
1 1:41.941357 2:105.09274 
1 1:187.07923 2:242.256 
1 1:629.00144 2:253.60931 
1 1:269.71343 2:166.62683 
1 1:540.01092 2:148.94129 
1 1:41.941357 2:105.09274 
1 1:187.07923 2:242.256 
1 1:629.00144 2:253.60931 
1 1:269.71343 2:166.62683 
1 1:540.01092 2:148.94129 
1 1:41.941357 2:105.09274 
1 1:187.07923 2:242.256 
1 1:629.00144 2:253.60931 
1 1:269.71343 2:166.62683 
1 1:540.01092 2:148.94129 
1 1:41.941357 2:105.09274 
1 1:187.07923 2:242.256 
1 1:629.00144 2:253.60931 
0.2499999888101101 1:269.71343 2:166.62683 
0.3125080105626576 1:540.01092 2:148.94129 
0.3125049342519599 1:41.941357 2:105.09274 
0.3125091545327834 1:187.07923 2:242.256 
0.3125092172308346 1:629.00144 2:253.60931 
0.06681491965362873 1:269.71343 2:166.62683 
0.004684671511288485 1:540.01092 2:148.94129 
0.004697552338722488 1:41.941357 2:105.09274 
0.00467413509327308 1:187.07923 2:242.256 
0.004674103740287094 1:629.00144 2:253.60931 
1 1:296.59721 2:162.91851 
1 1:641.16298 2:330.53136 
1 1:203.11371 2:85.921121 
1 1:159.43412 2:190.47225 
1 1:413.7819 2:312.53154 
1 1:296.59721 2:162.91851 
1 1:641.16298 2:330.53136 
1 1:203.11371 2:85.921121 
1 1:159.43412 2:190.47225 
1 1:413.7819 2:312.53154 
1 1:296.59721 2:162.91851 
1 1:641.16298 2:330.53136 
1 1:203.11371 2:85.921121 
1 1:159.43412 2:190.47225 
1 1:413.7819 2:312.53154 
1 1:296.59721 2:162.91851 
1 1:641.16298 2:330.53136 
1 1:203.11371 2:85.921121 
1 1:159.43412 2:190.47225 
1 1:413.7819 2:312.53154 
1 1:296.59721 2:162.91851 
1 1:641.16298 2:330.53136 
1 1:203.11371 2:85.921121 
1 1:159.43412 2:190.47225 
1 1:413.7819 2:312.53154 
1 1:296.59721 2:162.91851 
1 1:641.16298 2:330.53136 
1 1:203.11371 2:85.921121 
1 1:159.43412 2:190.47225 
1 1:413.7819 2:312.53154 
1 1:296.59721 2:162.91851 
1 1:641.16298 2:330.53136 
1 1:203.11371 2:85.921121 
1 1:159.43412 2:190.47225 
1 1:413.7819 2:312.53154 
1 1:296.59721 2:162.91851 
1 1:641.16298 2:330.53136 
1 1:203.11371 2:85.921121 
1 1:159.43412 2:190.47225 
1 1:413.7819 2:312.53154 
1 1:296.59721 2:162.91851 
1 1:641.16298 2:330.53136 
1 1:203.11371 2:85.921121 
1 1:159.43412 2:190.47225 
1 1:413.7819 2:312.53154 
1 1:296.59721 2:162.91851 
1 1:641.16298 2:330.53136 
1 1:203.11371 2:85.921121 
1 1:159.43412 2:190.47225 
1 1:413.7819 2:312.53154 
1 1:296.59721 2:162.91851 
1 1:641.16298 2:330.53136 
1 1:203.11371 2:85.921121 
1 1:159.43412 2:190.47225 
1 1:413.7819 2:312.53154 
1 1:296.59721 2:162.91851 
1 1:641.16298 2:330.53136 
1 1:203.11371 2:85.921121 
1 1:159.43412 2:190.47225 
1 1:413.7819 2:312.53154 
1 1:296.59721 2:162.91851 
1 1:641.16298 2:330.53136 
1 1:203.11371 2:85.921121 
1 1:159.43412 2:190.47225 
1 1:413.7819 2:312.53154 
1 1:296.59721 2:162.91851 
1 1:641.16298 2:330.53136 
1 1:203.11371 2:85.921121 
1 1:159.43412 2:190.47225 
1 1:413.7819 2:312.53154 
1 1:296.59721 2:162.91851 
1 1:641.16298 2:330.53136 
1 1:203.11371 2:85.921121 
1 1:159.43412 2:190.47225 
1 1:413.7819 2:312.53154 
1 1:296.59721 2:162.91851 
1 1:641.16298 2:330.53136 
1 1:203.11371 2:85.921121 
1 1:159.43412 2:190.47225 
1 1:413.7819 2:312.53154 
1 1:296.59721 2:162.91851 
1 1:641.16298 2:330.53136 
1 1:203.11371 2:85.921121 
1 1:159.43412 2:190.47225 
1 1:413.7819 2:312.53154 
1 1:296.59721 2:162.91851 
1 1:641.16298 2:330.53136 
1 1:203.11371 2:85.921121 
1 1:159.43412 2:190.47225 
1 1:413.7819 2:312.53154 
0.312509478968888 1:296.59721 2:162.91851 
0.2499999997642757 1:641.16298 2:330.53136 
0.249999999843979 1:203.11371 2:85.921121 
0.312509849739163 1:159.43412 2:190.47225 
0.3125117109527142 1:413.7819 2:312.53154 
0.004374598502684179 1:159.43412 2:190.47225 
0.004361946729911637 1:413.7819 2:312.53154 
0.004640884450822114 1:296.59721 2:162.91851 
0.06681022397369674 1:641.16298 2:330.53136 
0.06735178972168754 1:203.11371 2:85.921121 
1 1:331.2835 2:184.47398 
1 1:229.42356 2:269.78789 
1 1:711.01097 2:152.05224 
1 1:543.65157 2:298.7962 
1 1:185.42406 2:58.508039 
1 1:331.2835 2:184.47398 
1 1:229.42356 2:269.78789 
1 1:711.01097 2:152.05224 
1 1:543.65157 2:298.7962 
1 1:185.42406 2:58.508039 
1 1:331.2835 2:184.47398 
1 1:229.42356 2:269.78789 
1 1:711.01097 2:152.05224 
1 1:543.65157 2:298.7962 
1 1:185.42406 2:58.508039 
1 1:331.2835 2:184.47398 
1 1:229.42356 2:269.78789 
1 1:711.01097 2:152.05224 
1 1:543.65157 2:298.7962 
1 1:185.42406 2:58.508039 
1 1:331.2835 2:184.47398 
1 1:229.42356 2:269.78789 
1 1:711.01097 2:152.05224 
1 1:543.65157 2:298.7962 
1 1:185.42406 2:58.508039 
1 1:331.2835 2:184.47398 
1 1:229.42356 2:269.78789 
1 1:711.01097 2:152.05224 
1 1:543.65157 2:298.7962 
1 1:185.42406 2:58.508039 
1 1:331.2835 2:184.47398 
1 1:229.42356 2:269.78789 
1 1:711.01097 2:152.05224 
1 1:543.65157 2:298.7962 
1 1:185.42406 2:58.508039 
1 1:331.2835 2:184.47398 
1 1:229.42356 2:269.78789 
1 1:711.01097 2:152.05224 
1 1:543.65157 2:298.7962 
1 1:185.42406 2:58.508039 
1 1:331.2835 2:184.47398 
1 1:229.42356 2:269.78789 
1 1:711.01097 2:152.05224 
1 1:543.65157 2:298.7962 
1 1:185.42406 2:58.508039 
1 1:331.2835 2:184.47398 
1 1:229.42356 2:269.78789 
1 1:711.01097 2:152.05224 
1 1:543.65157 2:298.7962 
1 1:185.42406 2:58.508039 
1 1:331.2835 2:184.47398 
1 1:229.42356 2:269.78789 
1 1:711.01097 2:152.05224 
1 1:543.65157 2:298.7962 
1 1:185.42406 2:58.508039 
1 1:331.2835 2:184.47398 
1 1:229.42356 2:269.78789 
1 1:711.01097 2:152.05224 
1 1:543.65157 2:298.7962 
1 1:185.42406 2:58.508039 
1 1:331.2835 2:184.47398 
1 1:229.42356 2:269.78789 
1 1:711.01097 2:152.05224 
1 1:543.65157 2:298.7962 
1 1:185.42406 2:58.508039 
1 1:331.2835 2:184.47398 
1 1:229.42356 2:269.78789 
1 1:711.01097 2:152.05224 
1 1:543.65157 2:298.7962 
1 1:185.42406 2:58.508039 
1 1:331.2835 2:184.47398 
1 1:229.42356 2:269.78789 
1 1:711.01097 2:152.05224 
1 1:543.65157 2:298.7962 
1 1:185.42406 2:58.508039 
1 1:331.2835 2:184.47398 
1 1:229.42356 2:269.78789 
1 1:711.01097 2:152.05224 
1 1:543.65157 2:298.7962 
1 1:185.42406 2:58.508039 
1 1:331.2835 2:184.47398 
1 1:229.42356 2:269.78789 
1 1:711.01097 2:152.05224 
1 1:543.65157 2:298.7962 
1 1:185.42406 2:58.508039 
1 1:331.2835 2:184.47398 
1 1:229.42356 2:269.78789 
1 1:711.01097 2:152.05224 
1 1:543.65157 2:298.7962 
1 1:185.42406 2:58.508039 
0.3125117109525863 1:331.2835 2:184.47398 
0.3125136807474185 1:229.42356 2:269.78789 
0.3125138720819596 1:711.01097 2:152.05224 
0.2499999996475992 1:543.65157 2:298.7962 
0.3125156524519763 1:185.42406 2:58.508039 
0.004238800136517895 1:711.01097 2:152.05224 
0.06683467552460343 1:543.65157 2:298.7962 
0.004151589409840284 1:185.42406 2:58.508039 
0.004361946811522799 1:331.2835 2:184.47398 
0.004334795932184221 1:229.42356 2:269.78789 
1 1:531.47971 2:302.24741 
1 1:288.52419 2:436.42013 
1 1:52.214162 2:76.773771 
1 1:196.09035 2:170.40919 
1 1:343.34437 2:223.2796 
1 1:531.47971 2:302.24741 
1 1:288.52419 2:436.42013 
1 1:52.214162 2:76.773771 
1 1:196.09035 2:170.40919 
1 1:343.34437 2:223.2796 
1 1:531.47971 2:302.24741 
1 1:288.52419 2:436.42013 
1 1:52.214162 2:76.773771 
1 1:196.09035 2:170.40919 
1 1:343.34437 2:223.2796 
1 1:531.47971 2:302.24741 
1 1:288.52419 2:436.42013 
1 1:52.214162 2:76.773771 
1 1:196.09035 2:170.40919 
1 1:343.34437 2:223.2796 
1 1:531.47971 2:302.24741 
1 1:288.52419 2:436.42013 
1 1:52.214162 2:76.773771 
1 1:196.09035 2:170.40919 
1 1:343.34437 2:223.2796 
1 1:531.47971 2:302.24741 
1 1:288.52419 2:436.42013 
1 1:52.214162 2:76.773771 
1 1:196.09035 2:170.40919 
1 1:343.34437 2:223.2796 
1 1:531.47971 2:302.24741 
1 1:288.52419 2:436.42013 
1 1:52.214162 2:76.773771 
1 1:196.09035 2:170.40919 
1 1:343.34437 2:223.2796 
1 1:531.47971 2:302.24741 
1 1:288.52419 2:436.42013 
1 1:52.214162 2:76.773771 
1 1:196.09035 2:170.40919 
1 1:343.34437 2:223.2796 
1 1:531.47971 2:302.24741 
1 1:288.52419 2:436.42013 
1 1:52.214162 2:76.773771 
1 1:196.09035 2:170.40919 
1 1:343.34437 2:223.2796 
0.6550316444450236 1:531.47971 2:302.24741 
1 1:288.52419 2:436.42013 
1 1:52.214162 2:76.773771 
1 1:196.09035 2:170.40919 
1 1:343.34437 2:223.2796 
1 1:288.52419 2:436.42013 
1 1:52.214162 2:76.773771 
1 1:196.09035 2:170.40919 
1 1:343.34437 2:223.2796 
1 1:288.52419 2:436.42013 
1 1:52.214162 2:76.773771 
1 1:196.09035 2:170.40919 
1 1:343.34437 2:223.2796 
1 1:288.52419 2:436.42013 
1 1:52.214162 2:76.773771 
1 1:196.09035 2:170.40919 
1 1:343.34437 2:223.2796 
1 1:288.52419 2:436.42013 
1 1:52.214162 2:76.773771 
1 1:196.09035 2:170.40919 
1 1:343.34437 2:223.2796 
1 1:288.52419 2:436.42013 
1 1:52.214162 2:76.773771 
1 1:196.09035 2:170.40919 
1 1:343.34437 2:223.2796 
1 1:288.52419 2:436.42013 
1 1:52.214162 2:76.773771 
1 1:196.09035 2:170.40919 
1 1:343.34437 2:223.2796 
1 1:288.52419 2:436.42013 
1 1:52.214162 2:76.773771 
1 1:196.09035 2:170.40919 
1 1:343.34437 2:223.2796 
1 1:288.52419 2:436.42013 
1 1:52.214162 2:76.773771 
1 1:196.09035 2:170.40919 
1 1:343.34437 2:223.2796 
0.2499999999990106 1:288.52419 2:436.42013 
0.2499996085601595 1:52.214162 2:76.773771 
0.2496313698657104 1:196.09035 2:170.40919 
0.02597608228319714 1:343.34437 2:223.2796 
0.01922722981410237 1:531.47971 2:302.24741 
0.06669068890924201 1:288.52419 2:436.42013 
0.06682833656213205 1:52.214162 2:76.773771 
0.06668309980646292 1:196.09035 2:170.40919 
1 1:672.27957 2:219.71197 
1 1:906.11556 2:237.88409 
1 1:87.678757 2:70.958285 
1 1:256.73063 2:126.42502 
1 1:430.42541 2:178.97303 
1 1:672.27957 2:219.71197 
1 1:906.11556 2:237.88409 
1 1:87.678757 2:70.958285 
1 1:256.73063 2:126.42502 
1 1:430.42541 2:178.97303 
1 1:672.27957 2:219.71197 
1 1:906.11556 2:237.88409 
1 1:87.678757 2:70.958285 
1 1:256.73063 2:126.42502 
1 1:430.42541 2:178.97303 
1 1:672.27957 2:219.71197 
1 1:906.11556 2:237.88409 
1 1:87.678757 2:70.958285 
1 1:256.73063 2:126.42502 
1 1:430.42541 2:178.97303 
1 1:672.27957 2:219.71197 
1 1:906.11556 2:237.88409 
1 1:87.678757 2:70.958285 
1 1:256.73063 2:126.42502 
1 1:430.42541 2:178.97303 
1 1:672.27957 2:219.71197 
1 1:906.11556 2:237.88409 
1 1:87.678757 2:70.958285 
1 1:256.73063 2:126.42502 
1 1:430.42541 2:178.97303 
1 1:672.27957 2:219.71197 
1 1:906.11556 2:237.88409 
1 1:87.678757 2:70.958285 
1 1:256.73063 2:126.42502 
1 1:430.42541 2:178.97303 
1 1:672.27957 2:219.71197 
1 1:906.11556 2:237.88409 
1 1:87.678757 2:70.958285 
1 1:256.73063 2:126.42502 
1 1:430.42541 2:178.97303 
1 1:672.27957 2:219.71197 
1 1:906.11556 2:237.88409 
1 1:87.678757 2:70.958285 
1 1:256.73063 2:126.42502 
1 1:430.42541 2:178.97303 
1 1:672.27957 2:219.71197 
1 1:906.11556 2:237.88409 
1 1:87.678757 2:70.958285 
1 1:256.73063 2:126.42502 
1 1:430.42541 2:178.97303 
1 1:672.27957 2:219.71197 
1 1:906.11556 2:237.88409 
1 1:87.678757 2:70.958285 
1 1:256.73063 2:126.42502 
1 1:430.42541 2:178.97303 
1 1:672.27957 2:219.71197 
1 1:906.11556 2:237.88409 
1 1:87.678757 2:70.958285 
1 1:256.73063 2:126.42502 
1 1:430.42541 2:178.97303 
1 1:672.27957 2:219.71197 
1 1:906.11556 2:237.88409 
1 1:87.678757 2:70.958285 
1 1:256.73063 2:126.42502 
1 1:430.42541 2:178.97303 
1 1:672.27957 2:219.71197 
1 1:906.11556 2:237.88409 
1 1:87.678757 2:70.958285 
1 1:256.73063 2:126.42502 
1 1:430.42541 2:178.97303 
1 1:672.27957 2:219.71197 
1 1:906.11556 2:237.88409 
1 1:87.678757 2:70.958285 
1 1:256.73063 2:126.42502 
1 1:430.42541 2:178.97303 
1 1:672.27957 2:219.71197 
1 1:906.11556 2:237.88409 
0.2730536570613458 1:87.678757 2:70.958285 
1 1:256.73063 2:126.42502 
1 1:430.42541 2:178.97303 
1 1:672.27957 2:219.71197 
1 1:906.11556 2:237.88409 
1 1:256.73063 2:126.42502 
1 1:430.42541 2:178.97303 
1 1:672.27957 2:219.71197 
1 1:906.11556 2:237.88409 
1 1:256.73063 2:126.42502 
1 1:430.42541 2:178.97303 
0.2499999986223518 1:672.27957 2:219.71197 
0.3125148272229552 1:906.11556 2:237.88409 
0.3125193047511328 1:256.73063 2:126.42502 
0.3125193047508414 1:430.42541 2:178.97303 
0.06737696430972129 1:672.27957 2:219.71197 
0.004175861687123472 1:906.11556 2:237.88409 
0.06966875563849448 1:87.678757 2:70.958285 
0.004104879693318964 1:256.73063 2:126.42502 
0.004126991146566894 1:430.42541 2:178.97303 
1 1:341.57496 2:129.1559 
1 1:518.05259 2:138.90001 
1 1:129.33962 2:31.863745 
1 1:289.09814 2:74.772687 
1 1:212.33626 2:194.212 
1 1:341.57496 2:129.1559 
1 1:518.05259 2:138.90001 
1 1:129.33962 2:31.863745 
1 1:289.09814 2:74.772687 
1 1:212.33626 2:194.212 
1 1:341.57496 2:129.1559 
1 1:518.05259 2:138.90001 
1 1:129.33962 2:31.863745 
1 1:289.09814 2:74.772687 
1 1:212.33626 2:194.212 
1 1:341.57496 2:129.1559 
1 1:518.05259 2:138.90001 
1 1:129.33962 2:31.863745 
1 1:289.09814 2:74.772687 
1 1:212.33626 2:194.212 
1 1:341.57496 2:129.1559 
1 1:518.05259 2:138.90001 
1 1:129.33962 2:31.863745 
1 1:289.09814 2:74.772687 
1 1:212.33626 2:194.212 
1 1:341.57496 2:129.1559 
1 1:518.05259 2:138.90001 
1 1:129.33962 2:31.863745 
1 1:289.09814 2:74.772687 
1 1:212.33626 2:194.212 
1 1:341.57496 2:129.1559 
1 1:518.05259 2:138.90001 
1 1:129.33962 2:31.863745 
1 1:289.09814 2:74.772687 
1 1:212.33626 2:194.212 
1 1:341.57496 2:129.1559 
1 1:518.05259 2:138.90001 
1 1:129.33962 2:31.863745 
1 1:289.09814 2:74.772687 
1 1:212.33626 2:194.212 
1 1:341.57496 2:129.1559 
1 1:518.05259 2:138.90001 
1 1:129.33962 2:31.863745 
1 1:289.09814 2:74.772687 
1 1:212.33626 2:194.212 
1 1:341.57496 2:129.1559 
1 1:518.05259 2:138.90001 
1 1:129.33962 2:31.863745 
1 1:289.09814 2:74.772687 
1 1:212.33626 2:194.212 
1 1:341.57496 2:129.1559 
1 1:518.05259 2:138.90001 
1 1:129.33962 2:31.863745 
1 1:289.09814 2:74.772687 
1 1:212.33626 2:194.212 
1 1:341.57496 2:129.1559 
1 1:518.05259 2:138.90001 
1 1:129.33962 2:31.863745 
1 1:289.09814 2:74.772687 
1 1:212.33626 2:194.212 
1 1:341.57496 2:129.1559 
1 1:518.05259 2:138.90001 
1 1:129.33962 2:31.863745 
1 1:289.09814 2:74.772687 
1 1:212.33626 2:194.212 
1 1:341.57496 2:129.1559 
1 1:518.05259 2:138.90001 
1 1:129.33962 2:31.863745 
1 1:289.09814 2:74.772687 
1 1:212.33626 2:194.212 
1 1:341.57496 2:129.1559 
1 1:518.05259 2:138.90001 
1 1:129.33962 2:31.863745 
1 1:289.09814 2:74.772687 
1 1:212.33626 2:194.212 
1 1:341.57496 2:129.1559 
1 1:518.05259 2:138.90001 
1 1:129.33962 2:31.863745 
1 1:289.09814 2:74.772687 
1 1:212.33626 2:194.212 
1 1:341.57496 2:129.1559 
1 1:518.05259 2:138.90001 
1 1:129.33962 2:31.863745 
1 1:289.09814 2:74.772687 
1 1:212.33626 2:194.212 
1 1:341.57496 2:129.1559 
1 1:518.05259 2:138.90001 
1 1:129.33962 2:31.863745 
1 1:289.09814 2:74.772687 
1 1:212.33626 2:194.212 
0.3125208122477456 1:341.57496 2:129.1559 
0.3125208122476923 1:518.05259 2:138.90001 
0.3125227774295301 1:129.33962 2:31.863745 
0.3125231463876847 1:289.09814 2:74.772687 
0.2500000000001723 1:212.33626 2:194.212 
0.004074281403465108 1:341.57496 2:129.1559 
0.004074281403603663 1:518.05259 2:138.90001 
0.004073298499037037 1:129.33962 2:31.863745 
0.004073114019906399 1:289.09814 2:74.772687 
0.06683039875458618 1:212.33626 2:194.212 
1 1:397.69777 2:171.15467 
1 1:546.69507 2:171.93577 
1 1:72.18519 2:32.931938 
1 1:253.96746 2:91.833522 
1 1:448.23783 2:144.79689 
1 1:397.69777 2:171.15467 
1 1:546.69507 2:171.93577 
1 1:72.18519 2:32.931938 
1 1:253.96746 2:91.833522 
