svm_type one_class
kernel_type rbf
gamma 0.5
nr_class 2
total_sv 15790
rho 24.4375
SV
1 1:64.065074 2:75.824851 
1 1:154.19284 2:77.372459 
1 1:69.490835 2:110.9056 
1 1:50.834894 2:64.822206 
1 1:64.065074 2:75.824851 
1 1:154.19284 2:77.372459 
1 1:69.490835 2:110.9056 
1 1:50.834894 2:64.822206 
1 1:64.065074 2:75.824851 
1 1:154.19284 2:77.372459 
1 1:69.490835 2:110.9056 
1 1:50.834894 2:64.822206 
1 1:64.065074 2:75.824851 
1 1:154.19284 2:77.372459 
1 1:69.490835 2:110.9056 
1 1:50.834894 2:64.822206 
1 1:64.065074 2:75.824851 
1 1:154.19284 2:77.372459 
1 1:69.490835 2:110.9056 
1 1:50.834894 2:64.822206 
1 1:64.065074 2:75.824851 
1 1:154.19284 2:77.372459 
1 1:69.490835 2:110.9056 
1 1:50.834894 2:64.822206 
1 1:64.065074 2:75.824851 
1 1:154.19284 2:77.372459 
1 1:69.490835 2:110.9056 
1 1:50.834894 2:64.822206 
1 1:64.065074 2:75.824851 
1 1:154.19284 2:77.372459 
1 1:69.490835 2:110.9056 
1 1:50.834894 2:64.822206 
1 1:64.065074 2:75.824851 
1 1:154.19284 2:77.372459 
1 1:69.490835 2:110.9056 
1 1:50.834894 2:64.822206 
1 1:64.065074 2:75.824851 
1 1:154.19284 2:77.372459 
1 1:69.490835 2:110.9056 
1 1:50.834894 2:64.822206 
1 1:64.065074 2:75.824851 
1 1:154.19284 2:77.372459 
1 1:69.490835 2:110.9056 
1 1:50.834894 2:64.822206 
1 1:64.065074 2:75.824851 
1 1:154.19284 2:77.372459 
1 1:69.490835 2:110.9056 
1 1:50.834894 2:64.822206 
1 1:64.065074 2:75.824851 
1 1:154.19284 2:77.372459 
1 1:69.490835 2:110.9056 
1 1:50.834894 2:64.822206 
1 1:64.065074 2:75.824851 
1 1:154.19284 2:77.372459 
1 1:69.490835 2:110.9056 
1 1:50.834894 2:64.822206 
1 1:64.065074 2:75.824851 
1 1:154.19284 2:77.372459 
1 1:69.490835 2:110.9056 
1 1:50.834894 2:64.822206 
1 1:64.065074 2:75.824851 
1 1:154.19284 2:77.372459 
1 1:69.490835 2:110.9056 
1 1:50.834894 2:64.822206 
1 1:64.065074 2:75.824851 
1 1:154.19284 2:77.372459 
1 1:69.490835 2:110.9056 
1 1:50.834894 2:64.822206 
1 1:64.065074 2:75.824851 
1 1:154.19284 2:77.372459 
1 1:69.490835 2:110.9056 
1 1:50.834894 2:64.822206 
1 1:64.065074 2:75.824851 
1 1:154.19284 2:77.372459 
1 1:69.490835 2:110.9056 
1 1:50.834894 2:64.822206 
1 1:64.065074 2:75.824851 
1 1:154.19284 2:77.372459 
1 1:69.490835 2:110.9056 
1 1:50.834894 2:64.822206 
1 1:64.065074 2:75.824851 
1 1:154.19284 2:77.372459 
1 1:69.490835 2:110.9056 
1 1:50.834894 2:64.822206 
1 1:64.065074 2:75.824851 
1 1:154.19284 2:77.372459 
0.3611867567010183 1:69.490835 2:110.9056 
1 1:50.834894 2:64.822206 
1 1:64.065074 2:75.824851 
1 1:154.19284 2:77.372459 
0.5268033716546974 1:50.834894 2:64.822206 
1 1:64.065074 2:75.824851 
1 1:154.19284 2:77.372459 
0.1031648718632034 1:64.065074 2:75.824851 
0.348702043692235 1:154.19284 2:77.372459 
0.02641637992358348 1:64.065074 2:75.824851 
0.01466701565914263 1:154.19284 2:77.372459 
0.01006515702285959 1:69.490835 2:110.9056 
1 1:74.407024 2:60.087433 
1 1:93.688773 2:59.789965 
1 1:8.1213266 2:10.840051 
1 1:75.464571 2:77.098767 
1 1:49.534027 2:55.275183 
1 1:74.407024 2:60.087433 
1 1:93.688773 2:59.789965 
1 1:8.1213266 2:10.840051 
1 1:75.464571 2:77.098767 
1 1:49.534027 2:55.275183 
1 1:74.407024 2:60.087433 
1 1:93.688773 2:59.789965 
1 1:8.1213266 2:10.840051 
1 1:75.464571 2:77.098767 
1 1:49.534027 2:55.275183 
1 1:74.407024 2:60.087433 
1 1:93.688773 2:59.789965 
1 1:8.1213266 2:10.840051 
1 1:75.464571 2:77.098767 
1 1:49.534027 2:55.275183 
1 1:74.407024 2:60.087433 
1 1:93.688773 2:59.789965 
1 1:8.1213266 2:10.840051 
1 1:75.464571 2:77.098767 
1 1:49.534027 2:55.275183 
1 1:74.407024 2:60.087433 
1 1:93.688773 2:59.789965 
1 1:8.1213266 2:10.840051 
1 1:75.464571 2:77.098767 
1 1:49.534027 2:55.275183 
1 1:74.407024 2:60.087433 
1 1:93.688773 2:59.789965 
1 1:8.1213266 2:10.840051 
1 1:75.464571 2:77.098767 
1 1:49.534027 2:55.275183 
1 1:74.407024 2:60.087433 
1 1:93.688773 2:59.789965 
1 1:8.1213266 2:10.840051 
1 1:75.464571 2:77.098767 
1 1:49.534027 2:55.275183 
1 1:74.407024 2:60.087433 
1 1:93.688773 2:59.789965 
0.4984138619982948 1:8.1213266 2:10.840051 
1 1:75.464571 2:77.098767 
1 1:49.534027 2:55.275183 
1 1:74.407024 2:60.087433 
1 1:93.688773 2:59.789965 
1 1:75.464571 2:77.098767 
1 1:49.534027 2:55.275183 
1 1:74.407024 2:60.087433 
1 1:93.688773 2:59.789965 
1 1:75.464571 2:77.098767 
1 1:49.534027 2:55.275183 
1 1:74.407024 2:60.087433 
1 1:93.688773 2:59.789965 
1 1:75.464571 2:77.098767 
1 1:49.534027 2:55.275183 
1 1:74.407024 2:60.087433 
1 1:93.688773 2:59.789965 
1 1:75.464571 2:77.098767 
1 1:49.534027 2:55.275183 
1 1:74.407024 2:60.087433 
1 1:93.688773 2:59.789965 
1 1:75.464571 2:77.098767 
1 1:49.534027 2:55.275183 
1 1:74.407024 2:60.087433 
0.2729538830188938 1:93.688773 2:59.789965 
1 1:75.464571 2:77.098767 
1 1:49.534027 2:55.275183 
1 1:74.407024 2:60.087433 
1 1:75.464571 2:77.098767 
1 1:49.534027 2:55.275183 
0.4094033349716586 1:74.407024 2:60.087433 
1 1:75.464571 2:77.098767 
1 1:49.534027 2:55.275183 
1 1:75.464571 2:77.098767 
1 1:49.534027 2:55.275183 
1 1:75.464571 2:77.098767 
1 1:49.534027 2:55.275183 
1 1:75.464571 2:77.098767 
1 1:49.534027 2:55.275183 
0.6375234616861585 1:75.464571 2:77.098767 
1 1:49.534027 2:55.275183 
1 1:49.534027 2:55.275183 
1 1:49.534027 2:55.275183 
0.6827826714823022 1:49.534027 2:55.275183 
0.04718529387610992 1:74.407024 2:60.087433 
0.02161698420729847 1:93.688773 2:59.789965 
0.006926649840913512 1:8.1213266 2:10.840051 
0.03811062268340137 1:75.464571 2:77.098767 
0.02817140293398346 1:49.534027 2:55.275183 
1 1:109.99408 2:46.776762 
1 1:64.843105 2:58.72841 
1 1:14.856328 2:14.870202 
1 1:19.974008 2:78.864092 
1 1:76.003609 2:79.451786 
1 1:109.99408 2:46.776762 
1 1:64.843105 2:58.72841 
1 1:14.856328 2:14.870202 
1 1:19.974008 2:78.864092 
1 1:76.003609 2:79.451786 
1 1:109.99408 2:46.776762 
1 1:64.843105 2:58.72841 
1 1:14.856328 2:14.870202 
1 1:19.974008 2:78.864092 
1 1:76.003609 2:79.451786 
1 1:109.99408 2:46.776762 
1 1:64.843105 2:58.72841 
1 1:14.856328 2:14.870202 
1 1:19.974008 2:78.864092 
1 1:76.003609 2:79.451786 
1 1:109.99408 2:46.776762 
1 1:64.843105 2:58.72841 
1 1:14.856328 2:14.870202 
1 1:19.974008 2:78.864092 
1 1:76.003609 2:79.451786 
1 1:109.99408 2:46.776762 
1 1:64.843105 2:58.72841 
1 1:14.856328 2:14.870202 
1 1:19.974008 2:78.864092 
1 1:76.003609 2:79.451786 
1 1:109.99408 2:46.776762 
1 1:64.843105 2:58.72841 
1 1:14.856328 2:14.870202 
1 1:19.974008 2:78.864092 
1 1:76.003609 2:79.451786 
1 1:109.99408 2:46.776762 
1 1:64.843105 2:58.72841 
1 1:14.856328 2:14.870202 
1 1:19.974008 2:78.864092 
1 1:76.003609 2:79.451786 
1 1:109.99408 2:46.776762 
1 1:64.843105 2:58.72841 
1 1:14.856328 2:14.870202 
1 1:19.974008 2:78.864092 
1 1:76.003609 2:79.451786 
1 1:109.99408 2:46.776762 
1 1:64.843105 2:58.72841 
1 1:14.856328 2:14.870202 
1 1:19.974008 2:78.864092 
1 1:76.003609 2:79.451786 
1 1:109.99408 2:46.776762 
1 1:64.843105 2:58.72841 
1 1:14.856328 2:14.870202 
1 1:19.974008 2:78.864092 
1 1:76.003609 2:79.451786 
1 1:109.99408 2:46.776762 
1 1:64.843105 2:58.72841 
0.420960215813812 1:14.856328 2:14.870202 
1 1:19.974008 2:78.864092 
1 1:76.003609 2:79.451786 
1 1:109.99408 2:46.776762 
1 1:64.843105 2:58.72841 
1 1:19.974008 2:78.864092 
1 1:76.003609 2:79.451786 
1 1:109.99408 2:46.776762 
1 1:64.843105 2:58.72841 
1 1:19.974008 2:78.864092 
1 1:76.003609 2:79.451786 
1 1:109.99408 2:46.776762 
1 1:64.843105 2:58.72841 
1 1:19.974008 2:78.864092 
1 1:76.003609 2:79.451786 
1 1:109.99408 2:46.776762 
1 1:64.843105 2:58.72841 
1 1:19.974008 2:78.864092 
1 1:76.003609 2:79.451786 
1 1:109.99408 2:46.776762 
1 1:64.843105 2:58.72841 
1 1:19.974008 2:78.864092 
1 1:76.003609 2:79.451786 
1 1:109.99408 2:46.776762 
1 1:64.843105 2:58.72841 
1 1:19.974008 2:78.864092 
1 1:76.003609 2:79.451786 
1 1:109.99408 2:46.776762 
0.1498538210074081 1:64.843105 2:58.72841 
1 1:19.974008 2:78.864092 
1 1:76.003609 2:79.451786 
1 1:109.99408 2:46.776762 
1 1:19.974008 2:78.864092 
1 1:76.003609 2:79.451786 
1 1:109.99408 2:46.776762 
1 1:19.974008 2:78.864092 
1 1:76.003609 2:79.451786 
1 1:109.99408 2:46.776762 
0.3875226989201153 1:19.974008 2:78.864092 
1 1:76.003609 2:79.451786 
0.948301958155378 1:76.003609 2:79.451786 
0.09404729174769422 1:109.99408 2:46.776762 
0.004591879232208385 1:19.974008 2:78.864092 
1 1:86.434695 2:31.413718 
1 1:160.17702 2:57.183147 
1 1:115.10013 2:43.273959 
1 1:110.30536 2:94.151813 
1 1:86.434695 2:31.413718 
1 1:160.17702 2:57.183147 
1 1:115.10013 2:43.273959 
1 1:110.30536 2:94.151813 
1 1:86.434695 2:31.413718 
1 1:160.17702 2:57.183147 
1 1:115.10013 2:43.273959 
1 1:110.30536 2:94.151813 
1 1:86.434695 2:31.413718 
1 1:160.17702 2:57.183147 
1 1:115.10013 2:43.273959 
1 1:110.30536 2:94.151813 
1 1:86.434695 2:31.413718 
1 1:160.17702 2:57.183147 
1 1:115.10013 2:43.273959 
1 1:110.30536 2:94.151813 
1 1:86.434695 2:31.413718 
1 1:160.17702 2:57.183147 
1 1:115.10013 2:43.273959 
1 1:110.30536 2:94.151813 
1 1:86.434695 2:31.413718 
1 1:160.17702 2:57.183147 
1 1:115.10013 2:43.273959 
1 1:110.30536 2:94.151813 
1 1:86.434695 2:31.413718 
1 1:160.17702 2:57.183147 
1 1:115.10013 2:43.273959 
1 1:110.30536 2:94.151813 
1 1:86.434695 2:31.413718 
1 1:160.17702 2:57.183147 
1 1:115.10013 2:43.273959 
1 1:110.30536 2:94.151813 
1 1:86.434695 2:31.413718 
1 1:160.17702 2:57.183147 
1 1:115.10013 2:43.273959 
1 1:110.30536 2:94.151813 
1 1:86.434695 2:31.413718 
1 1:160.17702 2:57.183147 
1 1:115.10013 2:43.273959 
1 1:110.30536 2:94.151813 
1 1:86.434695 2:31.413718 
1 1:160.17702 2:57.183147 
1 1:115.10013 2:43.273959 
1 1:110.30536 2:94.151813 
1 1:86.434695 2:31.413718 
1 1:160.17702 2:57.183147 
1 1:115.10013 2:43.273959 
1 1:110.30536 2:94.151813 
1 1:86.434695 2:31.413718 
1 1:160.17702 2:57.183147 
1 1:115.10013 2:43.273959 
1 1:110.30536 2:94.151813 
1 1:86.434695 2:31.413718 
1 1:160.17702 2:57.183147 
1 1:115.10013 2:43.273959 
1 1:110.30536 2:94.151813 
1 1:86.434695 2:31.413718 
1 1:160.17702 2:57.183147 
1 1:115.10013 2:43.273959 
1 1:110.30536 2:94.151813 
1 1:86.434695 2:31.413718 
1 1:160.17702 2:57.183147 
1 1:115.10013 2:43.273959 
1 1:110.30536 2:94.151813 
1 1:86.434695 2:31.413718 
1 1:160.17702 2:57.183147 
1 1:115.10013 2:43.273959 
1 1:110.30536 2:94.151813 
1 1:86.434695 2:31.413718 
0.978594911744425 1:160.17702 2:57.183147 
1 1:115.10013 2:43.273959 
1 1:110.30536 2:94.151813 
1 1:86.434695 2:31.413718 
1 1:115.10013 2:43.273959 
1 1:110.30536 2:94.151813 
1 1:86.434695 2:31.413718 
1 1:115.10013 2:43.273959 
1 1:110.30536 2:94.151813 
1 1:86.434695 2:31.413718 
1 1:115.10013 2:43.273959 
1 1:110.30536 2:94.151813 
0.7479013846678555 1:86.434695 2:31.413718 
1 1:115.10013 2:43.273959 
0.437245111495713 1:110.30536 2:94.151813 
1 1:115.10013 2:43.273959 
0.436686299935241 1:115.10013 2:43.273959 
0.0008752599881560741 1:115.10013 2:43.273959 
0.03532511080574352 1:86.434695 2:31.413718 
0.005482616551876873 1:160.17702 2:57.183147 
1 1:106.29513 2:62.61112 
1 1:62.897755 2:90.205394 
1 1:115.34972 2:36.078973 
1 1:143.57579 2:34.468105 
1 1:8.2140737 2:8.0483836 
1 1:106.29513 2:62.61112 
1 1:62.897755 2:90.205394 
1 1:115.34972 2:36.078973 
1 1:143.57579 2:34.468105 
1 1:8.2140737 2:8.0483836 
1 1:106.29513 2:62.61112 
1 1:62.897755 2:90.205394 
1 1:115.34972 2:36.078973 
1 1:143.57579 2:34.468105 
1 1:8.2140737 2:8.0483836 
1 1:106.29513 2:62.61112 
1 1:62.897755 2:90.205394 
1 1:115.34972 2:36.078973 
1 1:143.57579 2:34.468105 
1 1:8.2140737 2:8.0483836 
1 1:106.29513 2:62.61112 
1 1:62.897755 2:90.205394 
1 1:115.34972 2:36.078973 
1 1:143.57579 2:34.468105 
1 1:8.2140737 2:8.0483836 
1 1:106.29513 2:62.61112 
1 1:62.897755 2:90.205394 
1 1:115.34972 2:36.078973 
1 1:143.57579 2:34.468105 
1 1:8.2140737 2:8.0483836 
1 1:106.29513 2:62.61112 
1 1:62.897755 2:90.205394 
1 1:115.34972 2:36.078973 
1 1:143.57579 2:34.468105 
1 1:8.2140737 2:8.0483836 
1 1:106.29513 2:62.61112 
1 1:62.897755 2:90.205394 
1 1:115.34972 2:36.078973 
1 1:143.57579 2:34.468105 
1 1:8.2140737 2:8.0483836 
1 1:106.29513 2:62.61112 
1 1:62.897755 2:90.205394 
1 1:115.34972 2:36.078973 
1 1:143.57579 2:34.468105 
1 1:8.2140737 2:8.0483836 
1 1:106.29513 2:62.61112 
1 1:62.897755 2:90.205394 
1 1:115.34972 2:36.078973 
1 1:143.57579 2:34.468105 
0.08296999442252098 1:8.2140737 2:8.0483836 
1 1:106.29513 2:62.61112 
1 1:62.897755 2:90.205394 
1 1:115.34972 2:36.078973 
1 1:143.57579 2:34.468105 
1 1:106.29513 2:62.61112 
1 1:62.897755 2:90.205394 
1 1:115.34972 2:36.078973 
1 1:143.57579 2:34.468105 
1 1:106.29513 2:62.61112 
1 1:62.897755 2:90.205394 
1 1:115.34972 2:36.078973 
1 1:143.57579 2:34.468105 
1 1:106.29513 2:62.61112 
1 1:62.897755 2:90.205394 
1 1:115.34972 2:36.078973 
1 1:143.57579 2:34.468105 
1 1:106.29513 2:62.61112 
1 1:62.897755 2:90.205394 
1 1:115.34972 2:36.078973 
1 1:143.57579 2:34.468105 
1 1:106.29513 2:62.61112 
1 1:62.897755 2:90.205394 
1 1:115.34972 2:36.078973 
1 1:143.57579 2:34.468105 
1 1:106.29513 2:62.61112 
1 1:62.897755 2:90.205394 
1 1:115.34972 2:36.078973 
1 1:143.57579 2:34.468105 
1 1:106.29513 2:62.61112 
1 1:62.897755 2:90.205394 
1 1:115.34972 2:36.078973 
1 1:143.57579 2:34.468105 
1 1:106.29513 2:62.61112 
1 1:62.897755 2:90.205394 
1 1:115.34972 2:36.078973 
1 1:143.57579 2:34.468105 
1 1:106.29513 2:62.61112 
1 1:62.897755 2:90.205394 
1 1:115.34972 2:36.078973 
1 1:143.57579 2:34.468105 
0.8692015068900734 1:106.29513 2:62.61112 
1 1:62.897755 2:90.205394 
1 1:115.34972 2:36.078973 
1 1:143.57579 2:34.468105 
1 1:62.897755 2:90.205394 
1 1:115.34972 2:36.078973 
1 1:143.57579 2:34.468105 
1 1:62.897755 2:90.205394 
1 1:115.34972 2:36.078973 
1 1:143.57579 2:34.468105 
1 1:62.897755 2:90.205394 
1 1:115.34972 2:36.078973 
1 1:143.57579 2:34.468105 
0.4084139639541284 1:62.897755 2:90.205394 
0.4303227052120686 1:115.34972 2:36.078973 
0.4373210320263734 1:143.57579 2:34.468105 
0.003535849310620921 1:106.29513 2:62.61112 
0.002720118138089589 1:62.897755 2:90.205394 
1 1:48.088738 2:73.405516 
1 1:78.593801 2:40.364572 
1 1:12.31139 2:10.926193 
1 1:73.579283 2:107.38646 
1 1:105.4185 2:116.47313 
1 1:48.088738 2:73.405516 
1 1:78.593801 2:40.364572 
1 1:12.31139 2:10.926193 
1 1:73.579283 2:107.38646 
1 1:105.4185 2:116.47313 
1 1:48.088738 2:73.405516 
1 1:78.593801 2:40.364572 
1 1:12.31139 2:10.926193 
1 1:73.579283 2:107.38646 
1 1:105.4185 2:116.47313 
1 1:48.088738 2:73.405516 
1 1:78.593801 2:40.364572 
1 1:12.31139 2:10.926193 
1 1:73.579283 2:107.38646 
1 1:105.4185 2:116.47313 
1 1:48.088738 2:73.405516 
1 1:78.593801 2:40.364572 
1 1:12.31139 2:10.926193 
1 1:73.579283 2:107.38646 
1 1:105.4185 2:116.47313 
1 1:48.088738 2:73.405516 
1 1:78.593801 2:40.364572 
1 1:12.31139 2:10.926193 
1 1:73.579283 2:107.38646 
1 1:105.4185 2:116.47313 
1 1:48.088738 2:73.405516 
1 1:78.593801 2:40.364572 
1 1:12.31139 2:10.926193 
1 1:73.579283 2:107.38646 
1 1:105.4185 2:116.47313 
1 1:48.088738 2:73.405516 
1 1:78.593801 2:40.364572 
1 1:12.31139 2:10.926193 
1 1:73.579283 2:107.38646 
1 1:105.4185 2:116.47313 
1 1:48.088738 2:73.405516 
1 1:78.593801 2:40.364572 
1 1:12.31139 2:10.926193 
1 1:73.579283 2:107.38646 
1 1:105.4185 2:116.47313 
1 1:48.088738 2:73.405516 
1 1:78.593801 2:40.364572 
1 1:12.31139 2:10.926193 
1 1:73.579283 2:107.38646 
1 1:105.4185 2:116.47313 
1 1:48.088738 2:73.405516 
1 1:78.593801 2:40.364572 
1 1:12.31139 2:10.926193 
1 1:73.579283 2:107.38646 
1 1:105.4185 2:116.47313 
1 1:48.088738 2:73.405516 
1 1:78.593801 2:40.364572 
1 1:12.31139 2:10.926193 
1 1:73.579283 2:107.38646 
1 1:105.4185 2:116.47313 
1 1:48.088738 2:73.405516 
1 1:78.593801 2:40.364572 
1 1:12.31139 2:10.926193 
1 1:73.579283 2:107.38646 
1 1:105.4185 2:116.47313 
1 1:48.088738 2:73.405516 
1 1:78.593801 2:40.364572 
1 1:12.31139 2:10.926193 
1 1:73.579283 2:107.38646 
1.401339331130735e-06 1:105.4185 2:116.47313 
1 1:48.088738 2:73.405516 
1 1:78.593801 2:40.364572 
1 1:12.31139 2:10.926193 
1 1:73.579283 2:107.38646 
1 1:48.088738 2:73.405516 
1 1:78.593801 2:40.364572 
1 1:12.31139 2:10.926193 
1 1:73.579283 2:107.38646 
1 1:48.088738 2:73.405516 
1 1:78.593801 2:40.364572 
1 1:12.31139 2:10.926193 
1 1:73.579283 2:107.38646 
1 1:48.088738 2:73.405516 
1 1:78.593801 2:40.364572 
0.3251809130954104 1:12.31139 2:10.926193 
1 1:73.579283 2:107.38646 
1 1:48.088738 2:73.405516 
1 1:78.593801 2:40.364572 
1 1:73.579283 2:107.38646 
1 1:48.088738 2:73.405516 
1 1:78.593801 2:40.364572 
1 1:73.579283 2:107.38646 
1 1:48.088738 2:73.405516 
1 1:78.593801 2:40.364572 
1 1:73.579283 2:107.38646 
1 1:48.088738 2:73.405516 
1 1:78.593801 2:40.364572 
1 1:73.579283 2:107.38646 
1 1:48.088738 2:73.405516 
0.7926356239990593 1:78.593801 2:40.364572 
1 1:73.579283 2:107.38646 
1 1:48.088738 2:73.405516 
1 1:73.579283 2:107.38646 
0.4286288870533745 1:48.088738 2:73.405516 
0.3789827680083242 1:73.579283 2:107.38646 
0.0268594226287231 1:78.593801 2:40.364572 
0.004086200528172768 1:12.31139 2:10.926193 
0.0005139414026231748 1:73.579283 2:107.38646 
0.009404116028773144 1:105.4185 2:116.47313 
1 1:42.234521 2:35.588481 
1 1:59.237209 2:64.3998 
1 1:33.495637 2:60.220595 
1 1:88.700498 2:54.050635 
1 1:42.234521 2:35.588481 
1 1:59.237209 2:64.3998 
1 1:33.495637 2:60.220595 
1 1:88.700498 2:54.050635 
1 1:42.234521 2:35.588481 
1 1:59.237209 2:64.3998 
1 1:33.495637 2:60.220595 
1 1:88.700498 2:54.050635 
1 1:42.234521 2:35.588481 
1 1:59.237209 2:64.3998 
1 1:33.495637 2:60.220595 
1 1:88.700498 2:54.050635 
1 1:42.234521 2:35.588481 
1 1:59.237209 2:64.3998 
1 1:33.495637 2:60.220595 
1 1:88.700498 2:54.050635 
1 1:42.234521 2:35.588481 
1 1:59.237209 2:64.3998 
1 1:33.495637 2:60.220595 
1 1:88.700498 2:54.050635 
1 1:42.234521 2:35.588481 
1 1:59.237209 2:64.3998 
1 1:33.495637 2:60.220595 
1 1:88.700498 2:54.050635 
1 1:42.234521 2:35.588481 
1 1:59.237209 2:64.3998 
1 1:33.495637 2:60.220595 
1 1:88.700498 2:54.050635 
0.09003934261388302 1:42.234521 2:35.588481 
1 1:59.237209 2:64.3998 
1 1:33.495637 2:60.220595 
1 1:88.700498 2:54.050635 
1 1:59.237209 2:64.3998 
1 1:33.495637 2:60.220595 
1 1:88.700498 2:54.050635 
1 1:59.237209 2:64.3998 
1 1:33.495637 2:60.220595 
1 1:88.700498 2:54.050635 
1 1:59.237209 2:64.3998 
1 1:33.495637 2:60.220595 
1 1:88.700498 2:54.050635 
1 1:59.237209 2:64.3998 
1 1:33.495637 2:60.220595 
1 1:88.700498 2:54.050635 
1 1:59.237209 2:64.3998 
1 1:33.495637 2:60.220595 
1 1:88.700498 2:54.050635 
1 1:59.237209 2:64.3998 
1 1:33.495637 2:60.220595 
1 1:88.700498 2:54.050635 
1 1:59.237209 2:64.3998 
1 1:33.495637 2:60.220595 
1 1:88.700498 2:54.050635 
1 1:59.237209 2:64.3998 
1 1:33.495637 2:60.220595 
1 1:88.700498 2:54.050635 
1 1:59.237209 2:64.3998 
1 1:33.495637 2:60.220595 
1 1:88.700498 2:54.050635 
1 1:59.237209 2:64.3998 
1 1:33.495637 2:60.220595 
1 1:88.700498 2:54.050635 
1 1:59.237209 2:64.3998 
1 1:33.495637 2:60.220595 
1 1:88.700498 2:54.050635 
1 1:59.237209 2:64.3998 
1 1:33.495637 2:60.220595 
1 1:88.700498 2:54.050635 
1 1:59.237209 2:64.3998 
1 1:33.495637 2:60.220595 
1 1:88.700498 2:54.050635 
0.7098878581246275 1:59.237209 2:64.3998 
1 1:33.495637 2:60.220595 
1 1:88.700498 2:54.050635 
1 1:33.495637 2:60.220595 
1 1:88.700498 2:54.050635 
0.3641343162956723 1:88.700498 2:54.050635 
0.05107603255331128 1:42.234521 2:35.588481 
0.03803462042389505 1:59.237209 2:64.3998 
0.001102215899356551 1:33.495637 2:60.220595 
1 1:18.648742 2:58.982601 
1 1:58.481745 2:75.648768 
1 1:3.7361905 2:7.1485657 
1 1:41.214782 2:47.544351 
1 1:30.608369 2:40.54664 
1 1:18.648742 2:58.982601 
1 1:58.481745 2:75.648768 
1 1:3.7361905 2:7.1485657 
1 1:41.214782 2:47.544351 
1 1:30.608369 2:40.54664 
1 1:18.648742 2:58.982601 
1 1:58.481745 2:75.648768 
1 1:3.7361905 2:7.1485657 
1 1:41.214782 2:47.544351 
1 1:30.608369 2:40.54664 
1 1:18.648742 2:58.982601 
1 1:58.481745 2:75.648768 
1 1:3.7361905 2:7.1485657 
1 1:41.214782 2:47.544351 
1 1:30.608369 2:40.54664 
1 1:18.648742 2:58.982601 
1 1:58.481745 2:75.648768 
1 1:3.7361905 2:7.1485657 
1 1:41.214782 2:47.544351 
1 1:30.608369 2:40.54664 
1 1:18.648742 2:58.982601 
1 1:58.481745 2:75.648768 
1 1:3.7361905 2:7.1485657 
1 1:41.214782 2:47.544351 
1 1:30.608369 2:40.54664 
1 1:18.648742 2:58.982601 
1 1:58.481745 2:75.648768 
1 1:3.7361905 2:7.1485657 
1 1:41.214782 2:47.544351 
1 1:30.608369 2:40.54664 
1 1:18.648742 2:58.982601 
1 1:58.481745 2:75.648768 
1 1:3.7361905 2:7.1485657 
1 1:41.214782 2:47.544351 
1 1:30.608369 2:40.54664 
1 1:18.648742 2:58.982601 
1 1:58.481745 2:75.648768 
0.7429978504620239 1:3.7361905 2:7.1485657 
1 1:41.214782 2:47.544351 
1 1:30.608369 2:40.54664 
1 1:18.648742 2:58.982601 
1 1:58.481745 2:75.648768 
1 1:41.214782 2:47.544351 
1 1:30.608369 2:40.54664 
1 1:18.648742 2:58.982601 
1 1:58.481745 2:75.648768 
1 1:41.214782 2:47.544351 
1 1:30.608369 2:40.54664 
1 1:18.648742 2:58.982601 
1 1:58.481745 2:75.648768 
1 1:41.214782 2:47.544351 
1 1:30.608369 2:40.54664 
1 1:18.648742 2:58.982601 
1 1:58.481745 2:75.648768 
1 1:41.214782 2:47.544351 
1 1:30.608369 2:40.54664 
0.7596018817998792 1:18.648742 2:58.982601 
1 1:58.481745 2:75.648768 
0.6921979544248964 1:41.214782 2:47.544351 
1 1:30.608369 2:40.54664 
1 1:58.481745 2:75.648768 
0.9978507631573983 1:30.608369 2:40.54664 
1 1:58.481745 2:75.648768 
1 1:58.481745 2:75.648768 
1 1:58.481745 2:75.648768 
0.7165364680628095 1:58.481745 2:75.648768 
0.006264143356655347 1:18.648742 2:58.982601 
0.03512261750695522 1:58.481745 2:75.648768 
0.01026681351467098 1:3.7361905 2:7.1485657 
1 1:30.699232 2:44.573814 
1 1:67.510705 2:67.100166 
1 1:6.9445597 2:6.1468792 
1 1:20.54898 2:55.585744 
1 1:41.357048 2:36.373398 
1 1:30.699232 2:44.573814 
1 1:67.510705 2:67.100166 
1 1:6.9445597 2:6.1468792 
1 1:20.54898 2:55.585744 
1 1:41.357048 2:36.373398 
1 1:30.699232 2:44.573814 
1 1:67.510705 2:67.100166 
1 1:6.9445597 2:6.1468792 
1 1:20.54898 2:55.585744 
1 1:41.357048 2:36.373398 
1 1:30.699232 2:44.573814 
1 1:67.510705 2:67.100166 
0.5161001359442899 1:6.9445597 2:6.1468792 
1 1:20.54898 2:55.585744 
1 1:41.357048 2:36.373398 
1 1:30.699232 2:44.573814 
1 1:67.510705 2:67.100166 
1 1:20.54898 2:55.585744 
1 1:41.357048 2:36.373398 
1 1:30.699232 2:44.573814 
1 1:67.510705 2:67.100166 
1 1:20.54898 2:55.585744 
1 1:41.357048 2:36.373398 
1 1:30.699232 2:44.573814 
1 1:67.510705 2:67.100166 
1 1:20.54898 2:55.585744 
1 1:41.357048 2:36.373398 
1 1:30.699232 2:44.573814 
1 1:67.510705 2:67.100166 
1 1:20.54898 2:55.585744 
1 1:41.357048 2:36.373398 
1 1:30.699232 2:44.573814 
1 1:67.510705 2:67.100166 
1 1:20.54898 2:55.585744 
1 1:41.357048 2:36.373398 
1 1:30.699232 2:44.573814 
1 1:67.510705 2:67.100166 
1 1:20.54898 2:55.585744 
1 1:41.357048 2:36.373398 
1 1:30.699232 2:44.573814 
1 1:67.510705 2:67.100166 
1 1:20.54898 2:55.585744 
1 1:41.357048 2:36.373398 
1 1:30.699232 2:44.573814 
1 1:67.510705 2:67.100166 
1 1:20.54898 2:55.585744 
1 1:41.357048 2:36.373398 
1 1:30.699232 2:44.573814 
1 1:67.510705 2:67.100166 
1 1:20.54898 2:55.585744 
1 1:41.357048 2:36.373398 
1 1:30.699232 2:44.573814 
0.7031241879004176 1:67.510705 2:67.100166 
1 1:20.54898 2:55.585744 
1 1:41.357048 2:36.373398 
1 1:30.699232 2:44.573814 
1 1:20.54898 2:55.585744 
1 1:41.357048 2:36.373398 
0.4918718400430517 1:30.699232 2:44.573814 
1 1:20.54898 2:55.585744 
1 1:41.357048 2:36.373398 
1 1:20.54898 2:55.585744 
1 1:41.357048 2:36.373398 
1 1:20.54898 2:55.585744 
1 1:41.357048 2:36.373398 
1 1:20.54898 2:55.585744 
1 1:41.357048 2:36.373398 
1 1:20.54898 2:55.585744 
0.08188552124451398 1:41.357048 2:36.373398 
1 1:20.54898 2:55.585744 
1 1:20.54898 2:55.585744 
1 1:20.54898 2:55.585744 
0.9507927800312341 1:20.54898 2:55.585744 
0.002970316365534131 1:30.699232 2:44.573814 
0.03311478880961814 1:67.510705 2:67.100166 
0.005307605662673865 1:41.357048 2:36.373398 
1 1:49.856719 2:48.274372 
1 1:59.802261 2:50.923827 
1 1:10.42184 2:5.3010796 
1 1:32.553907 2:56.035743 
1 1:85.270137 2:33.52495 
1 1:49.856719 2:48.274372 
1 1:59.802261 2:50.923827 
0.7090921818017069 1:10.42184 2:5.3010796 
1 1:32.553907 2:56.035743 
1 1:85.270137 2:33.52495 
1 1:49.856719 2:48.274372 
1 1:59.802261 2:50.923827 
1 1:32.553907 2:56.035743 
1 1:85.270137 2:33.52495 
1 1:49.856719 2:48.274372 
1 1:59.802261 2:50.923827 
1 1:32.553907 2:56.035743 
1 1:85.270137 2:33.52495 
1 1:49.856719 2:48.274372 
1 1:59.802261 2:50.923827 
1 1:32.553907 2:56.035743 
1 1:85.270137 2:33.52495 
1 1:49.856719 2:48.274372 
1 1:59.802261 2:50.923827 
1 1:32.553907 2:56.035743 
1 1:85.270137 2:33.52495 
1 1:49.856719 2:48.274372 
1 1:59.802261 2:50.923827 
1 1:32.553907 2:56.035743 
1 1:85.270137 2:33.52495 
1 1:49.856719 2:48.274372 
1 1:59.802261 2:50.923827 
1 1:32.553907 2:56.035743 
1 1:85.270137 2:33.52495 
1 1:49.856719 2:48.274372 
1 1:59.802261 2:50.923827 
1 1:32.553907 2:56.035743 
1 1:85.270137 2:33.52495 
1 1:49.856719 2:48.274372 
1 1:59.802261 2:50.923827 
1 1:32.553907 2:56.035743 
1 1:85.270137 2:33.52495 
1 1:49.856719 2:48.274372 
1 1:59.802261 2:50.923827 
1 1:32.553907 2:56.035743 
1 1:85.270137 2:33.52495 
1 1:49.856719 2:48.274372 
1 1:59.802261 2:50.923827 
1 1:32.553907 2:56.035743 
1 1:85.270137 2:33.52495 
1 1:49.856719 2:48.274372 
1 1:59.802261 2:50.923827 
1 1:32.553907 2:56.035743 
1 1:85.270137 2:33.52495 
1 1:49.856719 2:48.274372 
1 1:59.802261 2:50.923827 
1 1:32.553907 2:56.035743 
1 1:85.270137 2:33.52495 
0.8396984798753682 1:49.856719 2:48.274372 
1 1:59.802261 2:50.923827 
1 1:32.553907 2:56.035743 
1 1:85.270137 2:33.52495 
0.3943349015941671 1:59.802261 2:50.923827 
1 1:32.553907 2:56.035743 
1 1:85.270137 2:33.52495 
1 1:32.553907 2:56.035743 
1 1:85.270137 2:33.52495 
0.630426963278228 1:32.553907 2:56.035743 
1 1:85.270137 2:33.52495 
1 1:85.270137 2:33.52495 
1 1:85.270137 2:33.52495 
1 1:85.270137 2:33.52495 
1 1:85.270137 2:33.52495 
1 1:85.270137 2:33.52495 
0.1447599690488719 1:85.270137 2:33.52495 
0.03386328556269191 1:85.270137 2:33.52495 
0.05528135685267611 1:59.802261 2:50.923827 
0.2695717280271117 1:10.42184 2:5.3010796 
0.05146215486348105 1:32.553907 2:56.035743 
1 1:61.857144 2:20.025849 
1 1:70.992469 2:52.502039 
1 1:104.80506 2:57.732607 
1 1:9.3368523 2:4.6357342 
1 1:23.05272 2:46.865037 
1 1:61.857144 2:20.025849 
1 1:70.992469 2:52.502039 
1 1:104.80506 2:57.732607 
1 1:9.3368523 2:4.6357342 
1 1:23.05272 2:46.865037 
1 1:61.857144 2:20.025849 
1 1:70.992469 2:52.502039 
1 1:104.80506 2:57.732607 
1 1:9.3368523 2:4.6357342 
1 1:23.05272 2:46.865037 
1 1:61.857144 2:20.025849 
1 1:70.992469 2:52.502039 
1 1:104.80506 2:57.732607 
1 1:9.3368523 2:4.6357342 
1 1:23.05272 2:46.865037 
1 1:61.857144 2:20.025849 
1 1:70.992469 2:52.502039 
1 1:104.80506 2:57.732607 
1 1:9.3368523 2:4.6357342 
1 1:23.05272 2:46.865037 
1 1:61.857144 2:20.025849 
1 1:70.992469 2:52.502039 
1 1:104.80506 2:57.732607 
1 1:9.3368523 2:4.6357342 
1 1:23.05272 2:46.865037 
1 1:61.857144 2:20.025849 
1 1:70.992469 2:52.502039 
1 1:104.80506 2:57.732607 
1 1:9.3368523 2:4.6357342 
1 1:23.05272 2:46.865037 
1 1:61.857144 2:20.025849 
1 1:70.992469 2:52.502039 
1 1:104.80506 2:57.732607 
1 1:9.3368523 2:4.6357342 
1 1:23.05272 2:46.865037 
1 1:61.857144 2:20.025849 
1 1:70.992469 2:52.502039 
1 1:104.80506 2:57.732607 
1 1:9.3368523 2:4.6357342 
1 1:23.05272 2:46.865037 
1 1:61.857144 2:20.025849 
1 1:70.992469 2:52.502039 
1 1:104.80506 2:57.732607 
1 1:23.05272 2:46.865037 
1 1:61.857144 2:20.025849 
1 1:70.992469 2:52.502039 
1 1:104.80506 2:57.732607 
1 1:23.05272 2:46.865037 
1 1:61.857144 2:20.025849 
1 1:70.992469 2:52.502039 
1 1:104.80506 2:57.732607 
1 1:23.05272 2:46.865037 
1 1:61.857144 2:20.025849 
1 1:70.992469 2:52.502039 
1 1:104.80506 2:57.732607 
1 1:23.05272 2:46.865037 
1 1:61.857144 2:20.025849 
1 1:70.992469 2:52.502039 
1 1:104.80506 2:57.732607 
1 1:23.05272 2:46.865037 
1 1:61.857144 2:20.025849 
1 1:70.992469 2:52.502039 
1 1:104.80506 2:57.732607 
1 1:23.05272 2:46.865037 
1 1:61.857144 2:20.025849 
1 1:70.992469 2:52.502039 
1 1:104.80506 2:57.732607 
1 1:23.05272 2:46.865037 
1 1:61.857144 2:20.025849 
1 1:70.992469 2:52.502039 
1 1:104.80506 2:57.732607 
1 1:23.05272 2:46.865037 
1 1:61.857144 2:20.025849 
1 1:70.992469 2:52.502039 
1 1:104.80506 2:57.732607 
1 1:23.05272 2:46.865037 
1 1:61.857144 2:20.025849 
1 1:70.992469 2:52.502039 
1 1:104.80506 2:57.732607 
1 1:23.05272 2:46.865037 
1 1:61.857144 2:20.025849 
1 1:70.992469 2:52.502039 
1 1:104.80506 2:57.732607 
1 1:23.05272 2:46.865037 
1 1:61.857144 2:20.025849 
1 1:70.992469 2:52.502039 
1 1:104.80506 2:57.732607 
1 1:23.05272 2:46.865037 
1 1:61.857144 2:20.025849 
1 1:70.992469 2:52.502039 
1 1:104.80506 2:57.732607 
0.1836537376034446 1:23.05272 2:46.865037 
1 1:61.857144 2:20.025849 
1 1:70.992469 2:52.502039 
1 1:104.80506 2:57.732607 
1 1:61.857144 2:20.025849 
1 1:70.992469 2:52.502039 
1 1:104.80506 2:57.732607 
0.4364037604824684 1:61.857144 2:20.025849 
0.412984947695513 1:70.992469 2:52.502039 
0.2761205466050676 1:104.80506 2:57.732607 
0.110784123175513 1:9.3368523 2:4.6357342 
0.02620707874435624 1:23.05272 2:46.865037 
0.001094595498834394 1:61.857144 2:20.025849 
1 1:63.505622 2:47.191012 
1 1:152.69512 2:56.926298 
1 1:14.921326 2:5.7883314 
1 1:20.170976 2:52.420895 
1 1:102.40944 2:32.246778 
1 1:63.505622 2:47.191012 
1 1:152.69512 2:56.926298 
1 1:14.921326 2:5.7883314 
1 1:20.170976 2:52.420895 
1 1:102.40944 2:32.246778 
1 1:63.505622 2:47.191012 
1 1:152.69512 2:56.926298 
1 1:14.921326 2:5.7883314 
1 1:20.170976 2:52.420895 
1 1:102.40944 2:32.246778 
1 1:63.505622 2:47.191012 
1 1:152.69512 2:56.926298 
1 1:14.921326 2:5.7883314 
1 1:20.170976 2:52.420895 
1 1:102.40944 2:32.246778 
1 1:63.505622 2:47.191012 
1 1:152.69512 2:56.926298 
1 1:14.921326 2:5.7883314 
1 1:20.170976 2:52.420895 
1 1:102.40944 2:32.246778 
1 1:63.505622 2:47.191012 
1 1:152.69512 2:56.926298 
1 1:14.921326 2:5.7883314 
1 1:20.170976 2:52.420895 
1 1:102.40944 2:32.246778 
1 1:63.505622 2:47.191012 
1 1:152.69512 2:56.926298 
1 1:14.921326 2:5.7883314 
1 1:20.170976 2:52.420895 
1 1:102.40944 2:32.246778 
1 1:63.505622 2:47.191012 
1 1:152.69512 2:56.926298 
1 1:14.921326 2:5.7883314 
1 1:20.170976 2:52.420895 
1 1:102.40944 2:32.246778 
1 1:63.505622 2:47.191012 
1 1:152.69512 2:56.926298 
1 1:14.921326 2:5.7883314 
1 1:20.170976 2:52.420895 
1 1:102.40944 2:32.246778 
1 1:63.505622 2:47.191012 
1 1:152.69512 2:56.926298 
1 1:14.921326 2:5.7883314 
1 1:20.170976 2:52.420895 
1 1:102.40944 2:32.246778 
1 1:63.505622 2:47.191012 
1 1:152.69512 2:56.926298 
1 1:14.921326 2:5.7883314 
1 1:20.170976 2:52.420895 
1 1:102.40944 2:32.246778 
1 1:63.505622 2:47.191012 
1 1:152.69512 2:56.926298 
1 1:14.921326 2:5.7883314 
1 1:20.170976 2:52.420895 
1 1:102.40944 2:32.246778 
1 1:63.505622 2:47.191012 
1 1:152.69512 2:56.926298 
1 1:14.921326 2:5.7883314 
1 1:20.170976 2:52.420895 
1 1:102.40944 2:32.246778 
1 1:63.505622 2:47.191012 
1 1:152.69512 2:56.926298 
1 1:14.921326 2:5.7883314 
1 1:20.170976 2:52.420895 
1 1:102.40944 2:32.246778 
1 1:63.505622 2:47.191012 
1 1:152.69512 2:56.926298 
1 1:14.921326 2:5.7883314 
1 1:20.170976 2:52.420895 
1 1:102.40944 2:32.246778 
1 1:63.505622 2:47.191012 
1 1:152.69512 2:56.926298 
1 1:14.921326 2:5.7883314 
1 1:20.170976 2:52.420895 
1 1:102.40944 2:32.246778 
1 1:63.505622 2:47.191012 
1 1:152.69512 2:56.926298 
0.8774525054660405 1:14.921326 2:5.7883314 
1 1:20.170976 2:52.420895 
1 1:102.40944 2:32.246778 
1 1:63.505622 2:47.191012 
1 1:152.69512 2:56.926298 
1 1:20.170976 2:52.420895 
1 1:102.40944 2:32.246778 
1 1:63.505622 2:47.191012 
1 1:152.69512 2:56.926298 
1 1:20.170976 2:52.420895 
1 1:102.40944 2:32.246778 
1 1:63.505622 2:47.191012 
1 1:152.69512 2:56.926298 
1 1:20.170976 2:52.420895 
1 1:102.40944 2:32.246778 
1 1:63.505622 2:47.191012 
1 1:152.69512 2:56.926298 
1 1:20.170976 2:52.420895 
1 1:102.40944 2:32.246778 
1 1:63.505622 2:47.191012 
1 1:152.69512 2:56.926298 
0.9546757443170026 1:20.170976 2:52.420895 
1 1:102.40944 2:32.246778 
1 1:63.505622 2:47.191012 
1 1:152.69512 2:56.926298 
1 1:102.40944 2:32.246778 
1 1:63.505622 2:47.191012 
1 1:152.69512 2:56.926298 
1 1:102.40944 2:32.246778 
0.351049718008003 1:63.505622 2:47.191012 
0.436719333695736 1:152.69512 2:56.926298 
0.4355640134165064 1:102.40944 2:32.246778 
0.002219309197199593 1:63.505622 2:47.191012 
0.000827512211632353 1:152.69512 2:56.926298 
0.0005648174387982152 1:20.170976 2:52.420895 
0.002012531061437173 1:102.40944 2:32.246778 
1 1:37.710901 2:50.535704 
1 1:108.90013 2:66.638684 
1 1:34.354614 2:52.802686 
1 1:68.490339 2:58.269804 
1 1:37.710901 2:50.535704 
1 1:108.90013 2:66.638684 
1 1:34.354614 2:52.802686 
1 1:68.490339 2:58.269804 
1 1:37.710901 2:50.535704 
1 1:108.90013 2:66.638684 
1 1:34.354614 2:52.802686 
1 1:68.490339 2:58.269804 
1 1:37.710901 2:50.535704 
1 1:108.90013 2:66.638684 
1 1:34.354614 2:52.802686 
1 1:68.490339 2:58.269804 
1 1:37.710901 2:50.535704 
1 1:108.90013 2:66.638684 
1 1:34.354614 2:52.802686 
1 1:68.490339 2:58.269804 
1 1:37.710901 2:50.535704 
1 1:108.90013 2:66.638684 
1 1:34.354614 2:52.802686 
1 1:68.490339 2:58.269804 
1 1:37.710901 2:50.535704 
1 1:108.90013 2:66.638684 
1 1:34.354614 2:52.802686 
1 1:68.490339 2:58.269804 
1 1:37.710901 2:50.535704 
1 1:108.90013 2:66.638684 
1 1:34.354614 2:52.802686 
1 1:68.490339 2:58.269804 
1 1:37.710901 2:50.535704 
1 1:108.90013 2:66.638684 
1 1:34.354614 2:52.802686 
1 1:68.490339 2:58.269804 
1 1:37.710901 2:50.535704 
1 1:108.90013 2:66.638684 
1 1:34.354614 2:52.802686 
1 1:68.490339 2:58.269804 
1 1:37.710901 2:50.535704 
1 1:108.90013 2:66.638684 
1 1:34.354614 2:52.802686 
1 1:68.490339 2:58.269804 
1 1:37.710901 2:50.535704 
1 1:108.90013 2:66.638684 
1 1:34.354614 2:52.802686 
1 1:68.490339 2:58.269804 
1 1:37.710901 2:50.535704 
1 1:108.90013 2:66.638684 
1 1:34.354614 2:52.802686 
1 1:68.490339 2:58.269804 
1 1:37.710901 2:50.535704 
1 1:108.90013 2:66.638684 
1 1:34.354614 2:52.802686 
1 1:68.490339 2:58.269804 
1 1:37.710901 2:50.535704 
1 1:108.90013 2:66.638684 
1 1:34.354614 2:52.802686 
1 1:68.490339 2:58.269804 
1 1:37.710901 2:50.535704 
1 1:108.90013 2:66.638684 
0.6965906763161094 1:34.354614 2:52.802686 
1 1:68.490339 2:58.269804 
1 1:37.710901 2:50.535704 
1 1:108.90013 2:66.638684 
1 1:68.490339 2:58.269804 
1 1:37.710901 2:50.535704 
1 1:108.90013 2:66.638684 
1 1:68.490339 2:58.269804 
1 1:37.710901 2:50.535704 
1 1:108.90013 2:66.638684 
1 1:68.490339 2:58.269804 
0.9126716192801183 1:37.710901 2:50.535704 
1 1:108.90013 2:66.638684 
0.7891688183903316 1:68.490339 2:58.269804 
1 1:108.90013 2:66.638684 
1 1:108.90013 2:66.638684 
0.3340012808631716 1:108.90013 2:66.638684 
0.002357522461794659 1:108.90013 2:66.638684 
0.05056349400855531 1:68.490339 2:58.269804 
1 1:57.236797 2:41.111227 
1 1:55.175983 2:81.963502 
1 1:4.6677853 2:13.412126 
1 1:64.016668 2:63.082857 
1 1:44.198689 2:62.586236 
1 1:57.236797 2:41.111227 
1 1:55.175983 2:81.963502 
1 1:4.6677853 2:13.412126 
1 1:64.016668 2:63.082857 
1 1:44.198689 2:62.586236 
1 1:57.236797 2:41.111227 
1 1:55.175983 2:81.963502 
1 1:4.6677853 2:13.412126 
1 1:64.016668 2:63.082857 
1 1:44.198689 2:62.586236 
1 1:57.236797 2:41.111227 
1 1:55.175983 2:81.963502 
1 1:4.6677853 2:13.412126 
1 1:64.016668 2:63.082857 
1 1:44.198689 2:62.586236 
1 1:57.236797 2:41.111227 
1 1:55.175983 2:81.963502 
1 1:4.6677853 2:13.412126 
1 1:64.016668 2:63.082857 
1 1:44.198689 2:62.586236 
1 1:57.236797 2:41.111227 
1 1:55.175983 2:81.963502 
1 1:4.6677853 2:13.412126 
1 1:64.016668 2:63.082857 
1 1:44.198689 2:62.586236 
1 1:57.236797 2:41.111227 
1 1:55.175983 2:81.963502 
1 1:4.6677853 2:13.412126 
1 1:64.016668 2:63.082857 
1 1:44.198689 2:62.586236 
1 1:57.236797 2:41.111227 
1 1:55.175983 2:81.963502 
1 1:4.6677853 2:13.412126 
1 1:64.016668 2:63.082857 
1 1:44.198689 2:62.586236 
1 1:57.236797 2:41.111227 
1 1:55.175983 2:81.963502 
1 1:4.6677853 2:13.412126 
1 1:64.016668 2:63.082857 
1 1:44.198689 2:62.586236 
1 1:57.236797 2:41.111227 
1 1:55.175983 2:81.963502 
1 1:4.6677853 2:13.412126 
1 1:64.016668 2:63.082857 
1 1:44.198689 2:62.586236 
1 1:57.236797 2:41.111227 
1 1:55.175983 2:81.963502 
1 1:4.6677853 2:13.412126 
1 1:64.016668 2:63.082857 
1 1:44.198689 2:62.586236 
1 1:57.236797 2:41.111227 
1 1:55.175983 2:81.963502 
1 1:4.6677853 2:13.412126 
1 1:64.016668 2:63.082857 
1 1:44.198689 2:62.586236 
1 1:57.236797 2:41.111227 
1 1:55.175983 2:81.963502 
1 1:4.6677853 2:13.412126 
1 1:64.016668 2:63.082857 
1 1:44.198689 2:62.586236 
1 1:57.236797 2:41.111227 
1 1:55.175983 2:81.963502 
1 1:4.6677853 2:13.412126 
1 1:64.016668 2:63.082857 
1 1:44.198689 2:62.586236 
1 1:57.236797 2:41.111227 
1 1:55.175983 2:81.963502 
1 1:4.6677853 2:13.412126 
1 1:64.016668 2:63.082857 
1 1:44.198689 2:62.586236 
1 1:57.236797 2:41.111227 
1 1:55.175983 2:81.963502 
1 1:4.6677853 2:13.412126 
1 1:64.016668 2:63.082857 
1 1:44.198689 2:62.586236 
1 1:57.236797 2:41.111227 
1 1:55.175983 2:81.963502 
1 1:4.6677853 2:13.412126 
1 1:64.016668 2:63.082857 
1 1:44.198689 2:62.586236 
0.9971737216037475 1:57.236797 2:41.111227 
1 1:55.175983 2:81.963502 
0.1311451926987299 1:4.6677853 2:13.412126 
1 1:64.016668 2:63.082857 
1 1:44.198689 2:62.586236 
0.1334979855280949 1:55.175983 2:81.963502 
1 1:64.016668 2:63.082857 
1 1:44.198689 2:62.586236 
1 1:64.016668 2:63.082857 
1 1:44.198689 2:62.586236 
1 1:64.016668 2:63.082857 
1 1:44.198689 2:62.586236 
1 1:64.016668 2:63.082857 
1 1:44.198689 2:62.586236 
1 1:64.016668 2:63.082857 
1 1:44.198689 2:62.586236 
1 1:64.016668 2:63.082857 
1 1:44.198689 2:62.586236 
0.4123158027072744 1:64.016668 2:63.082857 
0.4370010389680701 1:44.198689 2:62.586236 
0.03050521903488601 1:55.175983 2:81.963502 
0.001277196864705843 1:4.6677853 2:13.412126 
1 1:71.503525 2:46.939475 
1 1:37.676543 2:71.764582 
1 1:2.6258003 2:12.606812 
1 1:94.957847 2:66.601138 
1 1:61.025631 2:79.299581 
1 1:71.503525 2:46.939475 
1 1:37.676543 2:71.764582 
1 1:2.6258003 2:12.606812 
1 1:94.957847 2:66.601138 
1 1:61.025631 2:79.299581 
1 1:71.503525 2:46.939475 
1 1:37.676543 2:71.764582 
1 1:2.6258003 2:12.606812 
1 1:94.957847 2:66.601138 
1 1:61.025631 2:79.299581 
1 1:71.503525 2:46.939475 
1 1:37.676543 2:71.764582 
1 1:2.6258003 2:12.606812 
1 1:94.957847 2:66.601138 
1 1:61.025631 2:79.299581 
1 1:71.503525 2:46.939475 
1 1:37.676543 2:71.764582 
1 1:2.6258003 2:12.606812 
1 1:94.957847 2:66.601138 
1 1:61.025631 2:79.299581 
1 1:71.503525 2:46.939475 
1 1:37.676543 2:71.764582 
1 1:2.6258003 2:12.606812 
1 1:94.957847 2:66.601138 
1 1:61.025631 2:79.299581 
1 1:71.503525 2:46.939475 
1 1:37.676543 2:71.764582 
1 1:2.6258003 2:12.606812 
1 1:94.957847 2:66.601138 
1 1:61.025631 2:79.299581 
1 1:71.503525 2:46.939475 
1 1:37.676543 2:71.764582 
1 1:2.6258003 2:12.606812 
1 1:94.957847 2:66.601138 
1 1:61.025631 2:79.299581 
1 1:71.503525 2:46.939475 
1 1:37.676543 2:71.764582 
1 1:2.6258003 2:12.606812 
1 1:94.957847 2:66.601138 
1 1:61.025631 2:79.299581 
1 1:71.503525 2:46.939475 
1 1:37.676543 2:71.764582 
1 1:2.6258003 2:12.606812 
1 1:94.957847 2:66.601138 
1 1:61.025631 2:79.299581 
1 1:71.503525 2:46.939475 
1 1:37.676543 2:71.764582 
1 1:2.6258003 2:12.606812 
1 1:94.957847 2:66.601138 
1 1:61.025631 2:79.299581 
1 1:71.503525 2:46.939475 
1 1:37.676543 2:71.764582 
1 1:2.6258003 2:12.606812 
1 1:94.957847 2:66.601138 
1 1:61.025631 2:79.299581 
1 1:71.503525 2:46.939475 
1 1:37.676543 2:71.764582 
1 1:2.6258003 2:12.606812 
1 1:94.957847 2:66.601138 
1 1:61.025631 2:79.299581 
1 1:71.503525 2:46.939475 
1 1:37.676543 2:71.764582 
1 1:2.6258003 2:12.606812 
0.02455049075785354 1:94.957847 2:66.601138 
1 1:61.025631 2:79.299581 
1 1:71.503525 2:46.939475 
1 1:37.676543 2:71.764582 
1 1:2.6258003 2:12.606812 
1 1:61.025631 2:79.299581 
1 1:71.503525 2:46.939475 
1 1:37.676543 2:71.764582 
1 1:2.6258003 2:12.606812 
1 1:61.025631 2:79.299581 
1 1:71.503525 2:46.939475 
1 1:37.676543 2:71.764582 
1 1:2.6258003 2:12.606812 
1 1:61.025631 2:79.299581 
1 1:71.503525 2:46.939475 
1 1:37.676543 2:71.764582 
1 1:2.6258003 2:12.606812 
1 1:61.025631 2:79.299581 
1 1:71.503525 2:46.939475 
1 1:37.676543 2:71.764582 
1 1:2.6258003 2:12.606812 
1 1:61.025631 2:79.299581 
1 1:71.503525 2:46.939475 
1 1:37.676543 2:71.764582 
1 1:2.6258003 2:12.606812 
1 1:61.025631 2:79.299581 
0.5530020614686109 1:71.503525 2:46.939475 
1 1:37.676543 2:71.764582 
0.528494816078716 1:2.6258003 2:12.606812 
1 1:61.025631 2:79.299581 
1 1:37.676543 2:71.764582 
1 1:61.025631 2:79.299581 
1 1:37.676543 2:71.764582 
1 1:61.025631 2:79.299581 
1 1:37.676543 2:71.764582 
1 1:61.025631 2:79.299581 
0.4052222459942847 1:37.676543 2:71.764582 
0.435189453993182 1:61.025631 2:79.299581 
0.005555367452750204 1:2.6258003 2:12.606812 
0.07944059459341639 1:94.957847 2:66.601138 
0.0006501470737596549 1:61.025631 2:79.299581 
1 1:52.853311 2:57.137987 
1 1:25.751226 2:46.235108 
1 1:46.732204 2:48.837908 
1 1:60.014052 2:42.536022 
1 1:52.853311 2:57.137987 
1 1:25.751226 2:46.235108 
1 1:46.732204 2:48.837908 
1 1:60.014052 2:42.536022 
1 1:52.853311 2:57.137987 
1 1:25.751226 2:46.235108 
1 1:46.732204 2:48.837908 
1 1:60.014052 2:42.536022 
1 1:52.853311 2:57.137987 
1 1:25.751226 2:46.235108 
1 1:46.732204 2:48.837908 
1 1:60.014052 2:42.536022 
1 1:52.853311 2:57.137987 
1 1:25.751226 2:46.235108 
1 1:46.732204 2:48.837908 
0.8174319490216672 1:60.014052 2:42.536022 
1 1:52.853311 2:57.137987 
1 1:25.751226 2:46.235108 
1 1:46.732204 2:48.837908 
1 1:52.853311 2:57.137987 
1 1:25.751226 2:46.235108 
1 1:46.732204 2:48.837908 
1 1:52.853311 2:57.137987 
1 1:25.751226 2:46.235108 
1 1:46.732204 2:48.837908 
1 1:52.853311 2:57.137987 
1 1:25.751226 2:46.235108 
1 1:46.732204 2:48.837908 
1 1:52.853311 2:57.137987 
1 1:25.751226 2:46.235108 
1 1:46.732204 2:48.837908 
1 1:52.853311 2:57.137987 
1 1:25.751226 2:46.235108 
1 1:46.732204 2:48.837908 
0.2311208812321777 1:52.853311 2:57.137987 
1 1:25.751226 2:46.235108 
1 1:46.732204 2:48.837908 
1 1:25.751226 2:46.235108 
1 1:46.732204 2:48.837908 
1 1:25.751226 2:46.235108 
1 1:46.732204 2:48.837908 
1 1:25.751226 2:46.235108 
1 1:46.732204 2:48.837908 
1 1:25.751226 2:46.235108 
1 1:46.732204 2:48.837908 
1 1:25.751226 2:46.235108 
1 1:46.732204 2:48.837908 
1 1:25.751226 2:46.235108 
0.9117646583601478 1:46.732204 2:48.837908 
1 1:25.751226 2:46.235108 
1 1:25.751226 2:46.235108 
1 1:25.751226 2:46.235108 
1 1:25.751226 2:46.235108 
1 1:25.751226 2:46.235108 
0.5865344157092469 1:25.751226 2:46.235108 
0.002725474316013887 1:52.853311 2:57.137987 
0.006354238276507829 1:25.751226 2:46.235108 
0.000917905849213696 1:46.732204 2:48.837908 
1 1:126.2083 2:64.110924 
1 1:119.98858 2:49.283294 
1 1:32.52889 2:79.564269 
1 1:31.639404 2:49.27381 
1 1:126.2083 2:64.110924 
1 1:119.98858 2:49.283294 
1 1:32.52889 2:79.564269 
1 1:31.639404 2:49.27381 
1 1:126.2083 2:64.110924 
1 1:119.98858 2:49.283294 
1 1:32.52889 2:79.564269 
1 1:31.639404 2:49.27381 
1 1:126.2083 2:64.110924 
1 1:119.98858 2:49.283294 
1 1:32.52889 2:79.564269 
1 1:31.639404 2:49.27381 
1 1:126.2083 2:64.110924 
1 1:119.98858 2:49.283294 
1 1:32.52889 2:79.564269 
1 1:31.639404 2:49.27381 
1 1:126.2083 2:64.110924 
1 1:119.98858 2:49.283294 
1 1:32.52889 2:79.564269 
1 1:31.639404 2:49.27381 
1 1:126.2083 2:64.110924 
1 1:119.98858 2:49.283294 
1 1:32.52889 2:79.564269 
1 1:31.639404 2:49.27381 
1 1:126.2083 2:64.110924 
1 1:119.98858 2:49.283294 
1 1:32.52889 2:79.564269 
1 1:31.639404 2:49.27381 
1 1:126.2083 2:64.110924 
1 1:119.98858 2:49.283294 
1 1:32.52889 2:79.564269 
1 1:31.639404 2:49.27381 
1 1:126.2083 2:64.110924 
1 1:119.98858 2:49.283294 
1 1:32.52889 2:79.564269 
1 1:31.639404 2:49.27381 
1 1:126.2083 2:64.110924 
1 1:119.98858 2:49.283294 
1 1:32.52889 2:79.564269 
1 1:31.639404 2:49.27381 
1 1:126.2083 2:64.110924 
1 1:119.98858 2:49.283294 
1 1:32.52889 2:79.564269 
1 1:31.639404 2:49.27381 
1 1:126.2083 2:64.110924 
1 1:119.98858 2:49.283294 
1 1:32.52889 2:79.564269 
1 1:31.639404 2:49.27381 
1 1:126.2083 2:64.110924 
1 1:119.98858 2:49.283294 
1 1:32.52889 2:79.564269 
1 1:31.639404 2:49.27381 
1 1:126.2083 2:64.110924 
1 1:119.98858 2:49.283294 
1 1:32.52889 2:79.564269 
1 1:31.639404 2:49.27381 
1 1:126.2083 2:64.110924 
1 1:119.98858 2:49.283294 
1 1:32.52889 2:79.564269 
1 1:31.639404 2:49.27381 
1 1:126.2083 2:64.110924 
1 1:119.98858 2:49.283294 
1 1:32.52889 2:79.564269 
1 1:31.639404 2:49.27381 
1 1:126.2083 2:64.110924 
1 1:119.98858 2:49.283294 
1 1:32.52889 2:79.564269 
1 1:31.639404 2:49.27381 
1 1:126.2083 2:64.110924 
1 1:119.98858 2:49.283294 
1 1:32.52889 2:79.564269 
1 1:31.639404 2:49.27381 
1 1:126.2083 2:64.110924 
1 1:119.98858 2:49.283294 
1 1:32.52889 2:79.564269 
1 1:31.639404 2:49.27381 
1 1:126.2083 2:64.110924 
1 1:119.98858 2:49.283294 
1 1:32.52889 2:79.564269 
1 1:31.639404 2:49.27381 
1 1:126.2083 2:64.110924 
1 1:119.98858 2:49.283294 
1 1:32.52889 2:79.564269 
1 1:31.639404 2:49.27381 
0.5588029343725402 1:126.2083 2:64.110924 
1 1:119.98858 2:49.283294 
1 1:32.52889 2:79.564269 
1 1:31.639404 2:49.27381 
1 1:119.98858 2:49.283294 
1 1:32.52889 2:79.564269 
1 1:31.639404 2:49.27381 
0.4352377399945553 1:119.98858 2:49.283294 
0.4372632214607073 1:32.52889 2:79.564269 
0.3001315766947847 1:31.639404 2:49.27381 
0.02547308359421763 1:126.2083 2:64.110924 
0.002386969114722248 1:119.98858 2:49.283294 
0.009285279890637099 1:31.639404 2:49.27381 
1 1:68.285156 2:56.518023 
1 1:75.787494 2:59.991784 
1 1:5.3523907 2:7.0778306 
1 1:58.539418 2:67.984546 
1 1:50.855663 2:40.935311 
1 1:68.285156 2:56.518023 
1 1:75.787494 2:59.991784 
1 1:5.3523907 2:7.0778306 
1 1:58.539418 2:67.984546 
1 1:50.855663 2:40.935311 
1 1:68.285156 2:56.518023 
1 1:75.787494 2:59.991784 
1 1:5.3523907 2:7.0778306 
1 1:58.539418 2:67.984546 
1 1:50.855663 2:40.935311 
1 1:68.285156 2:56.518023 
1 1:75.787494 2:59.991784 
1 1:5.3523907 2:7.0778306 
1 1:58.539418 2:67.984546 
1 1:50.855663 2:40.935311 
1 1:68.285156 2:56.518023 
1 1:75.787494 2:59.991784 
0.1413993841491692 1:5.3523907 2:7.0778306 
1 1:58.539418 2:67.984546 
1 1:50.855663 2:40.935311 
1 1:68.285156 2:56.518023 
1 1:75.787494 2:59.991784 
1 1:58.539418 2:67.984546 
1 1:50.855663 2:40.935311 
1 1:68.285156 2:56.518023 
1 1:75.787494 2:59.991784 
1 1:58.539418 2:67.984546 
1 1:50.855663 2:40.935311 
1 1:68.285156 2:56.518023 
1 1:75.787494 2:59.991784 
1 1:58.539418 2:67.984546 
1 1:50.855663 2:40.935311 
1 1:68.285156 2:56.518023 
1 1:75.787494 2:59.991784 
1 1:58.539418 2:67.984546 
1 1:50.855663 2:40.935311 
1 1:68.285156 2:56.518023 
1 1:75.787494 2:59.991784 
1 1:58.539418 2:67.984546 
1 1:50.855663 2:40.935311 
1 1:68.285156 2:56.518023 
1 1:75.787494 2:59.991784 
1 1:58.539418 2:67.984546 
1 1:50.855663 2:40.935311 
1 1:68.285156 2:56.518023 
1 1:75.787494 2:59.991784 
1 1:58.539418 2:67.984546 
1 1:50.855663 2:40.935311 
1 1:68.285156 2:56.518023 
1 1:75.787494 2:59.991784 
1 1:58.539418 2:67.984546 
1 1:50.855663 2:40.935311 
1 1:68.285156 2:56.518023 
1 1:75.787494 2:59.991784 
1 1:58.539418 2:67.984546 
1 1:50.855663 2:40.935311 
1 1:68.285156 2:56.518023 
1 1:75.787494 2:59.991784 
1 1:58.539418 2:67.984546 
1 1:50.855663 2:40.935311 
0.09463330063515023 1:68.285156 2:56.518023 
1 1:75.787494 2:59.991784 
1 1:58.539418 2:67.984546 
1 1:50.855663 2:40.935311 
1 1:75.787494 2:59.991784 
1 1:58.539418 2:67.984546 
1 1:50.855663 2:40.935311 
0.5118923254198151 1:75.787494 2:59.991784 
0.9175776724560452 1:58.539418 2:67.984546 
1 1:50.855663 2:40.935311 
1 1:50.855663 2:40.935311 
1 1:50.855663 2:40.935311 
1 1:50.855663 2:40.935311 
1 1:50.855663 2:40.935311 
1 1:50.855663 2:40.935311 
1 1:50.855663 2:40.935311 
0.3563675137734936 1:50.855663 2:40.935311 
0.0008961219044305579 1:75.787494 2:59.991784 
0.008516837133681676 1:50.855663 2:40.935311 
1 1:52.220931 2:76.586583 
1 1:177.52847 2:89.224867 
1 1:83.967166 2:150.13996 
1 1:79.635588 2:80.505937 
1 1:52.220931 2:76.586583 
1 1:177.52847 2:89.224867 
1 1:83.967166 2:150.13996 
1 1:79.635588 2:80.505937 
1 1:52.220931 2:76.586583 
1 1:177.52847 2:89.224867 
1 1:83.967166 2:150.13996 
1 1:79.635588 2:80.505937 
1 1:52.220931 2:76.586583 
1 1:177.52847 2:89.224867 
1 1:83.967166 2:150.13996 
1 1:79.635588 2:80.505937 
1 1:52.220931 2:76.586583 
1 1:177.52847 2:89.224867 
1 1:83.967166 2:150.13996 
1 1:79.635588 2:80.505937 
1 1:52.220931 2:76.586583 
1 1:177.52847 2:89.224867 
1 1:83.967166 2:150.13996 
1 1:79.635588 2:80.505937 
1 1:52.220931 2:76.586583 
1 1:177.52847 2:89.224867 
1 1:83.967166 2:150.13996 
1 1:79.635588 2:80.505937 
1 1:52.220931 2:76.586583 
1 1:177.52847 2:89.224867 
1 1:83.967166 2:150.13996 
1 1:79.635588 2:80.505937 
1 1:52.220931 2:76.586583 
1 1:177.52847 2:89.224867 
1 1:83.967166 2:150.13996 
1 1:79.635588 2:80.505937 
1 1:52.220931 2:76.586583 
1 1:177.52847 2:89.224867 
1 1:83.967166 2:150.13996 
1 1:79.635588 2:80.505937 
1 1:52.220931 2:76.586583 
1 1:177.52847 2:89.224867 
1 1:83.967166 2:150.13996 
1 1:79.635588 2:80.505937 
1 1:52.220931 2:76.586583 
1 1:177.52847 2:89.224867 
1 1:83.967166 2:150.13996 
1 1:79.635588 2:80.505937 
1 1:52.220931 2:76.586583 
1 1:177.52847 2:89.224867 
1 1:83.967166 2:150.13996 
1 1:79.635588 2:80.505937 
1 1:52.220931 2:76.586583 
1 1:177.52847 2:89.224867 
1 1:83.967166 2:150.13996 
0.8422877991982685 1:79.635588 2:80.505937 
1 1:52.220931 2:76.586583 
1 1:177.52847 2:89.224867 
1 1:83.967166 2:150.13996 
1 1:52.220931 2:76.586583 
1 1:177.52847 2:89.224867 
1 1:83.967166 2:150.13996 
1 1:52.220931 2:76.586583 
1 1:177.52847 2:89.224867 
1 1:83.967166 2:150.13996 
1 1:52.220931 2:76.586583 
1 1:177.52847 2:89.224867 
1 1:83.967166 2:150.13996 
1 1:52.220931 2:76.586583 
1 1:177.52847 2:89.224867 
1 1:83.967166 2:150.13996 
1 1:52.220931 2:76.586583 
1 1:177.52847 2:89.224867 
1 1:83.967166 2:150.13996 
1 1:52.220931 2:76.586583 
1 1:177.52847 2:89.224867 
1 1:83.967166 2:150.13996 
1 1:52.220931 2:76.586583 
1 1:177.52847 2:89.224867 
1 1:83.967166 2:150.13996 
1 1:52.220931 2:76.586583 
1 1:177.52847 2:89.224867 
1 1:83.967166 2:150.13996 
0.5172716735503382 1:52.220931 2:76.586583 
1 1:177.52847 2:89.224867 
1 1:83.967166 2:150.13996 
0.4304914766874841 1:177.52847 2:89.224867 
0.4375690052380843 1:83.967166 2:150.13996 
0.0009836298364849227 1:52.220931 2:76.586583 
0.001006863251330259 1:177.52847 2:89.224867 
1 1:59.558861 2:103.79593 
1 1:127.02693 2:167.04809 
1 1:103.24557 2:160.53261 
1 1:81.987954 2:70.510171 
1 1:59.558861 2:103.79593 
1 1:127.02693 2:167.04809 
1 1:103.24557 2:160.53261 
1 1:81.987954 2:70.510171 
1 1:59.558861 2:103.79593 
1 1:127.02693 2:167.04809 
1 1:103.24557 2:160.53261 
1 1:81.987954 2:70.510171 
1 1:59.558861 2:103.79593 
1 1:127.02693 2:167.04809 
1 1:103.24557 2:160.53261 
1 1:81.987954 2:70.510171 
1 1:59.558861 2:103.79593 
1 1:127.02693 2:167.04809 
1 1:103.24557 2:160.53261 
1 1:81.987954 2:70.510171 
1 1:59.558861 2:103.79593 
1 1:127.02693 2:167.04809 
1 1:103.24557 2:160.53261 
1 1:81.987954 2:70.510171 
1 1:59.558861 2:103.79593 
1 1:127.02693 2:167.04809 
1 1:103.24557 2:160.53261 
1 1:81.987954 2:70.510171 
1 1:59.558861 2:103.79593 
1 1:127.02693 2:167.04809 
1 1:103.24557 2:160.53261 
1 1:81.987954 2:70.510171 
1 1:59.558861 2:103.79593 
1 1:127.02693 2:167.04809 
1 1:103.24557 2:160.53261 
1 1:81.987954 2:70.510171 
1 1:59.558861 2:103.79593 
1 1:127.02693 2:167.04809 
1 1:103.24557 2:160.53261 
1 1:81.987954 2:70.510171 
1 1:59.558861 2:103.79593 
1 1:127.02693 2:167.04809 
1 1:103.24557 2:160.53261 
1 1:81.987954 2:70.510171 
1 1:59.558861 2:103.79593 
1 1:127.02693 2:167.04809 
1 1:103.24557 2:160.53261 
1 1:81.987954 2:70.510171 
1 1:59.558861 2:103.79593 
1 1:127.02693 2:167.04809 
1 1:103.24557 2:160.53261 
1 1:81.987954 2:70.510171 
1 1:59.558861 2:103.79593 
1 1:127.02693 2:167.04809 
1 1:103.24557 2:160.53261 
1 1:81.987954 2:70.510171 
1 1:59.558861 2:103.79593 
1 1:127.02693 2:167.04809 
1 1:103.24557 2:160.53261 
1 1:81.987954 2:70.510171 
1 1:59.558861 2:103.79593 
1 1:127.02693 2:167.04809 
1 1:103.24557 2:160.53261 
1 1:81.987954 2:70.510171 
1 1:59.558861 2:103.79593 
1 1:127.02693 2:167.04809 
1 1:103.24557 2:160.53261 
1 1:81.987954 2:70.510171 
1 1:59.558861 2:103.79593 
1 1:127.02693 2:167.04809 
1 1:103.24557 2:160.53261 
1 1:81.987954 2:70.510171 
1 1:59.558861 2:103.79593 
1 1:127.02693 2:167.04809 
1 1:103.24557 2:160.53261 
1 1:81.987954 2:70.510171 
1 1:59.558861 2:103.79593 
1 1:127.02693 2:167.04809 
1 1:103.24557 2:160.53261 
1 1:81.987954 2:70.510171 
1 1:59.558861 2:103.79593 
1 1:127.02693 2:167.04809 
1 1:103.24557 2:160.53261 
1 1:81.987954 2:70.510171 
1 1:59.558861 2:103.79593 
1 1:127.02693 2:167.04809 
1 1:103.24557 2:160.53261 
1 1:81.987954 2:70.510171 
1 1:59.558861 2:103.79593 
1 1:127.02693 2:167.04809 
1 1:103.24557 2:160.53261 
1 1:81.987954 2:70.510171 
1 1:59.558861 2:103.79593 
1 1:127.02693 2:167.04809 
1 1:103.24557 2:160.53261 
1 1:81.987954 2:70.510171 
0.4354529385704815 1:59.558861 2:103.79593 
0.4361980642143628 1:127.02693 2:167.04809 
0.4359431607525188 1:103.24557 2:160.53261 
0.4372864476233254 1:81.987954 2:70.510171 
0.4410609949698376 1:5.5042595 2:6.1619599 
0.002125233782333424 1:59.558861 2:103.79593 
0.001239521260362864 1:127.02693 2:167.04809 
0.001325153347704441 1:5.5042595 2:6.1619599 
0.001678406010693578 1:103.24557 2:160.53261 
1 1:129.70711 2:110.92581 
1 1:172.83628 2:121.93469 
1 1:10.931156 2:5.0967196 
1 1:149.51073 2:95.710519 
1 1:105.38782 2:89.151983 
1 1:129.70711 2:110.92581 
1 1:172.83628 2:121.93469 
1 1:10.931156 2:5.0967196 
1 1:149.51073 2:95.710519 
1 1:105.38782 2:89.151983 
1 1:129.70711 2:110.92581 
1 1:172.83628 2:121.93469 
1 1:10.931156 2:5.0967196 
1 1:149.51073 2:95.710519 
1 1:105.38782 2:89.151983 
1 1:129.70711 2:110.92581 
1 1:172.83628 2:121.93469 
1 1:10.931156 2:5.0967196 
1 1:149.51073 2:95.710519 
1 1:105.38782 2:89.151983 
1 1:129.70711 2:110.92581 
1 1:172.83628 2:121.93469 
1 1:10.931156 2:5.0967196 
1 1:149.51073 2:95.710519 
1 1:105.38782 2:89.151983 
1 1:129.70711 2:110.92581 
1 1:172.83628 2:121.93469 
1 1:10.931156 2:5.0967196 
1 1:149.51073 2:95.710519 
1 1:105.38782 2:89.151983 
1 1:129.70711 2:110.92581 
1 1:172.83628 2:121.93469 
1 1:149.51073 2:95.710519 
1 1:105.38782 2:89.151983 
1 1:129.70711 2:110.92581 
1 1:172.83628 2:121.93469 
1 1:149.51073 2:95.710519 
1 1:105.38782 2:89.151983 
1 1:129.70711 2:110.92581 
1 1:172.83628 2:121.93469 
1 1:149.51073 2:95.710519 
1 1:105.38782 2:89.151983 
1 1:129.70711 2:110.92581 
1 1:172.83628 2:121.93469 
1 1:149.51073 2:95.710519 
1 1:105.38782 2:89.151983 
1 1:129.70711 2:110.92581 
1 1:172.83628 2:121.93469 
1 1:149.51073 2:95.710519 
1 1:105.38782 2:89.151983 
1 1:129.70711 2:110.92581 
1 1:172.83628 2:121.93469 
1 1:149.51073 2:95.710519 
1 1:105.38782 2:89.151983 
1 1:129.70711 2:110.92581 
1 1:172.83628 2:121.93469 
1 1:149.51073 2:95.710519 
1 1:105.38782 2:89.151983 
0.01371294661234645 1:129.70711 2:110.92581 
1 1:172.83628 2:121.93469 
1 1:149.51073 2:95.710519 
1 1:105.38782 2:89.151983 
1 1:172.83628 2:121.93469 
1 1:149.51073 2:95.710519 
1 1:105.38782 2:89.151983 
1 1:172.83628 2:121.93469 
1 1:149.51073 2:95.710519 
1 1:105.38782 2:89.151983 
1 1:172.83628 2:121.93469 
1 1:149.51073 2:95.710519 
1 1:105.38782 2:89.151983 
1 1:172.83628 2:121.93469 
1 1:149.51073 2:95.710519 
1 1:105.38782 2:89.151983 
1 1:172.83628 2:121.93469 
1 1:149.51073 2:95.710519 
1 1:105.38782 2:89.151983 
1 1:172.83628 2:121.93469 
1 1:149.51073 2:95.710519 
1 1:105.38782 2:89.151983 
1 1:172.83628 2:121.93469 
1 1:149.51073 2:95.710519 
0.3468312572419574 1:105.38782 2:89.151983 
1 1:172.83628 2:121.93469 
1 1:149.51073 2:95.710519 
1 1:172.83628 2:121.93469 
1 1:149.51073 2:95.710519 
1 1:172.83628 2:121.93469 
0.3254586732837463 1:149.51073 2:95.710519 
0.4355101166800353 1:172.83628 2:121.93469 
0.09446849541552202 1:10.931156 2:5.0967196 
1 1:10.931156 2:5.0967196 
0.06326653776080247 1:129.70711 2:110.92581 
0.001984001325691764 1:172.83628 2:121.93469 
0.8439013089610569 1:10.931156 2:5.0967196 
0.01017578489966908 1:149.51073 2:95.710519 
0.007428859215847794 1:105.38782 2:89.151983 
1 1:89.036893 2:91.552628 
1 1:81.534804 2:97.533223 
1 1:20.470188 2:5.4546938 
1 1:187.27246 2:79.365887 
1 1:101.98162 2:80.863855 
1 1:89.036893 2:91.552628 
1 1:81.534804 2:97.533223 
1 1:20.470188 2:5.4546938 
1 1:187.27246 2:79.365887 
1 1:101.98162 2:80.863855 
1 1:89.036893 2:91.552628 
1 1:81.534804 2:97.533223 
1 1:20.470188 2:5.4546938 
1 1:187.27246 2:79.365887 
1 1:101.98162 2:80.863855 
1 1:89.036893 2:91.552628 
1 1:81.534804 2:97.533223 
1 1:20.470188 2:5.4546938 
1 1:187.27246 2:79.365887 
1 1:101.98162 2:80.863855 
1 1:89.036893 2:91.552628 
1 1:81.534804 2:97.533223 
1 1:20.470188 2:5.4546938 
1 1:187.27246 2:79.365887 
1 1:101.98162 2:80.863855 
1 1:89.036893 2:91.552628 
1 1:81.534804 2:97.533223 
1 1:20.470188 2:5.4546938 
1 1:187.27246 2:79.365887 
1 1:101.98162 2:80.863855 
1 1:89.036893 2:91.552628 
1 1:81.534804 2:97.533223 
1 1:20.470188 2:5.4546938 
1 1:187.27246 2:79.365887 
1 1:101.98162 2:80.863855 
1 1:89.036893 2:91.552628 
1 1:81.534804 2:97.533223 
1 1:20.470188 2:5.4546938 
1 1:187.27246 2:79.365887 
1 1:101.98162 2:80.863855 
1 1:89.036893 2:91.552628 
1 1:81.534804 2:97.533223 
1 1:20.470188 2:5.4546938 
1 1:187.27246 2:79.365887 
1 1:101.98162 2:80.863855 
1 1:89.036893 2:91.552628 
1 1:81.534804 2:97.533223 
1 1:20.470188 2:5.4546938 
1 1:187.27246 2:79.365887 
1 1:101.98162 2:80.863855 
1 1:89.036893 2:91.552628 
1 1:81.534804 2:97.533223 
1 1:20.470188 2:5.4546938 
1 1:187.27246 2:79.365887 
1 1:101.98162 2:80.863855 
1 1:89.036893 2:91.552628 
1 1:81.534804 2:97.533223 
1 1:20.470188 2:5.4546938 
1 1:187.27246 2:79.365887 
1 1:101.98162 2:80.863855 
1 1:89.036893 2:91.552628 
1 1:81.534804 2:97.533223 
1 1:20.470188 2:5.4546938 
1 1:187.27246 2:79.365887 
1 1:101.98162 2:80.863855 
1 1:89.036893 2:91.552628 
1 1:81.534804 2:97.533223 
1 1:20.470188 2:5.4546938 
1 1:187.27246 2:79.365887 
1 1:101.98162 2:80.863855 
1 1:89.036893 2:91.552628 
1 1:81.534804 2:97.533223 
1 1:20.470188 2:5.4546938 
1 1:187.27246 2:79.365887 
1 1:101.98162 2:80.863855 
1 1:89.036893 2:91.552628 
1 1:81.534804 2:97.533223 
1 1:20.470188 2:5.4546938 
1 1:187.27246 2:79.365887 
1 1:101.98162 2:80.863855 
1 1:89.036893 2:91.552628 
1 1:81.534804 2:97.533223 
1 1:20.470188 2:5.4546938 
1 1:187.27246 2:79.365887 
1 1:101.98162 2:80.863855 
1 1:89.036893 2:91.552628 
1 1:81.534804 2:97.533223 
1 1:20.470188 2:5.4546938 
1 1:187.27246 2:79.365887 
1 1:101.98162 2:80.863855 
1 1:89.036893 2:91.552628 
1 1:81.534804 2:97.533223 
1 1:20.470188 2:5.4546938 
1 1:187.27246 2:79.365887 
1 1:101.98162 2:80.863855 
1 1:89.036893 2:91.552628 
1 1:81.534804 2:97.533223 
0.1041659200739527 1:20.470188 2:5.4546938 
1 1:187.27246 2:79.365887 
1 1:101.98162 2:80.863855 
1 1:89.036893 2:91.552628 
1 1:81.534804 2:97.533223 
1 1:187.27246 2:79.365887 
1 1:101.98162 2:80.863855 
1 1:89.036893 2:91.552628 
1 1:81.534804 2:97.533223 
1 1:187.27246 2:79.365887 
1 1:101.98162 2:80.863855 
1 1:89.036893 2:91.552628 
0.7246162214714893 1:81.534804 2:97.533223 
1 1:187.27246 2:79.365887 
1 1:101.98162 2:80.863855 
1 1:89.036893 2:91.552628 
1 1:187.27246 2:79.365887 
1 1:101.98162 2:80.863855 
0.4368069164309922 1:89.036893 2:91.552628 
0.4358161293592193 1:187.27246 2:79.365887 
0.4061572360207819 1:101.98162 2:80.863855 
0.0007466373231270751 1:89.036893 2:91.552628 
0.03942608718001672 1:81.534804 2:97.533223 
0.001812436800404882 1:187.27246 2:79.365887 
0.005093856994774271 1:101.98162 2:80.863855 
1 1:32.579572 2:62.887229 
1 1:25.049825 2:65.073507 
1 1:52.900181 2:79.230503 
1 1:54.487203 2:78.941874 
1 1:32.579572 2:62.887229 
1 1:25.049825 2:65.073507 
1 1:52.900181 2:79.230503 
1 1:54.487203 2:78.941874 
1 1:32.579572 2:62.887229 
1 1:25.049825 2:65.073507 
1 1:52.900181 2:79.230503 
1 1:54.487203 2:78.941874 
1 1:32.579572 2:62.887229 
1 1:25.049825 2:65.073507 
1 1:52.900181 2:79.230503 
1 1:54.487203 2:78.941874 
1 1:32.579572 2:62.887229 
1 1:25.049825 2:65.073507 
1 1:52.900181 2:79.230503 
1 1:54.487203 2:78.941874 
1 1:32.579572 2:62.887229 
1 1:25.049825 2:65.073507 
1 1:52.900181 2:79.230503 
1 1:54.487203 2:78.941874 
1 1:32.579572 2:62.887229 
1 1:25.049825 2:65.073507 
1 1:52.900181 2:79.230503 
1 1:54.487203 2:78.941874 
1 1:32.579572 2:62.887229 
1 1:25.049825 2:65.073507 
1 1:52.900181 2:79.230503 
1 1:54.487203 2:78.941874 
1 1:32.579572 2:62.887229 
1 1:25.049825 2:65.073507 
1 1:52.900181 2:79.230503 
1 1:54.487203 2:78.941874 
1 1:32.579572 2:62.887229 
1 1:25.049825 2:65.073507 
1 1:52.900181 2:79.230503 
1 1:54.487203 2:78.941874 
1 1:32.579572 2:62.887229 
1 1:25.049825 2:65.073507 
1 1:52.900181 2:79.230503 
1 1:54.487203 2:78.941874 
1 1:32.579572 2:62.887229 
1 1:25.049825 2:65.073507 
1 1:52.900181 2:79.230503 
1 1:54.487203 2:78.941874 
1 1:32.579572 2:62.887229 
1 1:25.049825 2:65.073507 
1 1:52.900181 2:79.230503 
1 1:54.487203 2:78.941874 
1 1:32.579572 2:62.887229 
1 1:25.049825 2:65.073507 
1 1:52.900181 2:79.230503 
1 1:54.487203 2:78.941874 
1 1:32.579572 2:62.887229 
1 1:25.049825 2:65.073507 
1 1:52.900181 2:79.230503 
1 1:54.487203 2:78.941874 
1 1:32.579572 2:62.887229 
1 1:25.049825 2:65.073507 
1 1:52.900181 2:79.230503 
1 1:54.487203 2:78.941874 
1 1:32.579572 2:62.887229 
1 1:25.049825 2:65.073507 
1 1:52.900181 2:79.230503 
1 1:54.487203 2:78.941874 
1 1:32.579572 2:62.887229 
1 1:25.049825 2:65.073507 
0.1554684426565718 1:52.900181 2:79.230503 
1 1:54.487203 2:78.941874 
1 1:32.579572 2:62.887229 
1 1:25.049825 2:65.073507 
0.6266519878561478 1:54.487203 2:78.941874 
0.5668672434078275 1:32.579572 2:62.887229 
1 1:25.049825 2:65.073507 
1 1:25.049825 2:65.073507 
0.0144321247310817 1:25.049825 2:65.073507 
0.005151258780792034 1:52.900181 2:79.230503 
0.06181917235737977 1:54.487203 2:78.941874 
1 1:48.814682 2:102.65125 
1 1:21.86648 2:106.49683 
1 1:53.911777 2:61.472284 
1 1:75.513032 2:139.30411 
1 1:48.814682 2:102.65125 
1 1:21.86648 2:106.49683 
1 1:53.911777 2:61.472284 
1 1:75.513032 2:139.30411 
1 1:48.814682 2:102.65125 
1 1:21.86648 2:106.49683 
1 1:53.911777 2:61.472284 
1 1:75.513032 2:139.30411 
1 1:48.814682 2:102.65125 
1 1:21.86648 2:106.49683 
1 1:53.911777 2:61.472284 
1 1:75.513032 2:139.30411 
1 1:48.814682 2:102.65125 
1 1:21.86648 2:106.49683 
1 1:53.911777 2:61.472284 
1 1:75.513032 2:139.30411 
1 1:48.814682 2:102.65125 
1 1:21.86648 2:106.49683 
1 1:53.911777 2:61.472284 
1 1:75.513032 2:139.30411 
1 1:48.814682 2:102.65125 
1 1:21.86648 2:106.49683 
1 1:53.911777 2:61.472284 
1 1:75.513032 2:139.30411 
1 1:48.814682 2:102.65125 
1 1:21.86648 2:106.49683 
1 1:53.911777 2:61.472284 
1 1:75.513032 2:139.30411 
1 1:48.814682 2:102.65125 
1 1:21.86648 2:106.49683 
1 1:53.911777 2:61.472284 
1 1:75.513032 2:139.30411 
1 1:48.814682 2:102.65125 
1 1:21.86648 2:106.49683 
1 1:53.911777 2:61.472284 
1 1:75.513032 2:139.30411 
1 1:48.814682 2:102.65125 
1 1:21.86648 2:106.49683 
1 1:53.911777 2:61.472284 
1 1:75.513032 2:139.30411 
1 1:48.814682 2:102.65125 
1 1:21.86648 2:106.49683 
1 1:53.911777 2:61.472284 
1 1:75.513032 2:139.30411 
1 1:48.814682 2:102.65125 
1 1:21.86648 2:106.49683 
1 1:53.911777 2:61.472284 
1 1:75.513032 2:139.30411 
1 1:48.814682 2:102.65125 
1 1:21.86648 2:106.49683 
1 1:53.911777 2:61.472284 
1 1:75.513032 2:139.30411 
1 1:48.814682 2:102.65125 
1 1:21.86648 2:106.49683 
1 1:53.911777 2:61.472284 
1 1:75.513032 2:139.30411 
1 1:48.814682 2:102.65125 
1 1:21.86648 2:106.49683 
1 1:53.911777 2:61.472284 
1 1:75.513032 2:139.30411 
1 1:48.814682 2:102.65125 
1 1:21.86648 2:106.49683 
1 1:53.911777 2:61.472284 
1 1:75.513032 2:139.30411 
1 1:48.814682 2:102.65125 
1 1:21.86648 2:106.49683 
1 1:53.911777 2:61.472284 
1 1:75.513032 2:139.30411 
1 1:48.814682 2:102.65125 
1 1:21.86648 2:106.49683 
1 1:53.911777 2:61.472284 
1 1:75.513032 2:139.30411 
1 1:48.814682 2:102.65125 
1 1:21.86648 2:106.49683 
0.6542902315734072 1:53.911777 2:61.472284 
1 1:75.513032 2:139.30411 
1 1:48.814682 2:102.65125 
1 1:21.86648 2:106.49683 
1 1:75.513032 2:139.30411 
1 1:48.814682 2:102.65125 
1 1:21.86648 2:106.49683 
1 1:75.513032 2:139.30411 
1 1:48.814682 2:102.65125 
1 1:21.86648 2:106.49683 
1 1:75.513032 2:139.30411 
1 1:48.814682 2:102.65125 
1 1:21.86648 2:106.49683 
1 1:75.513032 2:139.30411 
0.4377555201191363 1:48.814682 2:102.65125 
0.2834191778043813 1:21.86648 2:106.49683 
0.1834815205658504 1:75.513032 2:139.30411 
0.01689447969004121 1:21.86648 2:106.49683 
0.07752659601937495 1:53.911777 2:61.472284 
0.01706825108360555 1:75.513032 2:139.30411 
1 1:102.78573 2:138.17474 
1 1:2.5271334 2:10.586729 
1 1:73.558675 2:91.806386 
1 1:84.387109 2:205.64873 
1 1:173.8772 2:96.653987 
1 1:102.78573 2:138.17474 
1 1:2.5271334 2:10.586729 
1 1:73.558675 2:91.806386 
1 1:84.387109 2:205.64873 
1 1:173.8772 2:96.653987 
1 1:102.78573 2:138.17474 
1 1:2.5271334 2:10.586729 
1 1:73.558675 2:91.806386 
1 1:84.387109 2:205.64873 
1 1:173.8772 2:96.653987 
1 1:102.78573 2:138.17474 
1 1:2.5271334 2:10.586729 
1 1:73.558675 2:91.806386 
1 1:84.387109 2:205.64873 
1 1:173.8772 2:96.653987 
1 1:102.78573 2:138.17474 
1 1:2.5271334 2:10.586729 
1 1:73.558675 2:91.806386 
1 1:84.387109 2:205.64873 
1 1:173.8772 2:96.653987 
1 1:102.78573 2:138.17474 
1 1:2.5271334 2:10.586729 
1 1:73.558675 2:91.806386 
1 1:84.387109 2:205.64873 
1 1:173.8772 2:96.653987 
1 1:102.78573 2:138.17474 
1 1:2.5271334 2:10.586729 
1 1:73.558675 2:91.806386 
1 1:84.387109 2:205.64873 
1 1:173.8772 2:96.653987 
1 1:102.78573 2:138.17474 
1 1:2.5271334 2:10.586729 
1 1:73.558675 2:91.806386 
1 1:84.387109 2:205.64873 
1 1:173.8772 2:96.653987 
1 1:102.78573 2:138.17474 
1 1:2.5271334 2:10.586729 
1 1:73.558675 2:91.806386 
1 1:84.387109 2:205.64873 
1 1:173.8772 2:96.653987 
1 1:102.78573 2:138.17474 
1 1:2.5271334 2:10.586729 
1 1:73.558675 2:91.806386 
1 1:84.387109 2:205.64873 
1 1:173.8772 2:96.653987 
1 1:102.78573 2:138.17474 
1 1:2.5271334 2:10.586729 
1 1:73.558675 2:91.806386 
1 1:84.387109 2:205.64873 
1 1:173.8772 2:96.653987 
1 1:102.78573 2:138.17474 
1 1:2.5271334 2:10.586729 
1 1:73.558675 2:91.806386 
1 1:84.387109 2:205.64873 
1 1:173.8772 2:96.653987 
1 1:102.78573 2:138.17474 
1 1:2.5271334 2:10.586729 
1 1:73.558675 2:91.806386 
1 1:84.387109 2:205.64873 
1 1:173.8772 2:96.653987 
1 1:102.78573 2:138.17474 
1 1:2.5271334 2:10.586729 
1 1:73.558675 2:91.806386 
1 1:84.387109 2:205.64873 
1 1:173.8772 2:96.653987 
1 1:102.78573 2:138.17474 
1 1:2.5271334 2:10.586729 
1 1:73.558675 2:91.806386 
1 1:84.387109 2:205.64873 
1 1:173.8772 2:96.653987 
1 1:102.78573 2:138.17474 
1 1:2.5271334 2:10.586729 
1 1:73.558675 2:91.806386 
1 1:84.387109 2:205.64873 
1 1:173.8772 2:96.653987 
1 1:102.78573 2:138.17474 
1 1:2.5271334 2:10.586729 
1 1:73.558675 2:91.806386 
1 1:84.387109 2:205.64873 
1 1:173.8772 2:96.653987 
1 1:102.78573 2:138.17474 
0.7812547431923161 1:2.5271334 2:10.586729 
1 1:73.558675 2:91.806386 
1 1:84.387109 2:205.64873 
1 1:173.8772 2:96.653987 
1 1:102.78573 2:138.17474 
1 1:73.558675 2:91.806386 
1 1:84.387109 2:205.64873 
1 1:173.8772 2:96.653987 
1 1:102.78573 2:138.17474 
1 1:73.558675 2:91.806386 
1 1:84.387109 2:205.64873 
1 1:173.8772 2:96.653987 
1 1:102.78573 2:138.17474 
1 1:73.558675 2:91.806386 
1 1:84.387109 2:205.64873 
1 1:173.8772 2:96.653987 
1 1:102.78573 2:138.17474 
1 1:73.558675 2:91.806386 
1 1:84.387109 2:205.64873 
1 1:173.8772 2:96.653987 
1 1:102.78573 2:138.17474 
1 1:73.558675 2:91.806386 
1 1:84.387109 2:205.64873 
1 1:173.8772 2:96.653987 
1 1:102.78573 2:138.17474 
1 1:73.558675 2:91.806386 
1 1:84.387109 2:205.64873 
1 1:173.8772 2:96.653987 
0.3064843473130185 1:102.78573 2:138.17474 
0.4298231154981007 1:73.558675 2:91.806386 
0.4361102653733422 1:84.387109 2:205.64873 
0.4360917066044703 1:173.8772 2:96.653987 
0.001092441351136841 1:173.8772 2:96.653987 
0.008245632234482159 1:102.78573 2:138.17474 
0.1445405169151959 1:2.5271334 2:10.586729 
0.002544508376898236 1:73.558675 2:91.806386 
0.0009680669587588397 1:84.387109 2:205.64873 
1 1:57.345918 2:85.636183 
1 1:71.124376 2:109.79201 
1 1:40.025479 2:57.933539 
1 1:92.991441 2:105.83004 
1 1:57.345918 2:85.636183 
1 1:71.124376 2:109.79201 
1 1:40.025479 2:57.933539 
1 1:92.991441 2:105.83004 
1 1:57.345918 2:85.636183 
1 1:71.124376 2:109.79201 
1 1:40.025479 2:57.933539 
1 1:92.991441 2:105.83004 
1 1:57.345918 2:85.636183 
1 1:71.124376 2:109.79201 
1 1:40.025479 2:57.933539 
1 1:92.991441 2:105.83004 
1 1:57.345918 2:85.636183 
1 1:71.124376 2:109.79201 
1 1:40.025479 2:57.933539 
1 1:92.991441 2:105.83004 
1 1:57.345918 2:85.636183 
1 1:71.124376 2:109.79201 
1 1:40.025479 2:57.933539 
1 1:92.991441 2:105.83004 
1 1:57.345918 2:85.636183 
1 1:71.124376 2:109.79201 
1 1:40.025479 2:57.933539 
1 1:92.991441 2:105.83004 
1 1:57.345918 2:85.636183 
1 1:71.124376 2:109.79201 
1 1:40.025479 2:57.933539 
1 1:92.991441 2:105.83004 
1 1:57.345918 2:85.636183 
1 1:71.124376 2:109.79201 
1 1:40.025479 2:57.933539 
1 1:92.991441 2:105.83004 
1 1:57.345918 2:85.636183 
1 1:71.124376 2:109.79201 
1 1:40.025479 2:57.933539 
1 1:92.991441 2:105.83004 
1 1:57.345918 2:85.636183 
1 1:71.124376 2:109.79201 
1 1:40.025479 2:57.933539 
1 1:92.991441 2:105.83004 
1 1:57.345918 2:85.636183 
1 1:71.124376 2:109.79201 
1 1:40.025479 2:57.933539 
1 1:92.991441 2:105.83004 
1 1:57.345918 2:85.636183 
1 1:71.124376 2:109.79201 
1 1:40.025479 2:57.933539 
1 1:92.991441 2:105.83004 
1 1:57.345918 2:85.636183 
1 1:71.124376 2:109.79201 
1 1:92.991441 2:105.83004 
1 1:57.345918 2:85.636183 
1 1:71.124376 2:109.79201 
1 1:92.991441 2:105.83004 
1 1:57.345918 2:85.636183 
1 1:71.124376 2:109.79201 
1 1:92.991441 2:105.83004 
1 1:57.345918 2:85.636183 
1 1:71.124376 2:109.79201 
1 1:92.991441 2:105.83004 
1 1:57.345918 2:85.636183 
1 1:71.124376 2:109.79201 
0.7480059029583316 1:92.991441 2:105.83004 
1 1:57.345918 2:85.636183 
1 1:71.124376 2:109.79201 
1 1:57.345918 2:85.636183 
1 1:71.124376 2:109.79201 
1 1:57.345918 2:85.636183 
1 1:71.124376 2:109.79201 
0.4322202053942199 1:57.345918 2:85.636183 
0.3322745393936621 1:71.124376 2:109.79201 
0.0169823522890109 1:92.991441 2:105.83004 
0.000525141285969255 1:57.345918 2:85.636183 
0.01103428542641538 1:71.124376 2:109.79201 
0.2587351281784753 1:40.025479 2:57.933539 
1 1:140.60061 2:149.0999 
1 1:93.828927 2:99.237088 
1 1:148.34311 2:148.18529 
1 1:9.6284332 2:8.2856893 
1 1:140.60061 2:149.0999 
1 1:93.828927 2:99.237088 
1 1:148.34311 2:148.18529 
1 1:9.6284332 2:8.2856893 
1 1:140.60061 2:149.0999 
1 1:93.828927 2:99.237088 
1 1:148.34311 2:148.18529 
1 1:9.6284332 2:8.2856893 
1 1:140.60061 2:149.0999 
0.436181753611077 1:93.828927 2:99.237088 
1 1:148.34311 2:148.18529 
1 1:9.6284332 2:8.2856893 
1 1:140.60061 2:149.0999 
1 1:148.34311 2:148.18529 
1 1:9.6284332 2:8.2856893 
1 1:140.60061 2:149.0999 
1 1:148.34311 2:148.18529 
1 1:9.6284332 2:8.2856893 
1 1:140.60061 2:149.0999 
1 1:148.34311 2:148.18529 
1 1:9.6284332 2:8.2856893 
1 1:140.60061 2:149.0999 
1 1:148.34311 2:148.18529 
1 1:9.6284332 2:8.2856893 
1 1:140.60061 2:149.0999 
1 1:148.34311 2:148.18529 
1 1:9.6284332 2:8.2856893 
1 1:140.60061 2:149.0999 
1 1:148.34311 2:148.18529 
1 1:9.6284332 2:8.2856893 
1 1:140.60061 2:149.0999 
1 1:148.34311 2:148.18529 
1 1:9.6284332 2:8.2856893 
1 1:140.60061 2:149.0999 
1 1:148.34311 2:148.18529 
1 1:9.6284332 2:8.2856893 
1 1:140.60061 2:149.0999 
1 1:148.34311 2:148.18529 
1 1:9.6284332 2:8.2856893 
1 1:140.60061 2:149.0999 
1 1:148.34311 2:148.18529 
1 1:9.6284332 2:8.2856893 
1 1:140.60061 2:149.0999 
1 1:148.34311 2:148.18529 
0.4400537733045936 1:9.6284332 2:8.2856893 
1 1:140.60061 2:149.0999 
1 1:148.34311 2:148.18529 
1 1:140.60061 2:149.0999 
1 1:148.34311 2:148.18529 
1 1:140.60061 2:149.0999 
1 1:148.34311 2:148.18529 
1 1:140.60061 2:149.0999 
1 1:148.34311 2:148.18529 
1 1:140.60061 2:149.0999 
1 1:148.34311 2:148.18529 
1 1:140.60061 2:149.0999 
1 1:148.34311 2:148.18529 
1 1:140.60061 2:149.0999 
1 1:148.34311 2:148.18529 
1 1:140.60061 2:149.0999 
1 1:148.34311 2:148.18529 
1 1:140.60061 2:149.0999 
1 1:148.34311 2:148.18529 
0.4357781687526856 1:140.60061 2:149.0999 
0.435609279710949 1:148.34311 2:148.18529 
0.001829027300633612 1:140.60061 2:149.0999 
0.01871958304078928 1:93.828927 2:99.237088 
0.001957384688131114 1:148.34311 2:148.18529 
0.1620903849696559 1:9.6284332 2:8.2856893 
1 1:215.15034 2:65.735831 
1 1:243.8932 2:155.40166 
1 1:130.13067 2:62.813894 
1 1:136.77663 2:139.17053 
1 1:18.535238 2:10.864684 
1 1:215.15034 2:65.735831 
1 1:243.8932 2:155.40166 
1 1:130.13067 2:62.813894 
1 1:136.77663 2:139.17053 
1 1:18.535238 2:10.864684 
1 1:215.15034 2:65.735831 
1 1:243.8932 2:155.40166 
1 1:130.13067 2:62.813894 
1 1:136.77663 2:139.17053 
1 1:18.535238 2:10.864684 
1 1:215.15034 2:65.735831 
1 1:243.8932 2:155.40166 
1 1:130.13067 2:62.813894 
1 1:136.77663 2:139.17053 
1 1:18.535238 2:10.864684 
1 1:215.15034 2:65.735831 
1 1:243.8932 2:155.40166 
1 1:130.13067 2:62.813894 
1 1:136.77663 2:139.17053 
1 1:18.535238 2:10.864684 
1 1:215.15034 2:65.735831 
1 1:243.8932 2:155.40166 
1 1:130.13067 2:62.813894 
1 1:136.77663 2:139.17053 
1 1:18.535238 2:10.864684 
1 1:215.15034 2:65.735831 
1 1:243.8932 2:155.40166 
1 1:130.13067 2:62.813894 
1 1:136.77663 2:139.17053 
1 1:18.535238 2:10.864684 
1 1:215.15034 2:65.735831 
1 1:243.8932 2:155.40166 
1 1:130.13067 2:62.813894 
1 1:136.77663 2:139.17053 
1 1:18.535238 2:10.864684 
1 1:215.15034 2:65.735831 
1 1:243.8932 2:155.40166 
1 1:130.13067 2:62.813894 
1 1:136.77663 2:139.17053 
1 1:18.535238 2:10.864684 
1 1:215.15034 2:65.735831 
1 1:243.8932 2:155.40166 
1 1:130.13067 2:62.813894 
1 1:136.77663 2:139.17053 
1 1:18.535238 2:10.864684 
1 1:215.15034 2:65.735831 
1 1:243.8932 2:155.40166 
1 1:130.13067 2:62.813894 
1 1:136.77663 2:139.17053 
1 1:18.535238 2:10.864684 
1 1:215.15034 2:65.735831 
1 1:243.8932 2:155.40166 
1 1:130.13067 2:62.813894 
1 1:136.77663 2:139.17053 
1 1:18.535238 2:10.864684 
1 1:215.15034 2:65.735831 
1 1:243.8932 2:155.40166 
1 1:130.13067 2:62.813894 
1 1:136.77663 2:139.17053 
1 1:18.535238 2:10.864684 
1 1:215.15034 2:65.735831 
1 1:243.8932 2:155.40166 
1 1:130.13067 2:62.813894 
1 1:136.77663 2:139.17053 
1 1:18.535238 2:10.864684 
1 1:215.15034 2:65.735831 
1 1:243.8932 2:155.40166 
1 1:130.13067 2:62.813894 
1 1:136.77663 2:139.17053 
1 1:18.535238 2:10.864684 
1 1:215.15034 2:65.735831 
1 1:243.8932 2:155.40166 
0.9904777558011091 1:130.13067 2:62.813894 
1 1:136.77663 2:139.17053 
1 1:18.535238 2:10.864684 
1 1:215.15034 2:65.735831 
1 1:243.8932 2:155.40166 
1 1:136.77663 2:139.17053 
1 1:18.535238 2:10.864684 
1 1:215.15034 2:65.735831 
1 1:243.8932 2:155.40166 
1 1:136.77663 2:139.17053 
1 1:18.535238 2:10.864684 
1 1:215.15034 2:65.735831 
1 1:243.8932 2:155.40166 
1 1:136.77663 2:139.17053 
1 1:18.535238 2:10.864684 
1 1:215.15034 2:65.735831 
1 1:243.8932 2:155.40166 
1 1:136.77663 2:139.17053 
1 1:18.535238 2:10.864684 
1 1:215.15034 2:65.735831 
1 1:243.8932 2:155.40166 
1 1:136.77663 2:139.17053 
1 1:18.535238 2:10.864684 
1 1:215.15034 2:65.735831 
1 1:243.8932 2:155.40166 
1 1:136.77663 2:139.17053 
1 1:18.535238 2:10.864684 
1 1:215.15034 2:65.735831 
1 1:243.8932 2:155.40166 
1 1:136.77663 2:139.17053 
1 1:18.535238 2:10.864684 
0.6402031331908198 1:215.15034 2:65.735831 
1 1:243.8932 2:155.40166 
0.4731942270651555 1:136.77663 2:139.17053 
0.655639527549047 1:18.535238 2:10.864684 
0.4360989099432846 1:243.8932 2:155.40166 
0.02988740569647041 1:18.535238 2:10.864684 
0.02692552264405101 1:215.15034 2:65.735831 
0.00131291988620319 1:243.8932 2:155.40166 
1 1:154.38947 2:85.856348 
1 1:115.59546 2:128.80211 
1 1:12.66808 2:9.6046721 
1 1:89.77586 2:23.512439 
1 1:104.04145 2:103.2513 
1 1:154.38947 2:85.856348 
1 1:115.59546 2:128.80211 
1 1:12.66808 2:9.6046721 
1 1:89.77586 2:23.512439 
1 1:104.04145 2:103.2513 
1 1:154.38947 2:85.856348 
1 1:115.59546 2:128.80211 
1 1:12.66808 2:9.6046721 
1 1:89.77586 2:23.512439 
1 1:104.04145 2:103.2513 
1 1:154.38947 2:85.856348 
1 1:115.59546 2:128.80211 
1 1:12.66808 2:9.6046721 
1 1:89.77586 2:23.512439 
1 1:104.04145 2:103.2513 
1 1:154.38947 2:85.856348 
1 1:115.59546 2:128.80211 
1 1:12.66808 2:9.6046721 
1 1:89.77586 2:23.512439 
1 1:104.04145 2:103.2513 
1 1:154.38947 2:85.856348 
1 1:115.59546 2:128.80211 
1 1:12.66808 2:9.6046721 
1 1:89.77586 2:23.512439 
1 1:104.04145 2:103.2513 
1 1:154.38947 2:85.856348 
1 1:115.59546 2:128.80211 
1 1:12.66808 2:9.6046721 
1 1:89.77586 2:23.512439 
1 1:104.04145 2:103.2513 
1 1:154.38947 2:85.856348 
1 1:115.59546 2:128.80211 
1 1:12.66808 2:9.6046721 
1 1:89.77586 2:23.512439 
1 1:104.04145 2:103.2513 
1 1:154.38947 2:85.856348 
1 1:115.59546 2:128.80211 
0.7871475611035764 1:12.66808 2:9.6046721 
1 1:89.77586 2:23.512439 
1 1:104.04145 2:103.2513 
1 1:154.38947 2:85.856348 
1 1:115.59546 2:128.80211 
1 1:89.77586 2:23.512439 
1 1:104.04145 2:103.2513 
1 1:154.38947 2:85.856348 
1 1:115.59546 2:128.80211 
1 1:89.77586 2:23.512439 
1 1:104.04145 2:103.2513 
1 1:154.38947 2:85.856348 
1 1:115.59546 2:128.80211 
1 1:89.77586 2:23.512439 
1 1:104.04145 2:103.2513 
1 1:154.38947 2:85.856348 
1 1:115.59546 2:128.80211 
1 1:89.77586 2:23.512439 
1 1:104.04145 2:103.2513 
1 1:154.38947 2:85.856348 
1 1:115.59546 2:128.80211 
1 1:89.77586 2:23.512439 
1 1:104.04145 2:103.2513 
1 1:154.38947 2:85.856348 
1 1:115.59546 2:128.80211 
1 1:89.77586 2:23.512439 
1 1:104.04145 2:103.2513 
1 1:154.38947 2:85.856348 
1 1:115.59546 2:128.80211 
1 1:89.77586 2:23.512439 
1 1:104.04145 2:103.2513 
1 1:154.38947 2:85.856348 
1 1:115.59546 2:128.80211 
0.4939688533700046 1:89.77586 2:23.512439 
0.07540955091752943 1:104.04145 2:103.2513 
0.1250602942368122 1:154.38947 2:85.856348 
1 1:115.59546 2:128.80211 
1 1:115.59546 2:128.80211 
1 1:115.59546 2:128.80211 
1 1:115.59546 2:128.80211 
1 1:115.59546 2:128.80211 
1 1:115.59546 2:128.80211 
0.8095648125769674 1:115.59546 2:128.80211 
0.01982570631033553 1:115.59546 2:128.80211 
0.04362501645640633 1:12.66808 2:9.6046721 
0.002020969274060036 1:89.77586 2:23.512439 
0.05770528347083115 1:104.04145 2:103.2513 
1 1:146.18089 2:43.903173 
1 1:11.700095 2:5.6423822 
1 1:91.014242 2:23.202223 
1 1:57.529219 2:67.855831 
1 1:146.18089 2:43.903173 
1 1:11.700095 2:5.6423822 
1 1:91.014242 2:23.202223 
1 1:57.529219 2:67.855831 
1 1:146.18089 2:43.903173 
1 1:11.700095 2:5.6423822 
1 1:91.014242 2:23.202223 
1 1:57.529219 2:67.855831 
1 1:146.18089 2:43.903173 
1 1:11.700095 2:5.6423822 
1 1:91.014242 2:23.202223 
1 1:57.529219 2:67.855831 
1 1:146.18089 2:43.903173 
1 1:11.700095 2:5.6423822 
1 1:91.014242 2:23.202223 
1 1:57.529219 2:67.855831 
1 1:146.18089 2:43.903173 
1 1:11.700095 2:5.6423822 
1 1:91.014242 2:23.202223 
1 1:57.529219 2:67.855831 
1 1:146.18089 2:43.903173 
0.01808027906916672 1:11.700095 2:5.6423822 
1 1:91.014242 2:23.202223 
1 1:57.529219 2:67.855831 
1 1:146.18089 2:43.903173 
1 1:91.014242 2:23.202223 
1 1:57.529219 2:67.855831 
1 1:146.18089 2:43.903173 
1 1:91.014242 2:23.202223 
1 1:57.529219 2:67.855831 
1 1:146.18089 2:43.903173 
1 1:91.014242 2:23.202223 
0.6447134252397806 1:57.529219 2:67.855831 
1 1:146.18089 2:43.903173 
1 1:91.014242 2:23.202223 
1 1:146.18089 2:43.903173 
1 1:91.014242 2:23.202223 
1 1:146.18089 2:43.903173 
1 1:91.014242 2:23.202223 
1 1:146.18089 2:43.903173 
1 1:91.014242 2:23.202223 
1 1:146.18089 2:43.903173 
1 1:91.014242 2:23.202223 
1 1:146.18089 2:43.903173 
1 1:91.014242 2:23.202223 
1 1:146.18089 2:43.903173 
1 1:91.014242 2:23.202223 
1 1:146.18089 2:43.903173 
1 1:146.18089 2:43.903173 
1 1:146.18089 2:43.903173 
1 1:146.18089 2:43.903173 
1 1:146.18089 2:43.903173 
1 1:146.18089 2:43.903173 
1 1:146.18089 2:43.903173 
0.3581516639812108 1:146.18089 2:43.903173 
0.01663860600220779 1:11.700095 2:5.6423822 
0.01623710548307855 1:91.014242 2:23.202223 
0.2962400781494088 1:57.529219 2:67.855831 
0.002696640352530366 1:146.18089 2:43.903173 
1 1:5.8130203 2:4.9654612 
1 1:39.862861 2:57.612885 
1 1:53.973908 2:59.019865 
1 1:61.23324 2:29.495437 
1 1:5.8130203 2:4.9654612 
1 1:39.862861 2:57.612885 
1 1:53.973908 2:59.019865 
1 1:61.23324 2:29.495437 
1 1:5.8130203 2:4.9654612 
1 1:39.862861 2:57.612885 
1 1:53.973908 2:59.019865 
1 1:61.23324 2:29.495437 
1 1:5.8130203 2:4.9654612 
1 1:39.862861 2:57.612885 
1 1:53.973908 2:59.019865 
1 1:61.23324 2:29.495437 
0.8306192356800353 1:5.8130203 2:4.9654612 
1 1:39.862861 2:57.612885 
1 1:53.973908 2:59.019865 
1 1:61.23324 2:29.495437 
0.6031832296228721 1:39.862861 2:57.612885 
1 1:53.973908 2:59.019865 
1 1:61.23324 2:29.495437 
1 1:53.973908 2:59.019865 
1 1:61.23324 2:29.495437 
1 1:53.973908 2:59.019865 
1 1:61.23324 2:29.495437 
1 1:53.973908 2:59.019865 
1 1:61.23324 2:29.495437 
1 1:53.973908 2:59.019865 
1 1:61.23324 2:29.495437 
1 1:53.973908 2:59.019865 
1 1:61.23324 2:29.495437 
1 1:53.973908 2:59.019865 
1 1:61.23324 2:29.495437 
1 1:53.973908 2:59.019865 
1 1:61.23324 2:29.495437 
1 1:53.973908 2:59.019865 
1 1:61.23324 2:29.495437 
1 1:53.973908 2:59.019865 
1 1:61.23324 2:29.495437 
1 1:53.973908 2:59.019865 
1 1:61.23324 2:29.495437 
1 1:53.973908 2:59.019865 
1 1:61.23324 2:29.495437 
1 1:53.973908 2:59.019865 
1 1:61.23324 2:29.495437 
1 1:53.973908 2:59.019865 
1 1:61.23324 2:29.495437 
1 1:53.973908 2:59.019865 
1 1:61.23324 2:29.495437 
1 1:53.973908 2:59.019865 
1 1:61.23324 2:29.495437 
0.9092456932613455 1:53.973908 2:59.019865 
1 1:61.23324 2:29.495437 
1 1:61.23324 2:29.495437 
0.3292135595503343 1:61.23324 2:29.495437 
0.002567092995139575 1:61.23324 2:29.495437 
1 1:39.448935 2:76.48545 
1 1:59.163721 2:54.897263 
0.9059254812840135 1:5.7563627 2:3.4574795 
1 1:57.358332 2:51.789723 
1 1:37.857474 2:34.642987 
1 1:39.448935 2:76.48545 
1 1:59.163721 2:54.897263 
1 1:57.358332 2:51.789723 
1 1:37.857474 2:34.642987 
1 1:39.448935 2:76.48545 
1 1:59.163721 2:54.897263 
1 1:57.358332 2:51.789723 
1 1:37.857474 2:34.642987 
1 1:39.448935 2:76.48545 
1 1:59.163721 2:54.897263 
1 1:57.358332 2:51.789723 
1 1:37.857474 2:34.642987 
1 1:39.448935 2:76.48545 
1 1:59.163721 2:54.897263 
1 1:57.358332 2:51.789723 
1 1:37.857474 2:34.642987 
1 1:39.448935 2:76.48545 
1 1:59.163721 2:54.897263 
1 1:57.358332 2:51.789723 
1 1:37.857474 2:34.642987 
1 1:39.448935 2:76.48545 
1 1:59.163721 2:54.897263 
1 1:57.358332 2:51.789723 
1 1:37.857474 2:34.642987 
1 1:39.448935 2:76.48545 
1 1:59.163721 2:54.897263 
1 1:57.358332 2:51.789723 
1 1:37.857474 2:34.642987 
1 1:39.448935 2:76.48545 
1 1:59.163721 2:54.897263 
1 1:57.358332 2:51.789723 
1 1:37.857474 2:34.642987 
1 1:39.448935 2:76.48545 
1 1:59.163721 2:54.897263 
1 1:57.358332 2:51.789723 
1 1:37.857474 2:34.642987 
1 1:39.448935 2:76.48545 
1 1:59.163721 2:54.897263 
1 1:57.358332 2:51.789723 
1 1:37.857474 2:34.642987 
1 1:39.448935 2:76.48545 
1 1:59.163721 2:54.897263 
1 1:57.358332 2:51.789723 
1 1:37.857474 2:34.642987 
1 1:39.448935 2:76.48545 
1 1:59.163721 2:54.897263 
0.0556647327242068 1:57.358332 2:51.789723 
1 1:37.857474 2:34.642987 
1 1:39.448935 2:76.48545 
1 1:59.163721 2:54.897263 
1 1:37.857474 2:34.642987 
1 1:39.448935 2:76.48545 
1 1:59.163721 2:54.897263 
1 1:37.857474 2:34.642987 
1 1:39.448935 2:76.48545 
1 1:59.163721 2:54.897263 
1 1:37.857474 2:34.642987 
1 1:39.448935 2:76.48545 
0.5951350889852762 1:59.163721 2:54.897263 
1 1:37.857474 2:34.642987 
1 1:39.448935 2:76.48545 
1 1:37.857474 2:34.642987 
1 1:39.448935 2:76.48545 
1 1:37.857474 2:34.642987 
1 1:39.448935 2:76.48545 
1 1:37.857474 2:34.642987 
1 1:39.448935 2:76.48545 
1 1:37.857474 2:34.642987 
1 1:39.448935 2:76.48545 
1 1:37.857474 2:34.642987 
1 1:39.448935 2:76.48545 
0.7135975774944505 1:37.857474 2:34.642987 
0.293432997171335 1:39.448935 2:76.48545 
0.02594741858815474 1:59.163721 2:54.897263 
0.01660888426139451 1:37.857474 2:34.642987 
1 1:68.590575 2:68.734266 
1 1:56.154358 2:68.919499 
1 1:4.3873565 2:3.6280621 
1 1:41.039026 2:40.333499 
1 1:34.504711 2:34.789252 
1 1:68.590575 2:68.734266 
1 1:56.154358 2:68.919499 
1 1:4.3873565 2:3.6280621 
1 1:41.039026 2:40.333499 
1 1:34.504711 2:34.789252 
1 1:68.590575 2:68.734266 
1 1:56.154358 2:68.919499 
1 1:4.3873565 2:3.6280621 
1 1:41.039026 2:40.333499 
1 1:34.504711 2:34.789252 
1 1:68.590575 2:68.734266 
1 1:56.154358 2:68.919499 
1 1:4.3873565 2:3.6280621 
1 1:41.039026 2:40.333499 
1 1:34.504711 2:34.789252 
1 1:68.590575 2:68.734266 
1 1:56.154358 2:68.919499 
0.8722137000892137 1:4.3873565 2:3.6280621 
1 1:41.039026 2:40.333499 
1 1:34.504711 2:34.789252 
1 1:68.590575 2:68.734266 
1 1:56.154358 2:68.919499 
1 1:41.039026 2:40.333499 
1 1:34.504711 2:34.789252 
1 1:68.590575 2:68.734266 
1 1:56.154358 2:68.919499 
1 1:41.039026 2:40.333499 
1 1:34.504711 2:34.789252 
1 1:68.590575 2:68.734266 
1 1:56.154358 2:68.919499 
1 1:41.039026 2:40.333499 
1 1:34.504711 2:34.789252 
1 1:68.590575 2:68.734266 
1 1:56.154358 2:68.919499 
1 1:41.039026 2:40.333499 
1 1:34.504711 2:34.789252 
1 1:68.590575 2:68.734266 
1 1:56.154358 2:68.919499 
1 1:41.039026 2:40.333499 
1 1:34.504711 2:34.789252 
1 1:68.590575 2:68.734266 
1 1:56.154358 2:68.919499 
1 1:41.039026 2:40.333499 
1 1:34.504711 2:34.789252 
1 1:68.590575 2:68.734266 
1 1:56.154358 2:68.919499 
1 1:41.039026 2:40.333499 
1 1:34.504711 2:34.789252 
1 1:68.590575 2:68.734266 
1 1:56.154358 2:68.919499 
1 1:41.039026 2:40.333499 
1 1:34.504711 2:34.789252 
1 1:68.590575 2:68.734266 
0.5839151424330616 1:56.154358 2:68.919499 
1 1:41.039026 2:40.333499 
1 1:34.504711 2:34.789252 
1 1:68.590575 2:68.734266 
1 1:41.039026 2:40.333499 
1 1:34.504711 2:34.789252 
1 1:68.590575 2:68.734266 
1 1:41.039026 2:40.333499 
1 1:34.504711 2:34.789252 
1 1:68.590575 2:68.734266 
1 1:41.039026 2:40.333499 
1 1:34.504711 2:34.789252 
1 1:68.590575 2:68.734266 
1 1:41.039026 2:40.333499 
1 1:34.504711 2:34.789252 
1 1:68.590575 2:68.734266 
1 1:41.039026 2:40.333499 
1 1:34.504711 2:34.789252 
1 1:68.590575 2:68.734266 
0.1838444115881739 1:41.039026 2:40.333499 
1 1:34.504711 2:34.789252 
0.0636737104566733 1:68.590575 2:68.734266 
1 1:34.504711 2:34.789252 
1 1:34.504711 2:34.789252 
1 1:34.504711 2:34.789252 
1 1:34.504711 2:34.789252 
0.3422008707670532 1:34.504711 2:34.789252 
0.0007790339486497544 1:34.504711 2:34.789252 
0.04056279669721796 1:68.590575 2:68.734266 
0.434404976479474 1:45.689302 2:19.699472 
1 1:45.689302 2:19.699472 
0.1292212241203394 1:48.340337 2:34.315289 
1 1:45.689302 2:19.699472 
1 1:48.340337 2:34.315289 
1 1:45.689302 2:19.699472 
1 1:48.340337 2:34.315289 
1 1:45.689302 2:19.699472 
1 1:48.340337 2:34.315289 
1 1:45.689302 2:19.699472 
1 1:48.340337 2:34.315289 
1 1:45.689302 2:19.699472 
1 1:48.340337 2:34.315289 
1 1:45.689302 2:19.699472 
1 1:48.340337 2:34.315289 
1 1:45.689302 2:19.699472 
0.3308295530995763 1:22.597184 2:26.927141 
1 1:48.340337 2:34.315289 
1 1:45.689302 2:19.699472 
1 1:22.597184 2:26.927141 
1 1:48.340337 2:34.315289 
1 1:45.689302 2:19.699472 
1 1:22.597184 2:26.927141 
1 1:48.340337 2:34.315289 
1 1:45.689302 2:19.699472 
1 1:22.597184 2:26.927141 
1 1:48.340337 2:34.315289 
1 1:45.689302 2:19.699472 
1 1:22.597184 2:26.927141 
1 1:48.340337 2:34.315289 
1 1:45.689302 2:19.699472 
0.4991150454184599 1:38.330502 2:57.769119 
1 1:22.597184 2:26.927141 
1 1:48.340337 2:34.315289 
1 1:45.689302 2:19.699472 
1 1:38.330502 2:57.769119 
1 1:22.597184 2:26.927141 
1 1:48.340337 2:34.315289 
1 1:45.689302 2:19.699472 
1 1:38.330502 2:57.769119 
1 1:22.597184 2:26.927141 
1 1:48.340337 2:34.315289 
1 1:45.689302 2:19.699472 
1 1:38.330502 2:57.769119 
1 1:22.597184 2:26.927141 
1 1:48.340337 2:34.315289 
1 1:45.689302 2:19.699472 
1 1:38.330502 2:57.769119 
1 1:22.597184 2:26.927141 
1 1:48.340337 2:34.315289 
1 1:45.689302 2:19.699472 
1 1:38.330502 2:57.769119 
1 1:22.597184 2:26.927141 
1 1:48.340337 2:34.315289 
1 1:45.689302 2:19.699472 
1 1:38.330502 2:57.769119 
1 1:22.597184 2:26.927141 
1 1:48.340337 2:34.315289 
1 1:45.689302 2:19.699472 
1 1:38.330502 2:57.769119 
1 1:22.597184 2:26.927141 
1 1:48.340337 2:34.315289 
1 1:45.689302 2:19.699472 
1 1:38.330502 2:57.769119 
1 1:22.597184 2:26.927141 
1 1:48.340337 2:34.315289 
1 1:45.689302 2:19.699472 
1 1:38.330502 2:57.769119 
0.9453800891001587 1:3.0861405 2:2.9663652 
1 1:22.597184 2:26.927141 
1 1:48.340337 2:34.315289 
1 1:45.689302 2:19.699472 
1 1:38.330502 2:57.769119 
1 1:22.597184 2:26.927141 
1 1:48.340337 2:34.315289 
0.9987638924370383 1:45.689302 2:19.699472 
1 1:38.330502 2:57.769119 
1 1:22.597184 2:26.927141 
0.9985326384004658 1:48.340337 2:34.315289 
0.4999991857171899 1:11.957649 2:34.248559 
1 1:11.957649 2:34.248559 
1 1:11.957649 2:34.248559 
1 1:11.957649 2:34.248559 
1 1:11.957649 2:34.248559 
1 1:24.304731 2:35.306902 
1 1:11.957649 2:34.248559 
1 1:24.304731 2:35.306902 
1 1:11.957649 2:34.248559 
1 1:24.304731 2:35.306902 
1 1:22.747707 2:25.598936 
0.1122776465505397 1:1.8139131 2:1.9665877 
1 1:11.957649 2:34.248559 
1 1:24.304731 2:35.306902 
1 1:22.747707 2:25.598936 
1 1:1.8139131 2:1.9665877 
1 1:11.957649 2:34.248559 
1 1:24.304731 2:35.306902 
1 1:22.747707 2:25.598936 
1 1:1.8139131 2:1.9665877 
1 1:11.957649 2:34.248559 
1 1:24.304731 2:35.306902 
1 1:22.747707 2:25.598936 
1 1:1.8139131 2:1.9665877 
1 1:11.957649 2:34.248559 
1 1:24.304731 2:35.306902 
1 1:22.747707 2:25.598936 
1 1:1.8139131 2:1.9665877 
1 1:11.957649 2:34.248559 
1 1:24.304731 2:35.306902 
1 1:22.747707 2:25.598936 
1 1:1.8139131 2:1.9665877 
1 1:11.957649 2:34.248559 
1 1:24.304731 2:35.306902 
1 1:22.747707 2:25.598936 
1 1:1.8139131 2:1.9665877 
1 1:11.957649 2:34.248559 
1 1:24.304731 2:35.306902 
1 1:22.747707 2:25.598936 
1 1:1.8139131 2:1.9665877 
1 1:11.957649 2:34.248559 
1 1:24.304731 2:35.306902 
1 1:22.747707 2:25.598936 
1 1:1.8139131 2:1.9665877 
1 1:11.957649 2:34.248559 
1 1:24.304731 2:35.306902 
1 1:22.747707 2:25.598936 
1 1:1.8139131 2:1.9665877 
1 1:11.957649 2:34.248559 
1 1:24.304731 2:35.306902 
1 1:22.747707 2:25.598936 
1 1:1.8139131 2:1.9665877 
1 1:11.957649 2:34.248559 
1 1:24.304731 2:35.306902 
1 1:22.747707 2:25.598936 
1 1:1.8139131 2:1.9665877 
1 1:11.957649 2:34.248559 
1 1:24.304731 2:35.306902 
1 1:22.747707 2:25.598936 
1 1:1.8139131 2:1.9665877 
1 1:11.957649 2:34.248559 
1 1:24.304731 2:35.306902 
1 1:22.747707 2:25.598936 
1 1:1.8139131 2:1.9665877 
1 1:11.957649 2:34.248559 
1 1:24.304731 2:35.306902 
1 1:22.747707 2:25.598936 
1 1:1.8139131 2:1.9665877 
1 1:11.957649 2:34.248559 
1 1:24.304731 2:35.306902 
1 1:22.747707 2:25.598936 
1 1:1.8139131 2:1.9665877 
1 1:11.957649 2:34.248559 
1 1:24.304731 2:35.306902 
1 1:22.747707 2:25.598936 
1 1:1.8139131 2:1.9665877 
1 1:11.957649 2:34.248559 
1 1:24.304731 2:35.306902 
0.7208294730152077 1:22.747707 2:25.598936 
1 1:1.8139131 2:1.9665877 
0.9375812400954864 1:11.957649 2:34.248559 
0.9611758025697288 1:24.304731 2:35.306902 
1 1:31.626659 2:20.447744 
0.2014780199012806 1:41.257076 2:45.755851 
1 1:31.626659 2:20.447744 
1 1:41.257076 2:45.755851 
1 1:31.626659 2:20.447744 
1 1:41.257076 2:45.755851 
1 1:31.626659 2:20.447744 
1 1:41.257076 2:45.755851 
1 1:31.626659 2:20.447744 
1 1:41.257076 2:45.755851 
0.3719059812942671 1:26.169968 2:38.427534 
1 1:31.626659 2:20.447744 
1 1:41.257076 2:45.755851 
1 1:26.169968 2:38.427534 
1 1:31.626659 2:20.447744 
1 1:41.257076 2:45.755851 
1 1:26.169968 2:38.427534 
1 1:31.626659 2:20.447744 
1 1:41.257076 2:45.755851 
1 1:26.169968 2:38.427534 
1 1:31.626659 2:20.447744 
1 1:41.257076 2:45.755851 
1 1:26.169968 2:38.427534 
1 1:31.626659 2:20.447744 
1 1:41.257076 2:45.755851 
1 1:26.169968 2:38.427534 
1 1:31.626659 2:20.447744 
1 1:41.257076 2:45.755851 
1 1:26.169968 2:38.427534 
1 1:31.626659 2:20.447744 
1 1:41.257076 2:45.755851 
1 1:26.169968 2:38.427534 
1 1:31.626659 2:20.447744 
1 1:41.257076 2:45.755851 
1 1:26.169968 2:38.427534 
1 1:31.626659 2:20.447744 
1 1:41.257076 2:45.755851 
1 1:26.169968 2:38.427534 
1 1:31.626659 2:20.447744 
1 1:41.257076 2:45.755851 
1 1:18.483724 2:45.393469 
1 1:26.169968 2:38.427534 
1 1:31.626659 2:20.447744 
1 1:41.257076 2:45.755851 
1 1:18.483724 2:45.393469 
1 1:26.169968 2:38.427534 
1 1:31.626659 2:20.447744 
1 1:41.257076 2:45.755851 
1 1:18.483724 2:45.393469 
1 1:26.169968 2:38.427534 
1 1:31.626659 2:20.447744 
1 1:41.257076 2:45.755851 
1 1:18.483724 2:45.393469 
1 1:26.169968 2:38.427534 
1 1:31.626659 2:20.447744 
1 1:41.257076 2:45.755851 
1 1:18.483724 2:45.393469 
1 1:26.169968 2:38.427534 
1 1:31.626659 2:20.447744 
1 1:41.257076 2:45.755851 
1 1:18.483724 2:45.393469 
1 1:26.169968 2:38.427534 
1 1:31.626659 2:20.447744 
1 1:41.257076 2:45.755851 
1 1:18.483724 2:45.393469 
1 1:26.169968 2:38.427534 
1 1:31.626659 2:20.447744 
0.99500560700859 1:41.257076 2:45.755851 
0.7121350677583581 1:18.483724 2:45.393469 
1 1:26.169968 2:38.427534 
0.8339559898908866 1:31.626659 2:20.447744 
0.2593707972073549 1:35.650937 2:27.196822 
1 1:35.650937 2:27.196822 
1 1:35.650937 2:27.196822 
1 1:22.677132 2:44.043282 
1 1:35.650937 2:27.196822 
1 1:22.677132 2:44.043282 
1 1:35.650937 2:27.196822 
0.2593072484535272 1:20.56608 2:45.112651 
1 1:22.677132 2:44.043282 
1 1:35.650937 2:27.196822 
1 1:20.56608 2:45.112651 
1 1:22.677132 2:44.043282 
0.396039805260437 1:29.372041 2:20.407906 
1 1:35.650937 2:27.196822 
1 1:20.56608 2:45.112651 
1 1:22.677132 2:44.043282 
1 1:29.372041 2:20.407906 
1 1:35.650937 2:27.196822 
1 1:20.56608 2:45.112651 
1 1:22.677132 2:44.043282 
1 1:29.372041 2:20.407906 
1 1:35.650937 2:27.196822 
1 1:20.56608 2:45.112651 
1 1:22.677132 2:44.043282 
1 1:29.372041 2:20.407906 
1 1:35.650937 2:27.196822 
1 1:20.56608 2:45.112651 
1 1:22.677132 2:44.043282 
1 1:29.372041 2:20.407906 
1 1:35.650937 2:27.196822 
1 1:20.56608 2:45.112651 
1 1:22.677132 2:44.043282 
1 1:29.372041 2:20.407906 
1 1:35.650937 2:27.196822 
1 1:20.56608 2:45.112651 
1 1:22.677132 2:44.043282 
1 1:29.372041 2:20.407906 
1 1:35.650937 2:27.196822 
1 1:20.56608 2:45.112651 
1 1:22.677132 2:44.043282 
1 1:29.372041 2:20.407906 
1 1:35.650937 2:27.196822 
1 1:20.56608 2:45.112651 
1 1:22.677132 2:44.043282 
1 1:29.372041 2:20.407906 
1 1:35.650937 2:27.196822 
1 1:20.56608 2:45.112651 
1 1:22.677132 2:44.043282 
1 1:29.372041 2:20.407906 
1 1:35.650937 2:27.196822 
1 1:20.56608 2:45.112651 
1 1:22.677132 2:44.043282 
1 1:29.372041 2:20.407906 
1 1:35.650937 2:27.196822 
1 1:20.56608 2:45.112651 
1 1:22.677132 2:44.043282 
1 1:29.372041 2:20.407906 
1 1:35.650937 2:27.196822 
1 1:20.56608 2:45.112651 
1 1:22.677132 2:44.043282 
1 1:29.372041 2:20.407906 
1 1:35.650937 2:27.196822 
1 1:20.56608 2:45.112651 
1 1:22.677132 2:44.043282 
1 1:29.372041 2:20.407906 
1 1:35.650937 2:27.196822 
1 1:20.56608 2:45.112651 
1 1:22.677132 2:44.043282 
1 1:29.372041 2:20.407906 
1 1:35.650937 2:27.196822 
1 1:20.56608 2:45.112651 
1 1:22.677132 2:44.043282 
1 1:29.372041 2:20.407906 
1 1:35.650937 2:27.196822 
1 1:20.56608 2:45.112651 
1 1:22.677132 2:44.043282 
1 1:29.372041 2:20.407906 
1 1:35.650937 2:27.196822 
1 1:20.56608 2:45.112651 
1 1:22.677132 2:44.043282 
1 1:29.372041 2:20.407906 
1 1:35.650937 2:27.196822 
1 1:20.56608 2:45.112651 
1 1:22.677132 2:44.043282 
1 1:29.372041 2:20.407906 
0.9980290656159347 1:35.650937 2:27.196822 
0.9905180912925662 1:20.56608 2:45.112651 
0.8169891801309341 1:22.677132 2:44.043282 
0.9965551617342818 1:29.372041 2:20.407906 
1 1:97.410288 2:57.955558 
1 1:91.006232 2:51.306635 
1 1:228.49211 2:77.956796 
1 1:222.78393 2:128.55904 
1 1:97.410288 2:57.955558 
1 1:91.006232 2:51.306635 
0.7049949519586762 1:8.1161226 2:4.4892179 
1 1:228.49211 2:77.956796 
1 1:222.78393 2:128.55904 
1 1:97.410288 2:57.955558 
1 1:91.006232 2:51.306635 
1 1:8.1161226 2:4.4892179 
1 1:228.49211 2:77.956796 
1 1:222.78393 2:128.55904 
1 1:97.410288 2:57.955558 
1 1:91.006232 2:51.306635 
1 1:8.1161226 2:4.4892179 
1 1:228.49211 2:77.956796 
1 1:222.78393 2:128.55904 
1 1:97.410288 2:57.955558 
1 1:91.006232 2:51.306635 
1 1:8.1161226 2:4.4892179 
1 1:228.49211 2:77.956796 
1 1:222.78393 2:128.55904 
1 1:97.410288 2:57.955558 
1 1:91.006232 2:51.306635 
0.7984008145597491 1:8.1161226 2:4.4892179 
1 1:228.49211 2:77.956796 
1 1:222.78393 2:128.55904 
0.4999997264374869 1:247.88652 2:94.363577 
0.5788137287715305 1:263.5138 2:130.08424 
1 1:247.88652 2:94.363577 
1 1:263.5138 2:130.08424 
1 1:247.88652 2:94.363577 
1 1:263.5138 2:130.08424 
1 1:247.88652 2:94.363577 
1 1:263.5138 2:130.08424 
0.6115439227373685 1:42.002618 2:34.058179 
1 1:247.88652 2:94.363577 
1 1:263.5138 2:130.08424 
1 1:42.002618 2:34.058179 
1 1:247.88652 2:94.363577 
