svm_type one_class
kernel_type rbf
gamma 0.5
nr_class 2
total_sv 17587
rho 24.7025
SV
1 1:82.267899 2:119.03441 
1 1:26.641213 2:138.58709 
1 1:179.81639 2:153.21947 
1 1:54.901289 2:21.013909 
1 1:82.267899 2:119.03441 
1 1:26.641213 2:138.58709 
1 1:179.81639 2:153.21947 
1 1:54.901289 2:21.013909 
1 1:82.267899 2:119.03441 
1 1:26.641213 2:138.58709 
1 1:179.81639 2:153.21947 
1 1:54.901289 2:21.013909 
1 1:82.267899 2:119.03441 
1 1:26.641213 2:138.58709 
1 1:179.81639 2:153.21947 
1 1:54.901289 2:21.013909 
1 1:82.267899 2:119.03441 
1 1:26.641213 2:138.58709 
1 1:179.81639 2:153.21947 
1 1:54.901289 2:21.013909 
1 1:82.267899 2:119.03441 
1 1:26.641213 2:138.58709 
1 1:179.81639 2:153.21947 
1 1:54.901289 2:21.013909 
1 1:82.267899 2:119.03441 
1 1:26.641213 2:138.58709 
1 1:179.81639 2:153.21947 
1 1:54.901289 2:21.013909 
1 1:82.267899 2:119.03441 
1 1:26.641213 2:138.58709 
1 1:179.81639 2:153.21947 
1 1:54.901289 2:21.013909 
1 1:82.267899 2:119.03441 
1 1:26.641213 2:138.58709 
1 1:179.81639 2:153.21947 
1 1:54.901289 2:21.013909 
1 1:82.267899 2:119.03441 
1 1:26.641213 2:138.58709 
1 1:179.81639 2:153.21947 
1 1:54.901289 2:21.013909 
1 1:82.267899 2:119.03441 
1 1:26.641213 2:138.58709 
1 1:179.81639 2:153.21947 
1 1:54.901289 2:21.013909 
1 1:82.267899 2:119.03441 
1 1:26.641213 2:138.58709 
1 1:179.81639 2:153.21947 
1 1:54.901289 2:21.013909 
1 1:82.267899 2:119.03441 
1 1:26.641213 2:138.58709 
1 1:179.81639 2:153.21947 
1 1:54.901289 2:21.013909 
1 1:82.267899 2:119.03441 
1 1:26.641213 2:138.58709 
1 1:179.81639 2:153.21947 
1 1:54.901289 2:21.013909 
1 1:82.267899 2:119.03441 
0.5714792397551517 1:26.641213 2:138.58709 
1 1:179.81639 2:153.21947 
1 1:54.901289 2:21.013909 
1 1:82.267899 2:119.03441 
1 1:179.81639 2:153.21947 
1 1:54.901289 2:21.013909 
1 1:82.267899 2:119.03441 
0.3218930337223096 1:179.81639 2:153.21947 
1 1:54.901289 2:21.013909 
1 1:82.267899 2:119.03441 
1 1:54.901289 2:21.013909 
1 1:82.267899 2:119.03441 
1 1:54.901289 2:21.013909 
1 1:82.267899 2:119.03441 
1 1:54.901289 2:21.013909 
1 1:82.267899 2:119.03441 
0.01536376982836529 1:54.901289 2:21.013909 
1 1:82.267899 2:119.03441 
1 1:82.267899 2:119.03441 
1 1:82.267899 2:119.03441 
0.569900365513746 1:82.267899 2:119.03441 
0.1329434528544002 1:82.267899 2:119.03441 
0.065865862810222 1:26.641213 2:138.58709 
0.006889896613565226 1:179.81639 2:153.21947 
1 1:19.583548 2:12.972875 
1 1:87.913104 2:104.95562 
1 1:56.022308 2:103.08897 
1 1:264.5558 2:225.84727 
1 1:16.558386 2:23.41604 
1 1:19.583548 2:12.972875 
1 1:87.913104 2:104.95562 
1 1:56.022308 2:103.08897 
1 1:264.5558 2:225.84727 
1 1:16.558386 2:23.41604 
0.8327585774301893 1:19.583548 2:12.972875 
1 1:87.913104 2:104.95562 
1 1:56.022308 2:103.08897 
1 1:264.5558 2:225.84727 
1 1:16.558386 2:23.41604 
1 1:87.913104 2:104.95562 
1 1:56.022308 2:103.08897 
1 1:264.5558 2:225.84727 
1 1:16.558386 2:23.41604 
1 1:87.913104 2:104.95562 
1 1:56.022308 2:103.08897 
1 1:264.5558 2:225.84727 
1 1:16.558386 2:23.41604 
1 1:87.913104 2:104.95562 
1 1:56.022308 2:103.08897 
1 1:264.5558 2:225.84727 
1 1:16.558386 2:23.41604 
1 1:87.913104 2:104.95562 
1 1:56.022308 2:103.08897 
1 1:264.5558 2:225.84727 
1 1:16.558386 2:23.41604 
1 1:87.913104 2:104.95562 
1 1:56.022308 2:103.08897 
1 1:264.5558 2:225.84727 
1 1:16.558386 2:23.41604 
1 1:87.913104 2:104.95562 
1 1:56.022308 2:103.08897 
1 1:264.5558 2:225.84727 
1 1:16.558386 2:23.41604 
1 1:87.913104 2:104.95562 
1 1:56.022308 2:103.08897 
1 1:264.5558 2:225.84727 
0.2693888404383957 1:16.558386 2:23.41604 
1 1:87.913104 2:104.95562 
1 1:56.022308 2:103.08897 
1 1:264.5558 2:225.84727 
1 1:87.913104 2:104.95562 
1 1:56.022308 2:103.08897 
1 1:264.5558 2:225.84727 
1 1:87.913104 2:104.95562 
1 1:56.022308 2:103.08897 
1 1:264.5558 2:225.84727 
1 1:87.913104 2:104.95562 
1 1:56.022308 2:103.08897 
1 1:264.5558 2:225.84727 
1 1:87.913104 2:104.95562 
1 1:56.022308 2:103.08897 
1 1:264.5558 2:225.84727 
1 1:87.913104 2:104.95562 
1 1:56.022308 2:103.08897 
1 1:264.5558 2:225.84727 
1 1:87.913104 2:104.95562 
1 1:56.022308 2:103.08897 
1 1:264.5558 2:225.84727 
1 1:87.913104 2:104.95562 
1 1:56.022308 2:103.08897 
1 1:264.5558 2:225.84727 
1 1:87.913104 2:104.95562 
1 1:56.022308 2:103.08897 
1 1:264.5558 2:225.84727 
1 1:87.913104 2:104.95562 
1 1:56.022308 2:103.08897 
1 1:264.5558 2:225.84727 
1 1:87.913104 2:104.95562 
1 1:56.022308 2:103.08897 
1 1:264.5558 2:225.84727 
1 1:87.913104 2:104.95562 
1 1:56.022308 2:103.08897 
1 1:264.5558 2:225.84727 
1 1:87.913104 2:104.95562 
1 1:56.022308 2:103.08897 
1 1:264.5558 2:225.84727 
1 1:87.913104 2:104.95562 
1 1:56.022308 2:103.08897 
1 1:264.5558 2:225.84727 
0.49739993787008 1:87.913104 2:104.95562 
0.5159949451924764 1:56.022308 2:103.08897 
0.6643904758746606 1:264.5558 2:225.84727 
0.1915639508305347 1:87.913104 2:104.95562 
0.1867791487670409 1:56.022308 2:103.08897 
0.03843970311519662 1:264.5558 2:225.84727 
1 1:16.307939 2:15.054873 
1 1:95.116534 2:82.515292 
1 1:44.68616 2:52.686876 
1 1:80.175286 2:162.60135 
1 1:27.963739 2:11.644438 
1 1:16.307939 2:15.054873 
1 1:95.116534 2:82.515292 
1 1:44.68616 2:52.686876 
1 1:80.175286 2:162.60135 
1 1:27.963739 2:11.644438 
1 1:16.307939 2:15.054873 
1 1:95.116534 2:82.515292 
1 1:44.68616 2:52.686876 
1 1:80.175286 2:162.60135 
1 1:27.963739 2:11.644438 
1 1:16.307939 2:15.054873 
1 1:95.116534 2:82.515292 
1 1:44.68616 2:52.686876 
1 1:80.175286 2:162.60135 
1 1:27.963739 2:11.644438 
1 1:16.307939 2:15.054873 
1 1:95.116534 2:82.515292 
1 1:44.68616 2:52.686876 
1 1:80.175286 2:162.60135 
1 1:27.963739 2:11.644438 
1 1:16.307939 2:15.054873 
1 1:95.116534 2:82.515292 
1 1:44.68616 2:52.686876 
1 1:80.175286 2:162.60135 
1 1:27.963739 2:11.644438 
1 1:16.307939 2:15.054873 
1 1:95.116534 2:82.515292 
1 1:44.68616 2:52.686876 
1 1:80.175286 2:162.60135 
1 1:27.963739 2:11.644438 
1 1:16.307939 2:15.054873 
1 1:95.116534 2:82.515292 
1 1:44.68616 2:52.686876 
1 1:80.175286 2:162.60135 
1 1:27.963739 2:11.644438 
1 1:16.307939 2:15.054873 
1 1:95.116534 2:82.515292 
1 1:44.68616 2:52.686876 
1 1:80.175286 2:162.60135 
1 1:27.963739 2:11.644438 
1 1:16.307939 2:15.054873 
1 1:95.116534 2:82.515292 
1 1:44.68616 2:52.686876 
1 1:80.175286 2:162.60135 
1 1:27.963739 2:11.644438 
0.9053283259163656 1:16.307939 2:15.054873 
1 1:95.116534 2:82.515292 
1 1:44.68616 2:52.686876 
1 1:80.175286 2:162.60135 
1 1:27.963739 2:11.644438 
1 1:95.116534 2:82.515292 
1 1:44.68616 2:52.686876 
1 1:80.175286 2:162.60135 
1 1:27.963739 2:11.644438 
1 1:95.116534 2:82.515292 
1 1:44.68616 2:52.686876 
1 1:80.175286 2:162.60135 
1 1:27.963739 2:11.644438 
1 1:95.116534 2:82.515292 
1 1:44.68616 2:52.686876 
1 1:80.175286 2:162.60135 
1 1:27.963739 2:11.644438 
1 1:95.116534 2:82.515292 
1 1:44.68616 2:52.686876 
1 1:80.175286 2:162.60135 
1 1:27.963739 2:11.644438 
1 1:95.116534 2:82.515292 
1 1:44.68616 2:52.686876 
1 1:80.175286 2:162.60135 
0.2816700519588384 1:27.963739 2:11.644438 
1 1:95.116534 2:82.515292 
1 1:44.68616 2:52.686876 
1 1:80.175286 2:162.60135 
1 1:95.116534 2:82.515292 
1 1:44.68616 2:52.686876 
1 1:80.175286 2:162.60135 
1 1:95.116534 2:82.515292 
1 1:44.68616 2:52.686876 
1 1:80.175286 2:162.60135 
1 1:95.116534 2:82.515292 
1 1:44.68616 2:52.686876 
1 1:80.175286 2:162.60135 
1 1:95.116534 2:82.515292 
1 1:44.68616 2:52.686876 
1 1:80.175286 2:162.60135 
1 1:95.116534 2:82.515292 
1 1:44.68616 2:52.686876 
1 1:80.175286 2:162.60135 
1 1:95.116534 2:82.515292 
1 1:44.68616 2:52.686876 
1 1:80.175286 2:162.60135 
1 1:95.116534 2:82.515292 
1 1:44.68616 2:52.686876 
1 1:80.175286 2:162.60135 
0.4130266831715517 1:95.116534 2:82.515292 
0.36129487452639 1:44.68616 2:52.686876 
0.5872633774387381 1:80.175286 2:162.60135 
0.1182485588857762 1:95.116534 2:82.515292 
0.07715752745796145 1:44.68616 2:52.686876 
0.1151172881437734 1:80.175286 2:162.60135 
1 1:112.65021 2:63.676643 
1 1:33.769381 2:49.681049 
1 1:44.35543 2:145.86637 
1 1:112.65021 2:63.676643 
1 1:33.769381 2:49.681049 
1 1:44.35543 2:145.86637 
1 1:112.65021 2:63.676643 
1 1:33.769381 2:49.681049 
1 1:44.35543 2:145.86637 
1 1:112.65021 2:63.676643 
1 1:33.769381 2:49.681049 
1 1:44.35543 2:145.86637 
1 1:112.65021 2:63.676643 
1 1:33.769381 2:49.681049 
1 1:44.35543 2:145.86637 
1 1:112.65021 2:63.676643 
1 1:33.769381 2:49.681049 
1 1:44.35543 2:145.86637 
1 1:112.65021 2:63.676643 
1 1:33.769381 2:49.681049 
1 1:44.35543 2:145.86637 
1 1:112.65021 2:63.676643 
1 1:33.769381 2:49.681049 
1 1:44.35543 2:145.86637 
1 1:112.65021 2:63.676643 
1 1:33.769381 2:49.681049 
1 1:44.35543 2:145.86637 
1 1:112.65021 2:63.676643 
1 1:33.769381 2:49.681049 
1 1:44.35543 2:145.86637 
1 1:112.65021 2:63.676643 
1 1:33.769381 2:49.681049 
1 1:44.35543 2:145.86637 
1 1:112.65021 2:63.676643 
1 1:33.769381 2:49.681049 
1 1:44.35543 2:145.86637 
1 1:112.65021 2:63.676643 
1 1:33.769381 2:49.681049 
1 1:44.35543 2:145.86637 
1 1:112.65021 2:63.676643 
1 1:33.769381 2:49.681049 
1 1:44.35543 2:145.86637 
1 1:112.65021 2:63.676643 
1 1:33.769381 2:49.681049 
1 1:44.35543 2:145.86637 
1 1:112.65021 2:63.676643 
1 1:33.769381 2:49.681049 
1 1:44.35543 2:145.86637 
1 1:112.65021 2:63.676643 
1 1:33.769381 2:49.681049 
1 1:44.35543 2:145.86637 
1 1:112.65021 2:63.676643 
1 1:33.769381 2:49.681049 
1 1:44.35543 2:145.86637 
1 1:112.65021 2:63.676643 
1 1:33.769381 2:49.681049 
1 1:44.35543 2:145.86637 
1 1:112.65021 2:63.676643 
1 1:33.769381 2:49.681049 
1 1:44.35543 2:145.86637 
1 1:112.65021 2:63.676643 
1 1:33.769381 2:49.681049 
1 1:44.35543 2:145.86637 
1 1:112.65021 2:63.676643 
1 1:33.769381 2:49.681049 
1 1:44.35543 2:145.86637 
1 1:112.65021 2:63.676643 
1 1:33.769381 2:49.681049 
1 1:44.35543 2:145.86637 
1 1:112.65021 2:63.676643 
0.01092955619904501 1:33.769381 2:49.681049 
1 1:44.35543 2:145.86637 
0.5195574615494394 1:112.65021 2:63.676643 
0.6108505731625531 1:44.35543 2:145.86637 
0.1825076599491364 1:112.65021 2:63.676643 
0.0009660209921520391 1:33.769381 2:49.681049 
0.09150955097454094 1:44.35543 2:145.86637 
1 1:14.363181 2:21.921571 
1 1:71.206089 2:43.428748 
1 1:49.691479 2:66.672733 
1 1:70.352707 2:121.46008 
1 1:10.825033 2:16.24489 
1 1:14.363181 2:21.921571 
1 1:71.206089 2:43.428748 
1 1:49.691479 2:66.672733 
1 1:70.352707 2:121.46008 
1 1:14.363181 2:21.921571 
1 1:71.206089 2:43.428748 
1 1:49.691479 2:66.672733 
1 1:70.352707 2:121.46008 
1 1:14.363181 2:21.921571 
1 1:71.206089 2:43.428748 
1 1:49.691479 2:66.672733 
1 1:70.352707 2:121.46008 
1 1:14.363181 2:21.921571 
1 1:71.206089 2:43.428748 
1 1:49.691479 2:66.672733 
1 1:70.352707 2:121.46008 
1 1:14.363181 2:21.921571 
1 1:71.206089 2:43.428748 
1 1:49.691479 2:66.672733 
1 1:70.352707 2:121.46008 
1 1:14.363181 2:21.921571 
1 1:71.206089 2:43.428748 
1 1:49.691479 2:66.672733 
1 1:70.352707 2:121.46008 
1 1:14.363181 2:21.921571 
1 1:71.206089 2:43.428748 
1 1:49.691479 2:66.672733 
1 1:70.352707 2:121.46008 
1 1:14.363181 2:21.921571 
1 1:71.206089 2:43.428748 
1 1:49.691479 2:66.672733 
1 1:70.352707 2:121.46008 
1 1:14.363181 2:21.921571 
1 1:71.206089 2:43.428748 
1 1:49.691479 2:66.672733 
1 1:70.352707 2:121.46008 
1 1:14.363181 2:21.921571 
1 1:71.206089 2:43.428748 
1 1:49.691479 2:66.672733 
1 1:70.352707 2:121.46008 
1 1:14.363181 2:21.921571 
1 1:71.206089 2:43.428748 
1 1:49.691479 2:66.672733 
1 1:70.352707 2:121.46008 
1 1:14.363181 2:21.921571 
1 1:71.206089 2:43.428748 
1 1:49.691479 2:66.672733 
1 1:70.352707 2:121.46008 
1 1:71.206089 2:43.428748 
1 1:49.691479 2:66.672733 
1 1:70.352707 2:121.46008 
1 1:71.206089 2:43.428748 
1 1:49.691479 2:66.672733 
1 1:70.352707 2:121.46008 
1 1:71.206089 2:43.428748 
1 1:49.691479 2:66.672733 
0.3709542645471835 1:70.352707 2:121.46008 
1 1:71.206089 2:43.428748 
1 1:49.691479 2:66.672733 
1 1:71.206089 2:43.428748 
1 1:49.691479 2:66.672733 
1 1:71.206089 2:43.428748 
1 1:49.691479 2:66.672733 
1 1:71.206089 2:43.428748 
1 1:49.691479 2:66.672733 
1 1:71.206089 2:43.428748 
1 1:49.691479 2:66.672733 
1 1:71.206089 2:43.428748 
1 1:49.691479 2:66.672733 
1 1:71.206089 2:43.428748 
1 1:49.691479 2:66.672733 
1 1:71.206089 2:43.428748 
0.3534536047091184 1:49.691479 2:66.672733 
0.677198405608765 1:71.206089 2:43.428748 
0.5141772840538763 1:10.825033 2:16.24489 
1 1:10.825033 2:16.24489 
1 1:10.825033 2:16.24489 
1 1:10.825033 2:16.24489 
1 1:10.825033 2:16.24489 
1 1:10.825033 2:16.24489 
1 1:10.825033 2:16.24489 
1 1:10.825033 2:16.24489 
0.2643230815456968 1:10.825033 2:16.24489 
0.05230062705616245 1:14.363181 2:21.921571 
0.02551842209714472 1:71.206089 2:43.428748 
0.1351429255287542 1:49.691479 2:66.672733 
0.07172656423303003 1:70.352707 2:121.46008 
0.002151572480922988 1:10.825033 2:16.24489 
1 1:13.032338 2:27.435295 
1 1:49.397756 2:118.0772 
1 1:39.735383 2:120.25695 
1 1:65.030462 2:222.24249 
1 1:8.3092361 2:16.863216 
1 1:13.032338 2:27.435295 
1 1:49.397756 2:118.0772 
1 1:39.735383 2:120.25695 
1 1:65.030462 2:222.24249 
1 1:8.3092361 2:16.863216 
1 1:13.032338 2:27.435295 
1 1:49.397756 2:118.0772 
1 1:39.735383 2:120.25695 
1 1:65.030462 2:222.24249 
1 1:8.3092361 2:16.863216 
1 1:13.032338 2:27.435295 
1 1:49.397756 2:118.0772 
1 1:39.735383 2:120.25695 
1 1:65.030462 2:222.24249 
1 1:8.3092361 2:16.863216 
1 1:13.032338 2:27.435295 
1 1:49.397756 2:118.0772 
1 1:39.735383 2:120.25695 
1 1:65.030462 2:222.24249 
1 1:8.3092361 2:16.863216 
1 1:13.032338 2:27.435295 
1 1:49.397756 2:118.0772 
1 1:39.735383 2:120.25695 
1 1:65.030462 2:222.24249 
1 1:8.3092361 2:16.863216 
1 1:13.032338 2:27.435295 
1 1:49.397756 2:118.0772 
1 1:39.735383 2:120.25695 
1 1:65.030462 2:222.24249 
1 1:8.3092361 2:16.863216 
1 1:13.032338 2:27.435295 
1 1:49.397756 2:118.0772 
1 1:39.735383 2:120.25695 
1 1:65.030462 2:222.24249 
1 1:8.3092361 2:16.863216 
1 1:13.032338 2:27.435295 
1 1:49.397756 2:118.0772 
1 1:39.735383 2:120.25695 
1 1:65.030462 2:222.24249 
1 1:8.3092361 2:16.863216 
1 1:13.032338 2:27.435295 
1 1:49.397756 2:118.0772 
1 1:39.735383 2:120.25695 
1 1:65.030462 2:222.24249 
1 1:8.3092361 2:16.863216 
1 1:13.032338 2:27.435295 
1 1:49.397756 2:118.0772 
1 1:39.735383 2:120.25695 
1 1:65.030462 2:222.24249 
1 1:8.3092361 2:16.863216 
0.6830194151278208 1:13.032338 2:27.435295 
1 1:49.397756 2:118.0772 
1 1:39.735383 2:120.25695 
1 1:65.030462 2:222.24249 
1 1:8.3092361 2:16.863216 
1 1:49.397756 2:118.0772 
1 1:39.735383 2:120.25695 
1 1:65.030462 2:222.24249 
1 1:8.3092361 2:16.863216 
1 1:49.397756 2:118.0772 
1 1:39.735383 2:120.25695 
1 1:65.030462 2:222.24249 
1 1:49.397756 2:118.0772 
1 1:39.735383 2:120.25695 
1 1:65.030462 2:222.24249 
1 1:49.397756 2:118.0772 
1 1:39.735383 2:120.25695 
1 1:65.030462 2:222.24249 
1 1:49.397756 2:118.0772 
1 1:39.735383 2:120.25695 
1 1:65.030462 2:222.24249 
0.2393793492935865 1:49.397756 2:118.0772 
1 1:39.735383 2:120.25695 
1 1:65.030462 2:222.24249 
1 1:39.735383 2:120.25695 
1 1:65.030462 2:222.24249 
1 1:39.735383 2:120.25695 
1 1:65.030462 2:222.24249 
1 1:39.735383 2:120.25695 
1 1:65.030462 2:222.24249 
1 1:39.735383 2:120.25695 
1 1:65.030462 2:222.24249 
1 1:39.735383 2:120.25695 
1 1:65.030462 2:222.24249 
1 1:39.735383 2:120.25695 
1 1:65.030462 2:222.24249 
0.516643710314181 1:39.735383 2:120.25695 
0.6993439247312896 1:65.030462 2:222.24249 
0.1860873170296067 1:39.735383 2:120.25695 
0.002840486430867983 1:65.030462 2:222.24249 
0.6952046528532787 1:8.3092361 2:16.863216 
1 1:80.764372 2:112.12654 
1 1:44.545734 2:102.79525 
1 1:101.87476 2:101.28117 
1 1:20.805596 2:11.106898 
1 1:80.764372 2:112.12654 
1 1:44.545734 2:102.79525 
1 1:101.87476 2:101.28117 
1 1:20.805596 2:11.106898 
1 1:80.764372 2:112.12654 
1 1:44.545734 2:102.79525 
1 1:101.87476 2:101.28117 
1 1:20.805596 2:11.106898 
1 1:80.764372 2:112.12654 
1 1:44.545734 2:102.79525 
1 1:101.87476 2:101.28117 
0.01101850754165301 1:20.805596 2:11.106898 
1 1:80.764372 2:112.12654 
1 1:44.545734 2:102.79525 
1 1:101.87476 2:101.28117 
1 1:80.764372 2:112.12654 
1 1:44.545734 2:102.79525 
1 1:101.87476 2:101.28117 
1 1:80.764372 2:112.12654 
1 1:44.545734 2:102.79525 
1 1:101.87476 2:101.28117 
1 1:80.764372 2:112.12654 
1 1:44.545734 2:102.79525 
1 1:101.87476 2:101.28117 
1 1:80.764372 2:112.12654 
1 1:44.545734 2:102.79525 
1 1:101.87476 2:101.28117 
1 1:80.764372 2:112.12654 
1 1:44.545734 2:102.79525 
1 1:101.87476 2:101.28117 
1 1:80.764372 2:112.12654 
1 1:44.545734 2:102.79525 
1 1:101.87476 2:101.28117 
1 1:80.764372 2:112.12654 
1 1:44.545734 2:102.79525 
1 1:101.87476 2:101.28117 
1 1:80.764372 2:112.12654 
1 1:44.545734 2:102.79525 
1 1:101.87476 2:101.28117 
1 1:80.764372 2:112.12654 
1 1:44.545734 2:102.79525 
1 1:101.87476 2:101.28117 
1 1:80.764372 2:112.12654 
1 1:44.545734 2:102.79525 
1 1:101.87476 2:101.28117 
1 1:80.764372 2:112.12654 
1 1:44.545734 2:102.79525 
1 1:101.87476 2:101.28117 
1 1:80.764372 2:112.12654 
1 1:44.545734 2:102.79525 
1 1:101.87476 2:101.28117 
1 1:80.764372 2:112.12654 
1 1:44.545734 2:102.79525 
1 1:101.87476 2:101.28117 
1 1:80.764372 2:112.12654 
1 1:44.545734 2:102.79525 
1 1:101.87476 2:101.28117 
1 1:80.764372 2:112.12654 
1 1:44.545734 2:102.79525 
1 1:101.87476 2:101.28117 
1 1:80.764372 2:112.12654 
1 1:44.545734 2:102.79525 
1 1:101.87476 2:101.28117 
1 1:80.764372 2:112.12654 
1 1:44.545734 2:102.79525 
1 1:101.87476 2:101.28117 
1 1:80.764372 2:112.12654 
1 1:44.545734 2:102.79525 
1 1:101.87476 2:101.28117 
1 1:80.764372 2:112.12654 
1 1:44.545734 2:102.79525 
1 1:101.87476 2:101.28117 
0.405762757871635 1:80.764372 2:112.12654 
0.5722351902859888 1:44.545734 2:102.79525 
0.3448376270999489 1:101.87476 2:101.28117 
0.3749528364522305 1:19.755653 2:11.208226 
1 1:19.755653 2:11.208226 
1 1:19.755653 2:11.208226 
1 1:19.755653 2:11.208226 
1 1:19.755653 2:11.208226 
1 1:19.755653 2:11.208226 
1 1:19.755653 2:11.208226 
1 1:19.755653 2:11.208226 
1 1:19.755653 2:11.208226 
1 1:19.755653 2:11.208226 
1 1:19.755653 2:11.208226 
0.1037649692925342 1:80.764372 2:112.12654 
0.1305696114019561 1:44.545734 2:102.79525 
0.04427239463254473 1:101.87476 2:101.28117 
1 1:29.027842 2:5.5750022 
1 1:197.35581 2:82.795801 
1 1:115.82669 2:95.594392 
1 1:257.39682 2:124.07078 
1 1:37.94139 2:9.0894326 
1 1:29.027842 2:5.5750022 
1 1:197.35581 2:82.795801 
1 1:115.82669 2:95.594392 
1 1:257.39682 2:124.07078 
1 1:37.94139 2:9.0894326 
1 1:29.027842 2:5.5750022 
1 1:197.35581 2:82.795801 
1 1:115.82669 2:95.594392 
1 1:257.39682 2:124.07078 
1 1:37.94139 2:9.0894326 
1 1:29.027842 2:5.5750022 
1 1:197.35581 2:82.795801 
1 1:115.82669 2:95.594392 
1 1:257.39682 2:124.07078 
1 1:37.94139 2:9.0894326 
1 1:29.027842 2:5.5750022 
1 1:197.35581 2:82.795801 
1 1:115.82669 2:95.594392 
1 1:257.39682 2:124.07078 
1 1:37.94139 2:9.0894326 
1 1:29.027842 2:5.5750022 
1 1:197.35581 2:82.795801 
1 1:115.82669 2:95.594392 
1 1:257.39682 2:124.07078 
1 1:37.94139 2:9.0894326 
1 1:29.027842 2:5.5750022 
1 1:197.35581 2:82.795801 
1 1:115.82669 2:95.594392 
1 1:257.39682 2:124.07078 
1 1:37.94139 2:9.0894326 
1 1:29.027842 2:5.5750022 
1 1:197.35581 2:82.795801 
1 1:115.82669 2:95.594392 
1 1:257.39682 2:124.07078 
1 1:37.94139 2:9.0894326 
1 1:29.027842 2:5.5750022 
1 1:197.35581 2:82.795801 
1 1:115.82669 2:95.594392 
1 1:257.39682 2:124.07078 
1 1:37.94139 2:9.0894326 
1 1:29.027842 2:5.5750022 
1 1:197.35581 2:82.795801 
1 1:115.82669 2:95.594392 
1 1:257.39682 2:124.07078 
1 1:37.94139 2:9.0894326 
1 1:29.027842 2:5.5750022 
1 1:197.35581 2:82.795801 
1 1:115.82669 2:95.594392 
1 1:257.39682 2:124.07078 
1 1:37.94139 2:9.0894326 
1 1:29.027842 2:5.5750022 
1 1:197.35581 2:82.795801 
1 1:115.82669 2:95.594392 
1 1:257.39682 2:124.07078 
1 1:37.94139 2:9.0894326 
1 1:197.35581 2:82.795801 
1 1:115.82669 2:95.594392 
1 1:257.39682 2:124.07078 
1 1:37.94139 2:9.0894326 
1 1:197.35581 2:82.795801 
1 1:115.82669 2:95.594392 
1 1:257.39682 2:124.07078 
1 1:37.94139 2:9.0894326 
1 1:197.35581 2:82.795801 
1 1:115.82669 2:95.594392 
1 1:257.39682 2:124.07078 
1 1:37.94139 2:9.0894326 
1 1:197.35581 2:82.795801 
1 1:115.82669 2:95.594392 
1 1:257.39682 2:124.07078 
1 1:37.94139 2:9.0894326 
1 1:197.35581 2:82.795801 
1 1:115.82669 2:95.594392 
1 1:257.39682 2:124.07078 
1 1:37.94139 2:9.0894326 
1 1:197.35581 2:82.795801 
1 1:115.82669 2:95.594392 
1 1:257.39682 2:124.07078 
1 1:37.94139 2:9.0894326 
1 1:197.35581 2:82.795801 
1 1:115.82669 2:95.594392 
1 1:257.39682 2:124.07078 
1 1:37.94139 2:9.0894326 
1 1:197.35581 2:82.795801 
1 1:115.82669 2:95.594392 
1 1:257.39682 2:124.07078 
1 1:37.94139 2:9.0894326 
1 1:197.35581 2:82.795801 
1 1:115.82669 2:95.594392 
1 1:257.39682 2:124.07078 
0.1094114807589612 1:37.94139 2:9.0894326 
1 1:197.35581 2:82.795801 
1 1:115.82669 2:95.594392 
1 1:257.39682 2:124.07078 
1 1:197.35581 2:82.795801 
1 1:115.82669 2:95.594392 
1 1:257.39682 2:124.07078 
1 1:197.35581 2:82.795801 
1 1:115.82669 2:95.594392 
1 1:257.39682 2:124.07078 
0.5658967544224343 1:197.35581 2:82.795801 
0.4961578302596035 1:115.82669 2:95.594392 
0.2565315302422633 1:257.39682 2:124.07078 
0.2460526483704996 1:29.027842 2:5.5750022 
1 1:29.027842 2:5.5750022 
0.1368544051219036 1:197.35581 2:82.795801 
0.1913508433341811 1:115.82669 2:95.594392 
0.2189530195593115 1:257.39682 2:124.07078 
1 1:25.96725 2:11.484067 
1 1:110.90105 2:82.782614 
1 1:98.091866 2:105.81087 
1 1:140.1664 2:149.31539 
1 1:28.64051 2:14.021769 
1 1:25.96725 2:11.484067 
1 1:110.90105 2:82.782614 
1 1:98.091866 2:105.81087 
1 1:140.1664 2:149.31539 
1 1:28.64051 2:14.021769 
1 1:25.96725 2:11.484067 
1 1:110.90105 2:82.782614 
1 1:98.091866 2:105.81087 
1 1:140.1664 2:149.31539 
1 1:28.64051 2:14.021769 
1 1:25.96725 2:11.484067 
1 1:110.90105 2:82.782614 
1 1:98.091866 2:105.81087 
1 1:140.1664 2:149.31539 
1 1:28.64051 2:14.021769 
1 1:25.96725 2:11.484067 
1 1:110.90105 2:82.782614 
1 1:98.091866 2:105.81087 
1 1:140.1664 2:149.31539 
1 1:28.64051 2:14.021769 
1 1:25.96725 2:11.484067 
1 1:110.90105 2:82.782614 
1 1:98.091866 2:105.81087 
1 1:140.1664 2:149.31539 
1 1:28.64051 2:14.021769 
1 1:25.96725 2:11.484067 
1 1:110.90105 2:82.782614 
1 1:98.091866 2:105.81087 
1 1:140.1664 2:149.31539 
1 1:28.64051 2:14.021769 
1 1:25.96725 2:11.484067 
1 1:110.90105 2:82.782614 
1 1:98.091866 2:105.81087 
1 1:140.1664 2:149.31539 
0.359041272873337 1:28.64051 2:14.021769 
0.9465176619302953 1:25.96725 2:11.484067 
1 1:110.90105 2:82.782614 
1 1:98.091866 2:105.81087 
1 1:140.1664 2:149.31539 
1 1:110.90105 2:82.782614 
1 1:98.091866 2:105.81087 
1 1:140.1664 2:149.31539 
1 1:110.90105 2:82.782614 
1 1:98.091866 2:105.81087 
1 1:140.1664 2:149.31539 
1 1:110.90105 2:82.782614 
1 1:98.091866 2:105.81087 
1 1:140.1664 2:149.31539 
1 1:110.90105 2:82.782614 
1 1:98.091866 2:105.81087 
1 1:140.1664 2:149.31539 
1 1:110.90105 2:82.782614 
1 1:98.091866 2:105.81087 
1 1:140.1664 2:149.31539 
1 1:110.90105 2:82.782614 
1 1:98.091866 2:105.81087 
1 1:140.1664 2:149.31539 
1 1:110.90105 2:82.782614 
1 1:98.091866 2:105.81087 
1 1:140.1664 2:149.31539 
1 1:110.90105 2:82.782614 
1 1:98.091866 2:105.81087 
1 1:140.1664 2:149.31539 
1 1:110.90105 2:82.782614 
1 1:98.091866 2:105.81087 
1 1:140.1664 2:149.31539 
1 1:110.90105 2:82.782614 
1 1:98.091866 2:105.81087 
1 1:140.1664 2:149.31539 
1 1:110.90105 2:82.782614 
1 1:98.091866 2:105.81087 
1 1:140.1664 2:149.31539 
0.08134370032636795 1:110.90105 2:82.782614 
1 1:98.091866 2:105.81087 
1 1:140.1664 2:149.31539 
1 1:98.091866 2:105.81087 
1 1:140.1664 2:149.31539 
1 1:98.091866 2:105.81087 
1 1:140.1664 2:149.31539 
1 1:98.091866 2:105.81087 
0.8986857742297243 1:140.1664 2:149.31539 
0.5213413694255102 1:98.091866 2:105.81087 
0.03560391307360635 1:25.96725 2:11.484067 
0.1814785775278795 1:98.091866 2:105.81087 
0.01878456444212154 1:140.1664 2:149.31539 
0.003910529423677644 1:28.64051 2:14.021769 
1 1:10.387137 2:21.919333 
1 1:46.11093 2:57.049262 
1 1:39.041702 2:57.239056 
1 1:48.751647 2:123.32662 
1 1:14.345649 2:23.702864 
1 1:10.387137 2:21.919333 
1 1:46.11093 2:57.049262 
1 1:39.041702 2:57.239056 
1 1:48.751647 2:123.32662 
1 1:14.345649 2:23.702864 
1 1:10.387137 2:21.919333 
1 1:46.11093 2:57.049262 
1 1:39.041702 2:57.239056 
1 1:48.751647 2:123.32662 
1 1:14.345649 2:23.702864 
0.8356358176435176 1:10.387137 2:21.919333 
1 1:46.11093 2:57.049262 
1 1:39.041702 2:57.239056 
1 1:48.751647 2:123.32662 
1 1:14.345649 2:23.702864 
1 1:46.11093 2:57.049262 
1 1:39.041702 2:57.239056 
1 1:48.751647 2:123.32662 
1 1:14.345649 2:23.702864 
1 1:46.11093 2:57.049262 
1 1:39.041702 2:57.239056 
1 1:48.751647 2:123.32662 
1 1:14.345649 2:23.702864 
1 1:46.11093 2:57.049262 
1 1:39.041702 2:57.239056 
1 1:48.751647 2:123.32662 
1 1:14.345649 2:23.702864 
1 1:46.11093 2:57.049262 
1 1:39.041702 2:57.239056 
1 1:48.751647 2:123.32662 
1 1:14.345649 2:23.702864 
1 1:46.11093 2:57.049262 
1 1:39.041702 2:57.239056 
1 1:48.751647 2:123.32662 
1 1:14.345649 2:23.702864 
1 1:46.11093 2:57.049262 
1 1:39.041702 2:57.239056 
1 1:48.751647 2:123.32662 
1 1:14.345649 2:23.702864 
1 1:46.11093 2:57.049262 
1 1:39.041702 2:57.239056 
1 1:48.751647 2:123.32662 
1 1:14.345649 2:23.702864 
1 1:46.11093 2:57.049262 
1 1:39.041702 2:57.239056 
1 1:48.751647 2:123.32662 
0.1885237173500814 1:14.345649 2:23.702864 
1 1:46.11093 2:57.049262 
1 1:39.041702 2:57.239056 
1 1:48.751647 2:123.32662 
1 1:46.11093 2:57.049262 
1 1:39.041702 2:57.239056 
1 1:48.751647 2:123.32662 
1 1:46.11093 2:57.049262 
1 1:39.041702 2:57.239056 
1 1:48.751647 2:123.32662 
1 1:46.11093 2:57.049262 
1 1:39.041702 2:57.239056 
1 1:48.751647 2:123.32662 
1 1:46.11093 2:57.049262 
1 1:39.041702 2:57.239056 
1 1:48.751647 2:123.32662 
1 1:46.11093 2:57.049262 
1 1:39.041702 2:57.239056 
1 1:48.751647 2:123.32662 
1 1:46.11093 2:57.049262 
1 1:39.041702 2:57.239056 
1 1:48.751647 2:123.32662 
1 1:46.11093 2:57.049262 
1 1:39.041702 2:57.239056 
1 1:48.751647 2:123.32662 
1 1:46.11093 2:57.049262 
1 1:39.041702 2:57.239056 
1 1:48.751647 2:123.32662 
1 1:46.11093 2:57.049262 
1 1:39.041702 2:57.239056 
1 1:48.751647 2:123.32662 
1 1:46.11093 2:57.049262 
1 1:39.041702 2:57.239056 
1 1:48.751647 2:123.32662 
1 1:46.11093 2:57.049262 
1 1:39.041702 2:57.239056 
1 1:48.751647 2:123.32662 
0.5094153007796383 1:46.11093 2:57.049262 
0.5147706115297606 1:39.041702 2:57.239056 
0.4947397207929196 1:48.751647 2:123.32662 
0.001393642746511432 1:10.387137 2:21.919333 
0.1923631415110147 1:46.11093 2:57.049262 
0.1879744033133512 1:39.041702 2:57.239056 
0.190030360652333 1:48.751647 2:123.32662 
0.1318354285252947 1:14.345649 2:23.702864 
1 1:13.076372 2:16.959807 
1 1:87.741946 2:127.02439 
1 1:63.354702 2:121.55158 
1 1:37.282431 2:139.64536 
1 1:21.349042 2:27.524329 
1 1:13.076372 2:16.959807 
1 1:87.741946 2:127.02439 
1 1:63.354702 2:121.55158 
1 1:37.282431 2:139.64536 
1 1:21.349042 2:27.524329 
1 1:13.076372 2:16.959807 
1 1:87.741946 2:127.02439 
1 1:63.354702 2:121.55158 
1 1:37.282431 2:139.64536 
1 1:21.349042 2:27.524329 
1 1:13.076372 2:16.959807 
1 1:87.741946 2:127.02439 
1 1:63.354702 2:121.55158 
1 1:37.282431 2:139.64536 
1 1:21.349042 2:27.524329 
1 1:13.076372 2:16.959807 
1 1:87.741946 2:127.02439 
1 1:63.354702 2:121.55158 
1 1:37.282431 2:139.64536 
1 1:21.349042 2:27.524329 
1 1:13.076372 2:16.959807 
1 1:87.741946 2:127.02439 
1 1:63.354702 2:121.55158 
1 1:37.282431 2:139.64536 
1 1:21.349042 2:27.524329 
0.5950907280469026 1:13.076372 2:16.959807 
1 1:87.741946 2:127.02439 
1 1:63.354702 2:121.55158 
1 1:37.282431 2:139.64536 
1 1:21.349042 2:27.524329 
1 1:87.741946 2:127.02439 
1 1:63.354702 2:121.55158 
1 1:37.282431 2:139.64536 
1 1:21.349042 2:27.524329 
1 1:87.741946 2:127.02439 
1 1:63.354702 2:121.55158 
1 1:37.282431 2:139.64536 
1 1:21.349042 2:27.524329 
1 1:87.741946 2:127.02439 
1 1:63.354702 2:121.55158 
1 1:37.282431 2:139.64536 
1 1:21.349042 2:27.524329 
1 1:87.741946 2:127.02439 
1 1:63.354702 2:121.55158 
1 1:37.282431 2:139.64536 
1 1:21.349042 2:27.524329 
1 1:87.741946 2:127.02439 
1 1:63.354702 2:121.55158 
1 1:37.282431 2:139.64536 
1 1:21.349042 2:27.524329 
1 1:87.741946 2:127.02439 
1 1:63.354702 2:121.55158 
1 1:37.282431 2:139.64536 
1 1:21.349042 2:27.524329 
1 1:87.741946 2:127.02439 
1 1:63.354702 2:121.55158 
1 1:37.282431 2:139.64536 
1 1:21.349042 2:27.524329 
1 1:87.741946 2:127.02439 
1 1:63.354702 2:121.55158 
1 1:37.282431 2:139.64536 
1 1:21.349042 2:27.524329 
1 1:87.741946 2:127.02439 
1 1:63.354702 2:121.55158 
1 1:37.282431 2:139.64536 
1 1:21.349042 2:27.524329 
1 1:87.741946 2:127.02439 
1 1:63.354702 2:121.55158 
1 1:37.282431 2:139.64536 
1 1:21.349042 2:27.524329 
1 1:87.741946 2:127.02439 
1 1:63.354702 2:121.55158 
1 1:37.282431 2:139.64536 
1 1:21.349042 2:27.524329 
1 1:87.741946 2:127.02439 
1 1:63.354702 2:121.55158 
1 1:37.282431 2:139.64536 
1 1:21.349042 2:27.524329 
1 1:87.741946 2:127.02439 
1 1:63.354702 2:121.55158 
1 1:37.282431 2:139.64536 
1 1:21.349042 2:27.524329 
1 1:87.741946 2:127.02439 
1 1:63.354702 2:121.55158 
1 1:37.282431 2:139.64536 
1 1:21.349042 2:27.524329 
1 1:87.741946 2:127.02439 
1 1:63.354702 2:121.55158 
1 1:37.282431 2:139.64536 
0.8594177900847235 1:21.349042 2:27.524329 
1 1:87.741946 2:127.02439 
1 1:63.354702 2:121.55158 
1 1:37.282431 2:139.64536 
1 1:87.741946 2:127.02439 
1 1:63.354702 2:121.55158 
1 1:37.282431 2:139.64536 
0.4769950024389349 1:87.741946 2:127.02439 
0.5127330280107127 1:63.354702 2:121.55158 
0.4621221534106539 1:37.282431 2:139.64536 
0.1754126251712833 1:87.741946 2:127.02439 
0.1898440400418089 1:63.354702 2:121.55158 
0.2104465158491724 1:37.282431 2:139.64536 
1 1:13.212647 2:9.8155508 
1 1:120.391 2:127.53161 
1 1:101.15434 2:74.432469 
1 1:67.787312 2:76.117149 
1 1:33.66529 2:15.213369 
1 1:13.212647 2:9.8155508 
1 1:120.391 2:127.53161 
1 1:101.15434 2:74.432469 
1 1:67.787312 2:76.117149 
1 1:33.66529 2:15.213369 
1 1:13.212647 2:9.8155508 
1 1:120.391 2:127.53161 
1 1:101.15434 2:74.432469 
1 1:67.787312 2:76.117149 
1 1:33.66529 2:15.213369 
1 1:13.212647 2:9.8155508 
1 1:120.391 2:127.53161 
1 1:101.15434 2:74.432469 
1 1:67.787312 2:76.117149 
1 1:33.66529 2:15.213369 
1 1:13.212647 2:9.8155508 
1 1:120.391 2:127.53161 
1 1:101.15434 2:74.432469 
1 1:67.787312 2:76.117149 
1 1:33.66529 2:15.213369 
1 1:13.212647 2:9.8155508 
1 1:120.391 2:127.53161 
1 1:101.15434 2:74.432469 
1 1:67.787312 2:76.117149 
1 1:33.66529 2:15.213369 
1 1:13.212647 2:9.8155508 
1 1:120.391 2:127.53161 
1 1:101.15434 2:74.432469 
1 1:67.787312 2:76.117149 
1 1:33.66529 2:15.213369 
0.5038125338861741 1:13.212647 2:9.8155508 
1 1:120.391 2:127.53161 
1 1:101.15434 2:74.432469 
1 1:67.787312 2:76.117149 
1 1:33.66529 2:15.213369 
1 1:120.391 2:127.53161 
1 1:101.15434 2:74.432469 
1 1:67.787312 2:76.117149 
1 1:33.66529 2:15.213369 
1 1:120.391 2:127.53161 
1 1:101.15434 2:74.432469 
1 1:67.787312 2:76.117149 
1 1:33.66529 2:15.213369 
1 1:120.391 2:127.53161 
1 1:101.15434 2:74.432469 
1 1:67.787312 2:76.117149 
1 1:33.66529 2:15.213369 
1 1:120.391 2:127.53161 
1 1:101.15434 2:74.432469 
1 1:67.787312 2:76.117149 
1 1:33.66529 2:15.213369 
1 1:120.391 2:127.53161 
1 1:101.15434 2:74.432469 
1 1:67.787312 2:76.117149 
1 1:33.66529 2:15.213369 
1 1:120.391 2:127.53161 
1 1:101.15434 2:74.432469 
1 1:67.787312 2:76.117149 
1 1:33.66529 2:15.213369 
1 1:120.391 2:127.53161 
1 1:101.15434 2:74.432469 
1 1:67.787312 2:76.117149 
1 1:33.66529 2:15.213369 
1 1:120.391 2:127.53161 
1 1:101.15434 2:74.432469 
1 1:67.787312 2:76.117149 
1 1:33.66529 2:15.213369 
1 1:120.391 2:127.53161 
1 1:101.15434 2:74.432469 
1 1:67.787312 2:76.117149 
1 1:33.66529 2:15.213369 
1 1:120.391 2:127.53161 
1 1:101.15434 2:74.432469 
1 1:67.787312 2:76.117149 
1 1:33.66529 2:15.213369 
1 1:120.391 2:127.53161 
1 1:101.15434 2:74.432469 
1 1:67.787312 2:76.117149 
1 1:33.66529 2:15.213369 
1 1:120.391 2:127.53161 
1 1:101.15434 2:74.432469 
0.4499350907437929 1:67.787312 2:76.117149 
1 1:33.66529 2:15.213369 
1 1:120.391 2:127.53161 
1 1:101.15434 2:74.432469 
1 1:33.66529 2:15.213369 
1 1:120.391 2:127.53161 
1 1:101.15434 2:74.432469 
1 1:33.66529 2:15.213369 
1 1:120.391 2:127.53161 
1 1:101.15434 2:74.432469 
0.9783332536566118 1:33.66529 2:15.213369 
1 1:120.391 2:127.53161 
1 1:101.15434 2:74.432469 
0.5033426496681539 1:120.391 2:127.53161 
0.6999591783192955 1:101.15434 2:74.432469 
0.00884463027543976 1:13.212647 2:9.8155508 
0.1925573341599929 1:120.391 2:127.53161 
0.002062986699662872 1:101.15434 2:74.432469 
0.1038790063776948 1:67.787312 2:76.117149 
1 1:18.315192 2:10.058169 
1 1:32.620648 2:66.40519 
1 1:86.288727 2:100.39392 
1 1:23.225667 2:69.143646 
1 1:18.315192 2:10.058169 
1 1:32.620648 2:66.40519 
1 1:86.288727 2:100.39392 
1 1:23.225667 2:69.143646 
1 1:18.315192 2:10.058169 
1 1:32.620648 2:66.40519 
1 1:86.288727 2:100.39392 
1 1:23.225667 2:69.143646 
1 1:18.315192 2:10.058169 
1 1:32.620648 2:66.40519 
1 1:86.288727 2:100.39392 
1 1:23.225667 2:69.143646 
1 1:18.315192 2:10.058169 
1 1:32.620648 2:66.40519 
1 1:86.288727 2:100.39392 
1 1:23.225667 2:69.143646 
1 1:18.315192 2:10.058169 
1 1:32.620648 2:66.40519 
1 1:86.288727 2:100.39392 
1 1:23.225667 2:69.143646 
1 1:18.315192 2:10.058169 
1 1:32.620648 2:66.40519 
1 1:86.288727 2:100.39392 
1 1:23.225667 2:69.143646 
1 1:18.315192 2:10.058169 
1 1:32.620648 2:66.40519 
1 1:86.288727 2:100.39392 
1 1:23.225667 2:69.143646 
1 1:18.315192 2:10.058169 
1 1:32.620648 2:66.40519 
1 1:86.288727 2:100.39392 
1 1:23.225667 2:69.143646 
1 1:18.315192 2:10.058169 
1 1:32.620648 2:66.40519 
1 1:86.288727 2:100.39392 
1 1:23.225667 2:69.143646 
1 1:18.315192 2:10.058169 
1 1:32.620648 2:66.40519 
1 1:86.288727 2:100.39392 
1 1:23.225667 2:69.143646 
1 1:18.315192 2:10.058169 
1 1:32.620648 2:66.40519 
1 1:86.288727 2:100.39392 
1 1:23.225667 2:69.143646 
1 1:18.315192 2:10.058169 
1 1:32.620648 2:66.40519 
1 1:86.288727 2:100.39392 
1 1:23.225667 2:69.143646 
1 1:18.315192 2:10.058169 
1 1:32.620648 2:66.40519 
1 1:86.288727 2:100.39392 
1 1:23.225667 2:69.143646 
1 1:18.315192 2:10.058169 
1 1:32.620648 2:66.40519 
1 1:86.288727 2:100.39392 
1 1:23.225667 2:69.143646 
1 1:18.315192 2:10.058169 
1 1:32.620648 2:66.40519 
1 1:86.288727 2:100.39392 
1 1:23.225667 2:69.143646 
0.6319356679903347 1:18.315192 2:10.058169 
1 1:32.620648 2:66.40519 
1 1:86.288727 2:100.39392 
1 1:23.225667 2:69.143646 
1 1:32.620648 2:66.40519 
1 1:86.288727 2:100.39392 
1 1:23.225667 2:69.143646 
1 1:32.620648 2:66.40519 
1 1:86.288727 2:100.39392 
1 1:23.225667 2:69.143646 
1 1:32.620648 2:66.40519 
1 1:86.288727 2:100.39392 
1 1:23.225667 2:69.143646 
1 1:32.620648 2:66.40519 
1 1:86.288727 2:100.39392 
1 1:23.225667 2:69.143646 
1 1:32.620648 2:66.40519 
1 1:86.288727 2:100.39392 
1 1:23.225667 2:69.143646 
1 1:32.620648 2:66.40519 
1 1:86.288727 2:100.39392 
1 1:23.225667 2:69.143646 
1 1:32.620648 2:66.40519 
1 1:86.288727 2:100.39392 
1 1:23.225667 2:69.143646 
0.2280475657708187 1:32.620648 2:66.40519 
0.4439177456974007 1:86.288727 2:100.39392 
0.5376083519300288 1:23.225667 2:69.143646 
0.1653099459848626 1:23.225667 2:69.143646 
0.2335438483716108 1:18.315192 2:10.058169 
0.07651055891163949 1:32.620648 2:66.40519 
0.1419425848299234 1:86.288727 2:100.39392 
1 1:60.151042 2:99.895414 
1 1:43.075182 2:50.250223 
1 1:42.785679 2:86.864532 
1 1:60.151042 2:99.895414 
1 1:43.075182 2:50.250223 
1 1:42.785679 2:86.864532 
1 1:60.151042 2:99.895414 
1 1:43.075182 2:50.250223 
1 1:42.785679 2:86.864532 
1 1:60.151042 2:99.895414 
1 1:43.075182 2:50.250223 
1 1:42.785679 2:86.864532 
1 1:60.151042 2:99.895414 
1 1:43.075182 2:50.250223 
1 1:42.785679 2:86.864532 
1 1:60.151042 2:99.895414 
1 1:43.075182 2:50.250223 
1 1:42.785679 2:86.864532 
1 1:60.151042 2:99.895414 
1 1:43.075182 2:50.250223 
1 1:42.785679 2:86.864532 
1 1:60.151042 2:99.895414 
1 1:43.075182 2:50.250223 
1 1:42.785679 2:86.864532 
1 1:60.151042 2:99.895414 
1 1:43.075182 2:50.250223 
1 1:42.785679 2:86.864532 
1 1:60.151042 2:99.895414 
1 1:43.075182 2:50.250223 
1 1:42.785679 2:86.864532 
1 1:60.151042 2:99.895414 
1 1:43.075182 2:50.250223 
1 1:42.785679 2:86.864532 
1 1:60.151042 2:99.895414 
1 1:43.075182 2:50.250223 
1 1:42.785679 2:86.864532 
1 1:60.151042 2:99.895414 
0.5371040308295468 1:43.075182 2:50.250223 
1 1:42.785679 2:86.864532 
1 1:60.151042 2:99.895414 
1 1:42.785679 2:86.864532 
0.5000876933687826 1:60.151042 2:99.895414 
1 1:42.785679 2:86.864532 
1 1:42.785679 2:86.864532 
1 1:42.785679 2:86.864532 
1 1:42.785679 2:86.864532 
1 1:42.785679 2:86.864532 
1 1:42.785679 2:86.864532 
1 1:42.785679 2:86.864532 
1 1:42.785679 2:86.864532 
1 1:42.785679 2:86.864532 
1 1:42.785679 2:86.864532 
0.5376404215468824 1:42.785679 2:86.864532 
0.002635877867890606 1:43.075182 2:50.250223 
0.1651674828139882 1:42.785679 2:86.864532 
0.04321179360385122 1:60.151042 2:99.895414 
1 1:71.590529 2:70.733036 
1 1:93.107405 2:80.088068 
1 1:92.457937 2:107.49243 
1 1:8.1052551 2:8.784243 
1 1:15.52483 2:11.624065 
1 1:71.590529 2:70.733036 
1 1:93.107405 2:80.088068 
1 1:92.457937 2:107.49243 
0.04661484671394343 1:8.1052551 2:8.784243 
1 1:15.52483 2:11.624065 
1 1:71.590529 2:70.733036 
1 1:93.107405 2:80.088068 
1 1:92.457937 2:107.49243 
1 1:15.52483 2:11.624065 
1 1:71.590529 2:70.733036 
1 1:93.107405 2:80.088068 
1 1:92.457937 2:107.49243 
1 1:15.52483 2:11.624065 
1 1:71.590529 2:70.733036 
1 1:93.107405 2:80.088068 
1 1:92.457937 2:107.49243 
1 1:15.52483 2:11.624065 
1 1:71.590529 2:70.733036 
1 1:93.107405 2:80.088068 
1 1:92.457937 2:107.49243 
1 1:15.52483 2:11.624065 
1 1:71.590529 2:70.733036 
1 1:93.107405 2:80.088068 
1 1:92.457937 2:107.49243 
1 1:15.52483 2:11.624065 
1 1:71.590529 2:70.733036 
1 1:93.107405 2:80.088068 
1 1:92.457937 2:107.49243 
1 1:15.52483 2:11.624065 
1 1:71.590529 2:70.733036 
1 1:93.107405 2:80.088068 
1 1:92.457937 2:107.49243 
1 1:71.590529 2:70.733036 
1 1:93.107405 2:80.088068 
1 1:92.457937 2:107.49243 
1 1:71.590529 2:70.733036 
1 1:93.107405 2:80.088068 
1 1:92.457937 2:107.49243 
1 1:71.590529 2:70.733036 
1 1:93.107405 2:80.088068 
1 1:92.457937 2:107.49243 
1 1:71.590529 2:70.733036 
1 1:93.107405 2:80.088068 
1 1:92.457937 2:107.49243 
1 1:71.590529 2:70.733036 
1 1:93.107405 2:80.088068 
1 1:92.457937 2:107.49243 
1 1:71.590529 2:70.733036 
1 1:93.107405 2:80.088068 
1 1:92.457937 2:107.49243 
1 1:71.590529 2:70.733036 
1 1:93.107405 2:80.088068 
1 1:92.457937 2:107.49243 
1 1:71.590529 2:70.733036 
1 1:93.107405 2:80.088068 
1 1:92.457937 2:107.49243 
1 1:71.590529 2:70.733036 
1 1:93.107405 2:80.088068 
1 1:92.457937 2:107.49243 
1 1:71.590529 2:70.733036 
1 1:93.107405 2:80.088068 
1 1:92.457937 2:107.49243 
1 1:71.590529 2:70.733036 
1 1:93.107405 2:80.088068 
1 1:92.457937 2:107.49243 
1 1:71.590529 2:70.733036 
1 1:93.107405 2:80.088068 
1 1:92.457937 2:107.49243 
1 1:71.590529 2:70.733036 
1 1:93.107405 2:80.088068 
1 1:92.457937 2:107.49243 
1 1:71.590529 2:70.733036 
1 1:93.107405 2:80.088068 
1 1:92.457937 2:107.49243 
1 1:71.590529 2:70.733036 
1 1:93.107405 2:80.088068 
1 1:92.457937 2:107.49243 
0.478720656009882 1:71.590529 2:70.733036 
0.4151274309230857 1:93.107405 2:80.088068 
0.51697957005854 1:92.457937 2:107.49243 
0.1997058060557615 1:15.52483 2:11.624065 
0.1754616964444384 1:71.590529 2:70.733036 
0.1159273560488305 1:93.107405 2:80.088068 
0.1858086417197815 1:92.457937 2:107.49243 
1 1:30.66764 2:9.2966135 
1 1:68.265639 2:53.863631 
1 1:82.745228 2:81.129497 
1 1:74.546832 2:115.02342 
1 1:30.66764 2:9.2966135 
1 1:68.265639 2:53.863631 
1 1:82.745228 2:81.129497 
1 1:74.546832 2:115.02342 
1 1:30.66764 2:9.2966135 
1 1:68.265639 2:53.863631 
1 1:82.745228 2:81.129497 
1 1:74.546832 2:115.02342 
1 1:30.66764 2:9.2966135 
1 1:68.265639 2:53.863631 
1 1:82.745228 2:81.129497 
1 1:74.546832 2:115.02342 
1 1:30.66764 2:9.2966135 
1 1:68.265639 2:53.863631 
1 1:82.745228 2:81.129497 
1 1:74.546832 2:115.02342 
1 1:30.66764 2:9.2966135 
1 1:68.265639 2:53.863631 
1 1:82.745228 2:81.129497 
1 1:74.546832 2:115.02342 
1 1:30.66764 2:9.2966135 
1 1:68.265639 2:53.863631 
1 1:82.745228 2:81.129497 
1 1:74.546832 2:115.02342 
1 1:30.66764 2:9.2966135 
1 1:68.265639 2:53.863631 
1 1:82.745228 2:81.129497 
1 1:74.546832 2:115.02342 
1 1:30.66764 2:9.2966135 
1 1:68.265639 2:53.863631 
1 1:82.745228 2:81.129497 
1 1:74.546832 2:115.02342 
1 1:30.66764 2:9.2966135 
1 1:68.265639 2:53.863631 
1 1:82.745228 2:81.129497 
1 1:74.546832 2:115.02342 
1 1:30.66764 2:9.2966135 
1 1:68.265639 2:53.863631 
1 1:82.745228 2:81.129497 
1 1:74.546832 2:115.02342 
1 1:30.66764 2:9.2966135 
1 1:68.265639 2:53.863631 
1 1:82.745228 2:81.129497 
1 1:74.546832 2:115.02342 
1 1:30.66764 2:9.2966135 
1 1:68.265639 2:53.863631 
1 1:82.745228 2:81.129497 
1 1:74.546832 2:115.02342 
1 1:30.66764 2:9.2966135 
1 1:68.265639 2:53.863631 
1 1:82.745228 2:81.129497 
1 1:74.546832 2:115.02342 
1 1:30.66764 2:9.2966135 
1 1:68.265639 2:53.863631 
1 1:82.745228 2:81.129497 
1 1:74.546832 2:115.02342 
1 1:30.66764 2:9.2966135 
1 1:68.265639 2:53.863631 
1 1:82.745228 2:81.129497 
1 1:74.546832 2:115.02342 
1 1:30.66764 2:9.2966135 
1 1:68.265639 2:53.863631 
1 1:82.745228 2:81.129497 
1 1:74.546832 2:115.02342 
0.2858745223247262 1:30.66764 2:9.2966135 
1 1:68.265639 2:53.863631 
1 1:82.745228 2:81.129497 
1 1:74.546832 2:115.02342 
1 1:68.265639 2:53.863631 
1 1:82.745228 2:81.129497 
1 1:74.546832 2:115.02342 
1 1:68.265639 2:53.863631 
1 1:82.745228 2:81.129497 
1 1:74.546832 2:115.02342 
1 1:68.265639 2:53.863631 
1 1:82.745228 2:81.129497 
1 1:74.546832 2:115.02342 
1 1:68.265639 2:53.863631 
1 1:82.745228 2:81.129497 
0.1444658417739344 1:74.546832 2:115.02342 
1 1:68.265639 2:53.863631 
1 1:82.745228 2:81.129497 
1 1:68.265639 2:53.863631 
0.4730349756558878 1:82.745228 2:81.129497 
0.5079689651500559 1:68.265639 2:53.863631 
0.1937719340886801 1:68.265639 2:53.863631 
0.0006337142354837511 1:82.745228 2:81.129497 
0.02628303008897603 1:74.546832 2:115.02342 
1 1:144.25689 2:55.127088 
1 1:63.186189 2:81.951168 
1 1:154.48226 2:124.65224 
1 1:5.7793362 2:19.192512 
1 1:144.25689 2:55.127088 
1 1:63.186189 2:81.951168 
1 1:154.48226 2:124.65224 
1 1:5.7793362 2:19.192512 
1 1:144.25689 2:55.127088 
1 1:63.186189 2:81.951168 
1 1:154.48226 2:124.65224 
1 1:5.7793362 2:19.192512 
1 1:144.25689 2:55.127088 
1 1:63.186189 2:81.951168 
1 1:154.48226 2:124.65224 
1 1:5.7793362 2:19.192512 
1 1:144.25689 2:55.127088 
1 1:63.186189 2:81.951168 
1 1:154.48226 2:124.65224 
1 1:5.7793362 2:19.192512 
1 1:144.25689 2:55.127088 
1 1:63.186189 2:81.951168 
1 1:154.48226 2:124.65224 
1 1:5.7793362 2:19.192512 
1 1:144.25689 2:55.127088 
1 1:63.186189 2:81.951168 
1 1:154.48226 2:124.65224 
1 1:5.7793362 2:19.192512 
1 1:144.25689 2:55.127088 
1 1:63.186189 2:81.951168 
1 1:154.48226 2:124.65224 
1 1:5.7793362 2:19.192512 
1 1:144.25689 2:55.127088 
1 1:63.186189 2:81.951168 
1 1:154.48226 2:124.65224 
1 1:5.7793362 2:19.192512 
1 1:144.25689 2:55.127088 
1 1:63.186189 2:81.951168 
1 1:154.48226 2:124.65224 
1 1:5.7793362 2:19.192512 
1 1:144.25689 2:55.127088 
1 1:63.186189 2:81.951168 
1 1:154.48226 2:124.65224 
1 1:5.7793362 2:19.192512 
1 1:144.25689 2:55.127088 
1 1:63.186189 2:81.951168 
1 1:154.48226 2:124.65224 
1 1:5.7793362 2:19.192512 
1 1:144.25689 2:55.127088 
1 1:63.186189 2:81.951168 
1 1:154.48226 2:124.65224 
1 1:5.7793362 2:19.192512 
1 1:144.25689 2:55.127088 
1 1:63.186189 2:81.951168 
1 1:154.48226 2:124.65224 
1 1:5.7793362 2:19.192512 
1 1:144.25689 2:55.127088 
0.6428749733354515 1:63.186189 2:81.951168 
1 1:154.48226 2:124.65224 
0.6776473476945387 1:5.7793362 2:19.192512 
1 1:144.25689 2:55.127088 
1 1:154.48226 2:124.65224 
1 1:144.25689 2:55.127088 
1 1:154.48226 2:124.65224 
1 1:144.25689 2:55.127088 
1 1:154.48226 2:124.65224 
1 1:144.25689 2:55.127088 
1 1:154.48226 2:124.65224 
1 1:144.25689 2:55.127088 
1 1:154.48226 2:124.65224 
1 1:144.25689 2:55.127088 
1 1:154.48226 2:124.65224 
1 1:144.25689 2:55.127088 
1 1:154.48226 2:124.65224 
1 1:144.25689 2:55.127088 
1 1:154.48226 2:124.65224 
1 1:144.25689 2:55.127088 
1 1:154.48226 2:124.65224 
0.6774353532936317 1:144.25689 2:55.127088 
0.5308008473924577 1:154.48226 2:124.65224 
0.02546784525600643 1:144.25689 2:55.127088 
0.002354695510525761 1:63.186189 2:81.951168 
0.171980706077008 1:154.48226 2:124.65224 
0.001545730315008598 1:5.7793362 2:19.192512 
1 1:20.083389 2:8.4057063 
1 1:104.20099 2:36.121017 
1 1:49.449755 2:64.250465 
1 1:83.950107 2:86.555124 
1 1:20.083389 2:8.4057063 
1 1:104.20099 2:36.121017 
1 1:49.449755 2:64.250465 
1 1:83.950107 2:86.555124 
1 1:20.083389 2:8.4057063 
1 1:104.20099 2:36.121017 
1 1:49.449755 2:64.250465 
1 1:83.950107 2:86.555124 
1 1:20.083389 2:8.4057063 
1 1:104.20099 2:36.121017 
1 1:49.449755 2:64.250465 
1 1:83.950107 2:86.555124 
1 1:20.083389 2:8.4057063 
1 1:104.20099 2:36.121017 
1 1:49.449755 2:64.250465 
1 1:83.950107 2:86.555124 
1 1:20.083389 2:8.4057063 
1 1:104.20099 2:36.121017 
1 1:49.449755 2:64.250465 
1 1:83.950107 2:86.555124 
1 1:20.083389 2:8.4057063 
1 1:104.20099 2:36.121017 
1 1:49.449755 2:64.250465 
1 1:83.950107 2:86.555124 
1 1:20.083389 2:8.4057063 
1 1:104.20099 2:36.121017 
1 1:49.449755 2:64.250465 
1 1:83.950107 2:86.555124 
1 1:20.083389 2:8.4057063 
1 1:104.20099 2:36.121017 
1 1:49.449755 2:64.250465 
1 1:83.950107 2:86.555124 
1 1:20.083389 2:8.4057063 
1 1:104.20099 2:36.121017 
1 1:49.449755 2:64.250465 
1 1:83.950107 2:86.555124 
1 1:20.083389 2:8.4057063 
1 1:104.20099 2:36.121017 
1 1:49.449755 2:64.250465 
1 1:83.950107 2:86.555124 
1 1:20.083389 2:8.4057063 
1 1:104.20099 2:36.121017 
1 1:49.449755 2:64.250465 
1 1:83.950107 2:86.555124 
1 1:20.083389 2:8.4057063 
1 1:104.20099 2:36.121017 
1 1:49.449755 2:64.250465 
1 1:83.950107 2:86.555124 
1 1:20.083389 2:8.4057063 
1 1:104.20099 2:36.121017 
1 1:49.449755 2:64.250465 
1 1:83.950107 2:86.555124 
1 1:20.083389 2:8.4057063 
1 1:104.20099 2:36.121017 
1 1:49.449755 2:64.250465 
1 1:83.950107 2:86.555124 
1 1:20.083389 2:8.4057063 
1 1:104.20099 2:36.121017 
1 1:49.449755 2:64.250465 
1 1:83.950107 2:86.555124 
1 1:20.083389 2:8.4057063 
1 1:104.20099 2:36.121017 
1 1:49.449755 2:64.250465 
1 1:83.950107 2:86.555124 
1 1:104.20099 2:36.121017 
1 1:49.449755 2:64.250465 
1 1:83.950107 2:86.555124 
1 1:104.20099 2:36.121017 
1 1:49.449755 2:64.250465 
1 1:83.950107 2:86.555124 
1 1:104.20099 2:36.121017 
1 1:49.449755 2:64.250465 
1 1:83.950107 2:86.555124 
1 1:104.20099 2:36.121017 
1 1:49.449755 2:64.250465 
1 1:83.950107 2:86.555124 
1 1:104.20099 2:36.121017 
1 1:49.449755 2:64.250465 
1 1:83.950107 2:86.555124 
1 1:104.20099 2:36.121017 
1 1:49.449755 2:64.250465 
1 1:83.950107 2:86.555124 
1 1:104.20099 2:36.121017 
0.3730215917518258 1:49.449755 2:64.250465 
0.8711350479594149 1:83.950107 2:86.555124 
0.2434422706963488 1:104.20099 2:36.121017 
0.04463127559659922 1:20.083389 2:8.4057063 
0.1857886289999833 1:104.20099 2:36.121017 
0.1012691496755505 1:49.449755 2:64.250465 
0.009764662974038914 1:83.950107 2:86.555124 
1 1:9.0321273 2:15.595518 
1 1:30.812006 2:155.37658 
1 1:25.880013 2:138.99911 
1 1:53.009247 2:108.25078 
1 1:9.8614513 2:4.1541513 
1 1:9.0321273 2:15.595518 
1 1:30.812006 2:155.37658 
1 1:25.880013 2:138.99911 
1 1:53.009247 2:108.25078 
1 1:9.8614513 2:4.1541513 
1 1:9.0321273 2:15.595518 
1 1:30.812006 2:155.37658 
1 1:25.880013 2:138.99911 
1 1:53.009247 2:108.25078 
1 1:9.8614513 2:4.1541513 
1 1:9.0321273 2:15.595518 
1 1:30.812006 2:155.37658 
1 1:25.880013 2:138.99911 
1 1:53.009247 2:108.25078 
1 1:9.8614513 2:4.1541513 
0.2357706523510715 1:9.0321273 2:15.595518 
1 1:30.812006 2:155.37658 
1 1:25.880013 2:138.99911 
1 1:53.009247 2:108.25078 
1 1:9.8614513 2:4.1541513 
1 1:30.812006 2:155.37658 
1 1:25.880013 2:138.99911 
1 1:53.009247 2:108.25078 
1 1:9.8614513 2:4.1541513 
1 1:30.812006 2:155.37658 
1 1:25.880013 2:138.99911 
1 1:53.009247 2:108.25078 
1 1:9.8614513 2:4.1541513 
1 1:30.812006 2:155.37658 
1 1:25.880013 2:138.99911 
1 1:53.009247 2:108.25078 
1 1:9.8614513 2:4.1541513 
1 1:30.812006 2:155.37658 
1 1:25.880013 2:138.99911 
1 1:53.009247 2:108.25078 
1 1:9.8614513 2:4.1541513 
1 1:30.812006 2:155.37658 
1 1:25.880013 2:138.99911 
1 1:53.009247 2:108.25078 
1 1:9.8614513 2:4.1541513 
1 1:30.812006 2:155.37658 
1 1:25.880013 2:138.99911 
1 1:53.009247 2:108.25078 
1 1:9.8614513 2:4.1541513 
1 1:30.812006 2:155.37658 
1 1:25.880013 2:138.99911 
1 1:53.009247 2:108.25078 
1 1:9.8614513 2:4.1541513 
1 1:30.812006 2:155.37658 
1 1:25.880013 2:138.99911 
1 1:53.009247 2:108.25078 
0.2435111533401404 1:9.8614513 2:4.1541513 
1 1:30.812006 2:155.37658 
1 1:25.880013 2:138.99911 
1 1:53.009247 2:108.25078 
1 1:30.812006 2:155.37658 
0.2589243189331007 1:25.880013 2:138.99911 
1 1:53.009247 2:108.25078 
1 1:30.812006 2:155.37658 
1 1:53.009247 2:108.25078 
1 1:30.812006 2:155.37658 
1 1:53.009247 2:108.25078 
1 1:30.812006 2:155.37658 
1 1:53.009247 2:108.25078 
1 1:30.812006 2:155.37658 
1 1:53.009247 2:108.25078 
1 1:30.812006 2:155.37658 
1 1:53.009247 2:108.25078 
1 1:30.812006 2:155.37658 
1 1:53.009247 2:108.25078 
1 1:30.812006 2:155.37658 
1 1:53.009247 2:108.25078 
1 1:30.812006 2:155.37658 
1 1:53.009247 2:108.25078 
1 1:30.812006 2:155.37658 
1 1:53.009247 2:108.25078 
0.6774049029325528 1:30.812006 2:155.37658 
0.5219993822377713 1:53.009247 2:108.25078 
0.02507195970960296 1:30.812006 2:155.37658 
0.3790291318744902 1:25.880013 2:138.99911 
0.1802749115890485 1:53.009247 2:108.25078 
0.4169833621429226 1:9.8614513 2:4.1541513 
1 1:15.551698 2:18.157166 
1 1:18.085717 2:107.10757 
1 1:34.192926 2:145.3504 
1 1:21.068427 2:89.504524 
1 1:14.974747 2:8.8179237 
1 1:15.551698 2:18.157166 
1 1:18.085717 2:107.10757 
1 1:34.192926 2:145.3504 
1 1:21.068427 2:89.504524 
1 1:15.551698 2:18.157166 
1 1:18.085717 2:107.10757 
1 1:34.192926 2:145.3504 
1 1:21.068427 2:89.504524 
1 1:15.551698 2:18.157166 
1 1:18.085717 2:107.10757 
1 1:34.192926 2:145.3504 
1 1:21.068427 2:89.504524 
0.6248534385746699 1:15.551698 2:18.157166 
1 1:18.085717 2:107.10757 
1 1:34.192926 2:145.3504 
1 1:21.068427 2:89.504524 
1 1:18.085717 2:107.10757 
1 1:34.192926 2:145.3504 
1 1:21.068427 2:89.504524 
1 1:18.085717 2:107.10757 
1 1:34.192926 2:145.3504 
1 1:21.068427 2:89.504524 
1 1:18.085717 2:107.10757 
1 1:34.192926 2:145.3504 
1 1:21.068427 2:89.504524 
1 1:18.085717 2:107.10757 
1 1:34.192926 2:145.3504 
1 1:21.068427 2:89.504524 
1 1:18.085717 2:107.10757 
1 1:34.192926 2:145.3504 
1 1:21.068427 2:89.504524 
1 1:18.085717 2:107.10757 
1 1:34.192926 2:145.3504 
1 1:21.068427 2:89.504524 
1 1:18.085717 2:107.10757 
1 1:34.192926 2:145.3504 
1 1:21.068427 2:89.504524 
1 1:18.085717 2:107.10757 
1 1:34.192926 2:145.3504 
1 1:21.068427 2:89.504524 
1 1:18.085717 2:107.10757 
1 1:34.192926 2:145.3504 
1 1:21.068427 2:89.504524 
1 1:18.085717 2:107.10757 
1 1:34.192926 2:145.3504 
1 1:21.068427 2:89.504524 
1 1:18.085717 2:107.10757 
1 1:34.192926 2:145.3504 
1 1:21.068427 2:89.504524 
1 1:18.085717 2:107.10757 
1 1:34.192926 2:145.3504 
1 1:21.068427 2:89.504524 
1 1:18.085717 2:107.10757 
1 1:34.192926 2:145.3504 
1 1:21.068427 2:89.504524 
1 1:18.085717 2:107.10757 
1 1:34.192926 2:145.3504 
1 1:21.068427 2:89.504524 
1 1:18.085717 2:107.10757 
1 1:34.192926 2:145.3504 
1 1:21.068427 2:89.504524 
1 1:18.085717 2:107.10757 
1 1:34.192926 2:145.3504 
1 1:21.068427 2:89.504524 
1 1:18.085717 2:107.10757 
1 1:34.192926 2:145.3504 
1 1:21.068427 2:89.504524 
1 1:18.085717 2:107.10757 
1 1:34.192926 2:145.3504 
1 1:21.068427 2:89.504524 
1 1:18.085717 2:107.10757 
1 1:34.192926 2:145.3504 
1 1:21.068427 2:89.504524 
0.6781451195089687 1:18.085717 2:107.10757 
0.4806089811645915 1:34.192926 2:145.3504 
0.6783430333005303 1:21.068427 2:89.504524 
0.5123622347148632 1:14.974747 2:8.8179237 
1 1:14.974747 2:8.8179237 
1 1:14.974747 2:8.8179237 
0.02417802794401247 1:18.085717 2:107.10757 
0.176296405675064 1:34.192926 2:145.3504 
0.0240878528957662 1:21.068427 2:89.504524 
1 1:14.974747 2:8.8179237 
1 1:97.086555 2:64.190153 
1 1:130.61657 2:134.45271 
1 1:107.46683 2:110.77377 
1 1:11.998113 2:7.4411808 
1 1:97.086555 2:64.190153 
1 1:130.61657 2:134.45271 
1 1:107.46683 2:110.77377 
1 1:11.998113 2:7.4411808 
1 1:97.086555 2:64.190153 
1 1:130.61657 2:134.45271 
1 1:107.46683 2:110.77377 
1 1:11.998113 2:7.4411808 
1 1:97.086555 2:64.190153 
1 1:130.61657 2:134.45271 
1 1:107.46683 2:110.77377 
1 1:11.998113 2:7.4411808 
1 1:97.086555 2:64.190153 
1 1:130.61657 2:134.45271 
1 1:107.46683 2:110.77377 
1 1:11.998113 2:7.4411808 
1 1:97.086555 2:64.190153 
1 1:130.61657 2:134.45271 
1 1:107.46683 2:110.77377 
1 1:11.998113 2:7.4411808 
1 1:97.086555 2:64.190153 
1 1:130.61657 2:134.45271 
1 1:107.46683 2:110.77377 
1 1:11.998113 2:7.4411808 
1 1:97.086555 2:64.190153 
1 1:130.61657 2:134.45271 
1 1:107.46683 2:110.77377 
1 1:11.998113 2:7.4411808 
1 1:97.086555 2:64.190153 
1 1:130.61657 2:134.45271 
1 1:107.46683 2:110.77377 
1 1:11.998113 2:7.4411808 
1 1:97.086555 2:64.190153 
1 1:130.61657 2:134.45271 
1 1:107.46683 2:110.77377 
1 1:11.998113 2:7.4411808 
1 1:97.086555 2:64.190153 
1 1:130.61657 2:134.45271 
1 1:107.46683 2:110.77377 
1 1:11.998113 2:7.4411808 
1 1:97.086555 2:64.190153 
1 1:130.61657 2:134.45271 
1 1:107.46683 2:110.77377 
1 1:11.998113 2:7.4411808 
1 1:97.086555 2:64.190153 
1 1:130.61657 2:134.45271 
1 1:107.46683 2:110.77377 
0.02590644217841492 1:11.998113 2:7.4411808 
0.3597561988670284 1:27.051254 2:11.718468 
1 1:97.086555 2:64.190153 
1 1:130.61657 2:134.45271 
1 1:107.46683 2:110.77377 
0.001899531091398288 1:11.998113 2:7.4411808 
1 1:17.29686 2:12.305363 
1 1:184.20576 2:68.71841 
1 1:373.96779 2:111.00334 
1 1:183.53936 2:92.920505 
1 1:31.299655 2:6.180954 
1 1:17.29686 2:12.305363 
1 1:184.20576 2:68.71841 
1 1:373.96779 2:111.00334 
1 1:183.53936 2:92.920505 
1 1:31.299655 2:6.180954 
1 1:17.29686 2:12.305363 
1 1:184.20576 2:68.71841 
1 1:373.96779 2:111.00334 
1 1:183.53936 2:92.920505 
1 1:31.299655 2:6.180954 
1 1:17.29686 2:12.305363 
1 1:184.20576 2:68.71841 
1 1:373.96779 2:111.00334 
1 1:183.53936 2:92.920505 
1 1:31.299655 2:6.180954 
1 1:17.29686 2:12.305363 
1 1:184.20576 2:68.71841 
1 1:373.96779 2:111.00334 
1 1:183.53936 2:92.920505 
1 1:31.299655 2:6.180954 
1 1:17.29686 2:12.305363 
1 1:184.20576 2:68.71841 
1 1:373.96779 2:111.00334 
1 1:183.53936 2:92.920505 
1 1:31.299655 2:6.180954 
1 1:17.29686 2:12.305363 
1 1:184.20576 2:68.71841 
1 1:373.96779 2:111.00334 
1 1:183.53936 2:92.920505 
1 1:31.299655 2:6.180954 
1 1:17.29686 2:12.305363 
1 1:184.20576 2:68.71841 
1 1:373.96779 2:111.00334 
1 1:183.53936 2:92.920505 
1 1:31.299655 2:6.180954 
1 1:17.29686 2:12.305363 
1 1:184.20576 2:68.71841 
1 1:373.96779 2:111.00334 
1 1:183.53936 2:92.920505 
1 1:31.299655 2:6.180954 
0.03548181855367001 1:17.29686 2:12.305363 
1 1:184.20576 2:68.71841 
1 1:373.96779 2:111.00334 
1 1:183.53936 2:92.920505 
1 1:31.299655 2:6.180954 
1 1:184.20576 2:68.71841 
1 1:373.96779 2:111.00334 
1 1:183.53936 2:92.920505 
1 1:31.299655 2:6.180954 
1 1:184.20576 2:68.71841 
1 1:373.96779 2:111.00334 
1 1:183.53936 2:92.920505 
0.3169522106526603 1:31.299655 2:6.180954 
1 1:184.20576 2:68.71841 
1 1:373.96779 2:111.00334 
1 1:183.53936 2:92.920505 
1 1:184.20576 2:68.71841 
1 1:373.96779 2:111.00334 
1 1:183.53936 2:92.920505 
1 1:184.20576 2:68.71841 
1 1:373.96779 2:111.00334 
1 1:183.53936 2:92.920505 
1 1:184.20576 2:68.71841 
1 1:373.96779 2:111.00334 
1 1:183.53936 2:92.920505 
1 1:184.20576 2:68.71841 
1 1:373.96779 2:111.00334 
1 1:183.53936 2:92.920505 
1 1:184.20576 2:68.71841 
1 1:373.96779 2:111.00334 
1 1:183.53936 2:92.920505 
1 1:184.20576 2:68.71841 
1 1:373.96779 2:111.00334 
1 1:183.53936 2:92.920505 
1 1:184.20576 2:68.71841 
1 1:373.96779 2:111.00334 
1 1:183.53936 2:92.920505 
1 1:184.20576 2:68.71841 
1 1:373.96779 2:111.00334 
1 1:183.53936 2:92.920505 
1 1:184.20576 2:68.71841 
0.8444038689444113 1:373.96779 2:111.00334 
1 1:183.53936 2:92.920505 
1 1:184.20576 2:68.71841 
1 1:183.53936 2:92.920505 
1 1:184.20576 2:68.71841 
1 1:183.53936 2:92.920505 
0.5224545450204747 1:184.20576 2:68.71841 
0.6948153705319058 1:183.53936 2:92.920505 
0.002045885102868169 1:17.29686 2:12.305363 
0.1802769899612358 1:184.20576 2:68.71841 
0.009951835701366818 1:373.96779 2:111.00334 
0.007591343723426291 1:183.53936 2:92.920505 
0.06978304872150334 1:31.299655 2:6.180954 
1 1:28.821418 2:5.9081627 
1 1:211.2914 2:28.791603 
1 1:331.06074 2:90.753745 
1 1:242.31373 2:66.220191 
1 1:18.36859 2:6.4795551 
1 1:28.821418 2:5.9081627 
1 1:211.2914 2:28.791603 
1 1:331.06074 2:90.753745 
1 1:242.31373 2:66.220191 
1 1:18.36859 2:6.4795551 
1 1:28.821418 2:5.9081627 
1 1:211.2914 2:28.791603 
1 1:331.06074 2:90.753745 
1 1:242.31373 2:66.220191 
1 1:18.36859 2:6.4795551 
1 1:28.821418 2:5.9081627 
1 1:211.2914 2:28.791603 
1 1:331.06074 2:90.753745 
1 1:242.31373 2:66.220191 
1 1:18.36859 2:6.4795551 
1 1:28.821418 2:5.9081627 
1 1:211.2914 2:28.791603 
1 1:331.06074 2:90.753745 
1 1:242.31373 2:66.220191 
1 1:18.36859 2:6.4795551 
1 1:28.821418 2:5.9081627 
1 1:211.2914 2:28.791603 
1 1:331.06074 2:90.753745 
1 1:242.31373 2:66.220191 
1 1:18.36859 2:6.4795551 
1 1:28.821418 2:5.9081627 
1 1:211.2914 2:28.791603 
1 1:331.06074 2:90.753745 
1 1:242.31373 2:66.220191 
1 1:18.36859 2:6.4795551 
0.9236757315394649 1:28.821418 2:5.9081627 
1 1:211.2914 2:28.791603 
1 1:331.06074 2:90.753745 
1 1:242.31373 2:66.220191 
1 1:18.36859 2:6.4795551 
1 1:211.2914 2:28.791603 
1 1:331.06074 2:90.753745 
1 1:242.31373 2:66.220191 
1 1:18.36859 2:6.4795551 
1 1:211.2914 2:28.791603 
1 1:331.06074 2:90.753745 
1 1:242.31373 2:66.220191 
1 1:18.36859 2:6.4795551 
1 1:211.2914 2:28.791603 
1 1:331.06074 2:90.753745 
1 1:242.31373 2:66.220191 
1 1:18.36859 2:6.4795551 
1 1:211.2914 2:28.791603 
1 1:331.06074 2:90.753745 
1 1:242.31373 2:66.220191 
1 1:18.36859 2:6.4795551 
1 1:211.2914 2:28.791603 
1 1:331.06074 2:90.753745 
1 1:242.31373 2:66.220191 
1 1:18.36859 2:6.4795551 
1 1:211.2914 2:28.791603 
1 1:331.06074 2:90.753745 
1 1:242.31373 2:66.220191 
1 1:18.36859 2:6.4795551 
1 1:211.2914 2:28.791603 
1 1:331.06074 2:90.753745 
1 1:242.31373 2:66.220191 
1 1:18.36859 2:6.4795551 
1 1:211.2914 2:28.791603 
1 1:331.06074 2:90.753745 
1 1:242.31373 2:66.220191 
0.1935954284821426 1:18.36859 2:6.4795551 
1 1:211.2914 2:28.791603 
1 1:331.06074 2:90.753745 
1 1:242.31373 2:66.220191 
1 1:211.2914 2:28.791603 
1 1:331.06074 2:90.753745 
1 1:242.31373 2:66.220191 
1 1:211.2914 2:28.791603 
1 1:331.06074 2:90.753745 
1 1:242.31373 2:66.220191 
1 1:211.2914 2:28.791603 
1 1:331.06074 2:90.753745 
1 1:242.31373 2:66.220191 
1 1:211.2914 2:28.791603 
1 1:331.06074 2:90.753745 
1 1:242.31373 2:66.220191 
1 1:211.2914 2:28.791603 
1 1:331.06074 2:90.753745 
1 1:242.31373 2:66.220191 
1 1:211.2914 2:28.791603 
1 1:331.06074 2:90.753745 
1 1:242.31373 2:66.220191 
1 1:211.2914 2:28.791603 
1 1:331.06074 2:90.753745 
1 1:242.31373 2:66.220191 
0.5061546176663523 1:211.2914 2:28.791603 
0.6786686703788867 1:331.06074 2:90.753745 
0.6789308551836637 1:242.31373 2:66.220191 
0.1943590741504586 1:211.2914 2:28.791603 
0.02409594878955623 1:331.06074 2:90.753745 
0.02391305328533161 1:242.31373 2:66.220191 
1 1:169.73116 2:18.933353 
1 1:272.46874 2:55.9333 
1 1:240.69858 2:42.449174 
1 1:13.276824 2:5.4360845 
1 1:169.73116 2:18.933353 
1 1:272.46874 2:55.9333 
1 1:240.69858 2:42.449174 
1 1:13.276824 2:5.4360845 
1 1:169.73116 2:18.933353 
1 1:272.46874 2:55.9333 
1 1:240.69858 2:42.449174 
1 1:13.276824 2:5.4360845 
1 1:169.73116 2:18.933353 
1 1:272.46874 2:55.9333 
1 1:240.69858 2:42.449174 
1 1:13.276824 2:5.4360845 
1 1:169.73116 2:18.933353 
1 1:272.46874 2:55.9333 
1 1:240.69858 2:42.449174 
1 1:13.276824 2:5.4360845 
1 1:169.73116 2:18.933353 
1 1:272.46874 2:55.9333 
1 1:240.69858 2:42.449174 
1 1:13.276824 2:5.4360845 
1 1:169.73116 2:18.933353 
1 1:272.46874 2:55.9333 
1 1:240.69858 2:42.449174 
1 1:13.276824 2:5.4360845 
1 1:169.73116 2:18.933353 
1 1:272.46874 2:55.9333 
1 1:240.69858 2:42.449174 
1 1:13.276824 2:5.4360845 
1 1:169.73116 2:18.933353 
1 1:272.46874 2:55.9333 
1 1:240.69858 2:42.449174 
1 1:13.276824 2:5.4360845 
1 1:169.73116 2:18.933353 
1 1:272.46874 2:55.9333 
1 1:240.69858 2:42.449174 
1 1:13.276824 2:5.4360845 
1 1:169.73116 2:18.933353 
1 1:272.46874 2:55.9333 
1 1:240.69858 2:42.449174 
1 1:13.276824 2:5.4360845 
1 1:169.73116 2:18.933353 
1 1:272.46874 2:55.9333 
1 1:240.69858 2:42.449174 
0.4820640624352815 1:13.276824 2:5.4360845 
1 1:169.73116 2:18.933353 
1 1:272.46874 2:55.9333 
1 1:240.69858 2:42.449174 
1 1:169.73116 2:18.933353 
1 1:272.46874 2:55.9333 
1 1:240.69858 2:42.449174 
1 1:169.73116 2:18.933353 
1 1:272.46874 2:55.9333 
1 1:240.69858 2:42.449174 
1 1:169.73116 2:18.933353 
1 1:272.46874 2:55.9333 
1 1:240.69858 2:42.449174 
1 1:169.73116 2:18.933353 
1 1:272.46874 2:55.9333 
1 1:240.69858 2:42.449174 
1 1:169.73116 2:18.933353 
1 1:272.46874 2:55.9333 
1 1:240.69858 2:42.449174 
1 1:169.73116 2:18.933353 
1 1:272.46874 2:55.9333 
1 1:240.69858 2:42.449174 
1 1:169.73116 2:18.933353 
1 1:272.46874 2:55.9333 
1 1:240.69858 2:42.449174 
1 1:169.73116 2:18.933353 
1 1:272.46874 2:55.9333 
1 1:240.69858 2:42.449174 
1 1:169.73116 2:18.933353 
1 1:272.46874 2:55.9333 
1 1:240.69858 2:42.449174 
1 1:169.73116 2:18.933353 
1 1:272.46874 2:55.9333 
1 1:240.69858 2:42.449174 
1 1:169.73116 2:18.933353 
1 1:272.46874 2:55.9333 
1 1:240.69858 2:42.449174 
0.6791871519126609 1:169.73116 2:18.933353 
0.6798615053941006 1:272.46874 2:55.9333 
0.680252580566588 1:240.69858 2:42.449174 
0.0219295923577274 1:240.69858 2:42.449174 
0.02322382299146675 1:169.73116 2:18.933353 
0.02298231368128079 1:272.46874 2:55.9333 
1 1:89.053704 2:67.300039 
1 1:11.782346 2:8.9478357 
1 1:11.204044 2:5.4839277 
1 1:57.52496 2:35.557219 
1 1:146.61806 2:86.520926 
1 1:89.053704 2:67.300039 
1 1:11.782346 2:8.9478357 
1 1:11.204044 2:5.4839277 
1 1:57.52496 2:35.557219 
1 1:146.61806 2:86.520926 
1 1:89.053704 2:67.300039 
1 1:11.782346 2:8.9478357 
1 1:11.204044 2:5.4839277 
1 1:57.52496 2:35.557219 
1 1:146.61806 2:86.520926 
1 1:89.053704 2:67.300039 
1 1:11.782346 2:8.9478357 
1 1:11.204044 2:5.4839277 
1 1:57.52496 2:35.557219 
1 1:146.61806 2:86.520926 
1 1:89.053704 2:67.300039 
1 1:11.782346 2:8.9478357 
1 1:11.204044 2:5.4839277 
1 1:57.52496 2:35.557219 
1 1:146.61806 2:86.520926 
1 1:89.053704 2:67.300039 
1 1:11.782346 2:8.9478357 
1 1:11.204044 2:5.4839277 
1 1:57.52496 2:35.557219 
1 1:146.61806 2:86.520926 
1 1:89.053704 2:67.300039 
1 1:11.782346 2:8.9478357 
1 1:11.204044 2:5.4839277 
1 1:57.52496 2:35.557219 
1 1:146.61806 2:86.520926 
1 1:89.053704 2:67.300039 
1 1:11.782346 2:8.9478357 
1 1:11.204044 2:5.4839277 
1 1:57.52496 2:35.557219 
1 1:146.61806 2:86.520926 
1 1:89.053704 2:67.300039 
1 1:11.782346 2:8.9478357 
1 1:11.204044 2:5.4839277 
1 1:57.52496 2:35.557219 
1 1:146.61806 2:86.520926 
1 1:89.053704 2:67.300039 
0.1096574444498319 1:11.782346 2:8.9478357 
1 1:11.204044 2:5.4839277 
1 1:57.52496 2:35.557219 
1 1:146.61806 2:86.520926 
1 1:89.053704 2:67.300039 
1 1:11.204044 2:5.4839277 
1 1:57.52496 2:35.557219 
1 1:146.61806 2:86.520926 
1 1:89.053704 2:67.300039 
1 1:11.204044 2:5.4839277 
1 1:57.52496 2:35.557219 
1 1:146.61806 2:86.520926 
1 1:89.053704 2:67.300039 
1 1:11.204044 2:5.4839277 
1 1:57.52496 2:35.557219 
1 1:146.61806 2:86.520926 
1 1:89.053704 2:67.300039 
1 1:11.204044 2:5.4839277 
1 1:57.52496 2:35.557219 
1 1:146.61806 2:86.520926 
1 1:89.053704 2:67.300039 
1 1:11.204044 2:5.4839277 
1 1:57.52496 2:35.557219 
1 1:146.61806 2:86.520926 
1 1:89.053704 2:67.300039 
1 1:11.204044 2:5.4839277 
1 1:57.52496 2:35.557219 
1 1:146.61806 2:86.520926 
1 1:89.053704 2:67.300039 
1 1:11.204044 2:5.4839277 
1 1:57.52496 2:35.557219 
1 1:146.61806 2:86.520926 
1 1:89.053704 2:67.300039 
0.3254382015774313 1:11.204044 2:5.4839277 
1 1:57.52496 2:35.557219 
1 1:146.61806 2:86.520926 
1 1:89.053704 2:67.300039 
1 1:57.52496 2:35.557219 
1 1:146.61806 2:86.520926 
1 1:89.053704 2:67.300039 
1 1:57.52496 2:35.557219 
1 1:146.61806 2:86.520926 
1 1:89.053704 2:67.300039 
1 1:57.52496 2:35.557219 
1 1:146.61806 2:86.520926 
1 1:89.053704 2:67.300039 
1 1:57.52496 2:35.557219 
1 1:146.61806 2:86.520926 
1 1:89.053704 2:67.300039 
1 1:57.52496 2:35.557219 
1 1:146.61806 2:86.520926 
0.8678528937365613 1:89.053704 2:67.300039 
1 1:57.52496 2:35.557219 
1 1:146.61806 2:86.520926 
0.4148111442282723 1:57.52496 2:35.557219 
0.6024056078327238 1:146.61806 2:86.520926 
0.1130245406922405 1:57.52496 2:35.557219 
0.1004067658088488 1:146.61806 2:86.520926 
0.03331233383196874 1:89.053704 2:67.300039 
0.8376033477032411 1:11.782346 2:8.9478357 
1 1:8.7595787 2:4.1574879 
1 1:26.788752 2:39.193446 
1 1:125.28007 2:119.21847 
1 1:73.595974 2:89.747092 
1 1:6.7152658 2:7.4425153 
1 1:8.7595787 2:4.1574879 
1 1:26.788752 2:39.193446 
1 1:125.28007 2:119.21847 
1 1:73.595974 2:89.747092 
1 1:6.7152658 2:7.4425153 
1 1:8.7595787 2:4.1574879 
1 1:26.788752 2:39.193446 
1 1:125.28007 2:119.21847 
1 1:73.595974 2:89.747092 
1 1:6.7152658 2:7.4425153 
1 1:8.7595787 2:4.1574879 
1 1:26.788752 2:39.193446 
1 1:125.28007 2:119.21847 
1 1:73.595974 2:89.747092 
1 1:6.7152658 2:7.4425153 
1 1:8.7595787 2:4.1574879 
1 1:26.788752 2:39.193446 
1 1:125.28007 2:119.21847 
1 1:73.595974 2:89.747092 
1 1:6.7152658 2:7.4425153 
1 1:8.7595787 2:4.1574879 
1 1:26.788752 2:39.193446 
1 1:125.28007 2:119.21847 
1 1:73.595974 2:89.747092 
1 1:6.7152658 2:7.4425153 
1 1:8.7595787 2:4.1574879 
1 1:26.788752 2:39.193446 
1 1:125.28007 2:119.21847 
1 1:73.595974 2:89.747092 
1 1:6.7152658 2:7.4425153 
1 1:8.7595787 2:4.1574879 
1 1:26.788752 2:39.193446 
1 1:125.28007 2:119.21847 
1 1:73.595974 2:89.747092 
1 1:6.7152658 2:7.4425153 
1 1:8.7595787 2:4.1574879 
1 1:26.788752 2:39.193446 
1 1:125.28007 2:119.21847 
1 1:73.595974 2:89.747092 
1 1:6.7152658 2:7.4425153 
1 1:8.7595787 2:4.1574879 
1 1:26.788752 2:39.193446 
1 1:125.28007 2:119.21847 
1 1:73.595974 2:89.747092 
1 1:6.7152658 2:7.4425153 
1 1:8.7595787 2:4.1574879 
1 1:26.788752 2:39.193446 
1 1:125.28007 2:119.21847 
1 1:73.595974 2:89.747092 
1 1:6.7152658 2:7.4425153 
1 1:8.7595787 2:4.1574879 
1 1:26.788752 2:39.193446 
1 1:125.28007 2:119.21847 
1 1:73.595974 2:89.747092 
1 1:6.7152658 2:7.4425153 
1 1:8.7595787 2:4.1574879 
1 1:26.788752 2:39.193446 
1 1:125.28007 2:119.21847 
1 1:73.595974 2:89.747092 
1 1:6.7152658 2:7.4425153 
1 1:8.7595787 2:4.1574879 
1 1:26.788752 2:39.193446 
1 1:125.28007 2:119.21847 
1 1:73.595974 2:89.747092 
1 1:6.7152658 2:7.4425153 
1 1:8.7595787 2:4.1574879 
1 1:26.788752 2:39.193446 
1 1:125.28007 2:119.21847 
1 1:73.595974 2:89.747092 
0.2642213450062141 1:8.7595787 2:4.1574879 
1 1:26.788752 2:39.193446 
1 1:125.28007 2:119.21847 
1 1:73.595974 2:89.747092 
1 1:26.788752 2:39.193446 
0.7339943933411814 1:125.28007 2:119.21847 
1 1:73.595974 2:89.747092 
1 1:26.788752 2:39.193446 
1 1:73.595974 2:89.747092 
1 1:26.788752 2:39.193446 
1 1:73.595974 2:89.747092 
1 1:26.788752 2:39.193446 
1 1:73.595974 2:89.747092 
1 1:26.788752 2:39.193446 
1 1:73.595974 2:89.747092 
1 1:26.788752 2:39.193446 
1 1:73.595974 2:89.747092 
1 1:26.788752 2:39.193446 
1 1:73.595974 2:89.747092 
1 1:26.788752 2:39.193446 
1 1:73.595974 2:89.747092 
0.50716966658171 1:26.788752 2:39.193446 
0.1766213028989885 1:73.595974 2:89.747092 
0.1945843570312622 1:26.788752 2:39.193446 
0.007904241724379091 1:125.28007 2:119.21847 
0.01244031475251539 1:73.595974 2:89.747092 
0.09942711675153587 1:6.7152658 2:7.4425153 
1 1:30.476043 2:7.1006164 
1 1:72.684814 2:54.700029 
1 1:348.57512 2:193.45765 
1 1:140.9869 2:152.30217 
1 1:21.164009 2:8.3218753 
1 1:30.476043 2:7.1006164 
1 1:72.684814 2:54.700029 
1 1:348.57512 2:193.45765 
1 1:140.9869 2:152.30217 
1 1:21.164009 2:8.3218753 
1 1:30.476043 2:7.1006164 
1 1:72.684814 2:54.700029 
1 1:348.57512 2:193.45765 
1 1:140.9869 2:152.30217 
1 1:21.164009 2:8.3218753 
1 1:30.476043 2:7.1006164 
1 1:72.684814 2:54.700029 
1 1:348.57512 2:193.45765 
1 1:140.9869 2:152.30217 
1 1:21.164009 2:8.3218753 
1 1:30.476043 2:7.1006164 
1 1:72.684814 2:54.700029 
1 1:348.57512 2:193.45765 
1 1:140.9869 2:152.30217 
1 1:21.164009 2:8.3218753 
0.6714147638872662 1:30.476043 2:7.1006164 
1 1:72.684814 2:54.700029 
1 1:348.57512 2:193.45765 
1 1:140.9869 2:152.30217 
1 1:21.164009 2:8.3218753 
1 1:72.684814 2:54.700029 
1 1:348.57512 2:193.45765 
1 1:140.9869 2:152.30217 
1 1:21.164009 2:8.3218753 
1 1:72.684814 2:54.700029 
1 1:348.57512 2:193.45765 
1 1:140.9869 2:152.30217 
1 1:21.164009 2:8.3218753 
1 1:72.684814 2:54.700029 
1 1:348.57512 2:193.45765 
1 1:140.9869 2:152.30217 
0.7359696337322772 1:21.164009 2:8.3218753 
1 1:72.684814 2:54.700029 
1 1:348.57512 2:193.45765 
1 1:140.9869 2:152.30217 
1 1:72.684814 2:54.700029 
1 1:348.57512 2:193.45765 
1 1:140.9869 2:152.30217 
1 1:72.684814 2:54.700029 
1 1:348.57512 2:193.45765 
1 1:140.9869 2:152.30217 
1 1:72.684814 2:54.700029 
1 1:348.57512 2:193.45765 
1 1:140.9869 2:152.30217 
1 1:72.684814 2:54.700029 
1 1:348.57512 2:193.45765 
1 1:140.9869 2:152.30217 
1 1:72.684814 2:54.700029 
1 1:348.57512 2:193.45765 
1 1:140.9869 2:152.30217 
1 1:72.684814 2:54.700029 
1 1:348.57512 2:193.45765 
1 1:140.9869 2:152.30217 
1 1:72.684814 2:54.700029 
1 1:348.57512 2:193.45765 
1 1:140.9869 2:152.30217 
1 1:72.684814 2:54.700029 
1 1:348.57512 2:193.45765 
1 1:140.9869 2:152.30217 
1 1:72.684814 2:54.700029 
1 1:348.57512 2:193.45765 
1 1:140.9869 2:152.30217 
1 1:72.684814 2:54.700029 
1 1:348.57512 2:193.45765 
1 1:140.9869 2:152.30217 
1 1:72.684814 2:54.700029 
1 1:348.57512 2:193.45765 
1 1:140.9869 2:152.30217 
1 1:72.684814 2:54.700029 
1 1:348.57512 2:193.45765 
1 1:140.9869 2:152.30217 
1 1:72.684814 2:54.700029 
1 1:348.57512 2:193.45765 
1 1:140.9869 2:152.30217 
1 1:72.684814 2:54.700029 
1 1:348.57512 2:193.45765 
1 1:140.9869 2:152.30217 
0.4971612168923905 1:72.684814 2:54.700029 
0.6804715639001628 1:348.57512 2:193.45765 
0.4011045318348359 1:140.9869 2:152.30217 
0.1914781183386722 1:72.684814 2:54.700029 
0.02227137681097524 1:348.57512 2:193.45765 
0.1042872326037099 1:140.9869 2:152.30217 
0.01964573142457381 1:21.164009 2:8.3218753 
1 1:72.271975 2:80.70403 
1 1:293.56842 2:243.76056 
1 1:26.309948 2:81.34448 
1 1:72.271975 2:80.70403 
1 1:293.56842 2:243.76056 
1 1:26.309948 2:81.34448 
1 1:72.271975 2:80.70403 
1 1:293.56842 2:243.76056 
1 1:26.309948 2:81.34448 
1 1:72.271975 2:80.70403 
1 1:293.56842 2:243.76056 
1 1:26.309948 2:81.34448 
1 1:72.271975 2:80.70403 
1 1:293.56842 2:243.76056 
1 1:26.309948 2:81.34448 
1 1:72.271975 2:80.70403 
1 1:293.56842 2:243.76056 
1 1:26.309948 2:81.34448 
1 1:72.271975 2:80.70403 
1 1:293.56842 2:243.76056 
1 1:26.309948 2:81.34448 
1 1:72.271975 2:80.70403 
1 1:293.56842 2:243.76056 
1 1:26.309948 2:81.34448 
1 1:72.271975 2:80.70403 
1 1:293.56842 2:243.76056 
1 1:26.309948 2:81.34448 
1 1:72.271975 2:80.70403 
1 1:293.56842 2:243.76056 
1 1:26.309948 2:81.34448 
1 1:72.271975 2:80.70403 
1 1:293.56842 2:243.76056 
1 1:26.309948 2:81.34448 
1 1:72.271975 2:80.70403 
1 1:293.56842 2:243.76056 
1 1:26.309948 2:81.34448 
1 1:72.271975 2:80.70403 
1 1:293.56842 2:243.76056 
1 1:26.309948 2:81.34448 
1 1:72.271975 2:80.70403 
1 1:293.56842 2:243.76056 
1 1:26.309948 2:81.34448 
1 1:72.271975 2:80.70403 
1 1:293.56842 2:243.76056 
1 1:26.309948 2:81.34448 
1 1:72.271975 2:80.70403 
1 1:293.56842 2:243.76056 
1 1:26.309948 2:81.34448 
1 1:72.271975 2:80.70403 
1 1:293.56842 2:243.76056 
1 1:26.309948 2:81.34448 
1 1:72.271975 2:80.70403 
1 1:293.56842 2:243.76056 
1 1:26.309948 2:81.34448 
1 1:72.271975 2:80.70403 
1 1:293.56842 2:243.76056 
1 1:26.309948 2:81.34448 
1 1:72.271975 2:80.70403 
1 1:293.56842 2:243.76056 
1 1:26.309948 2:81.34448 
1 1:72.271975 2:80.70403 
1 1:293.56842 2:243.76056 
1 1:26.309948 2:81.34448 
1 1:72.271975 2:80.70403 
1 1:293.56842 2:243.76056 
1 1:26.309948 2:81.34448 
1 1:72.271975 2:80.70403 
1 1:293.56842 2:243.76056 
1 1:26.309948 2:81.34448 
1 1:72.271975 2:80.70403 
1 1:293.56842 2:243.76056 
1 1:26.309948 2:81.34448 
0.5051573318947646 1:72.271975 2:80.70403 
0.5209235293489929 1:293.56842 2:243.76056 
0.4713122342420846 1:26.309948 2:81.34448 
0.1945393465512222 1:72.271975 2:80.70403 
0.1814242004124651 1:293.56842 2:243.76056 
0.1684062514648499 1:26.309948 2:81.34448 
1 1:10.829658 2:17.934222 
1 1:49.884493 2:140.47702 
1 1:162.84594 2:332.5891 
1 1:52.276924 2:202.78716 
1 1:10.829658 2:17.934222 
1 1:49.884493 2:140.47702 
1 1:162.84594 2:332.5891 
1 1:52.276924 2:202.78716 
1 1:10.829658 2:17.934222 
1 1:49.884493 2:140.47702 
1 1:162.84594 2:332.5891 
1 1:52.276924 2:202.78716 
1 1:10.829658 2:17.934222 
1 1:49.884493 2:140.47702 
1 1:162.84594 2:332.5891 
1 1:52.276924 2:202.78716 
0.3448139249929824 1:10.829658 2:17.934222 
1 1:49.884493 2:140.47702 
1 1:162.84594 2:332.5891 
1 1:52.276924 2:202.78716 
1 1:49.884493 2:140.47702 
1 1:162.84594 2:332.5891 
1 1:52.276924 2:202.78716 
1 1:49.884493 2:140.47702 
1 1:162.84594 2:332.5891 
1 1:52.276924 2:202.78716 
1 1:49.884493 2:140.47702 
1 1:162.84594 2:332.5891 
1 1:52.276924 2:202.78716 
1 1:49.884493 2:140.47702 
1 1:162.84594 2:332.5891 
1 1:52.276924 2:202.78716 
1 1:49.884493 2:140.47702 
1 1:162.84594 2:332.5891 
1 1:52.276924 2:202.78716 
1 1:49.884493 2:140.47702 
1 1:162.84594 2:332.5891 
1 1:52.276924 2:202.78716 
1 1:49.884493 2:140.47702 
1 1:162.84594 2:332.5891 
1 1:52.276924 2:202.78716 
1 1:49.884493 2:140.47702 
1 1:162.84594 2:332.5891 
1 1:52.276924 2:202.78716 
1 1:49.884493 2:140.47702 
1 1:162.84594 2:332.5891 
1 1:52.276924 2:202.78716 
1 1:49.884493 2:140.47702 
1 1:162.84594 2:332.5891 
1 1:52.276924 2:202.78716 
1 1:49.884493 2:140.47702 
1 1:162.84594 2:332.5891 
1 1:52.276924 2:202.78716 
1 1:49.884493 2:140.47702 
1 1:162.84594 2:332.5891 
1 1:52.276924 2:202.78716 
1 1:49.884493 2:140.47702 
1 1:162.84594 2:332.5891 
1 1:52.276924 2:202.78716 
1 1:49.884493 2:140.47702 
1 1:162.84594 2:332.5891 
1 1:52.276924 2:202.78716 
1 1:49.884493 2:140.47702 
1 1:162.84594 2:332.5891 
1 1:52.276924 2:202.78716 
1 1:49.884493 2:140.47702 
1 1:162.84594 2:332.5891 
1 1:52.276924 2:202.78716 
1 1:49.884493 2:140.47702 
1 1:162.84594 2:332.5891 
1 1:52.276924 2:202.78716 
1 1:49.884493 2:140.47702 
1 1:162.84594 2:332.5891 
1 1:52.276924 2:202.78716 
1 1:49.884493 2:140.47702 
1 1:162.84594 2:332.5891 
1 1:52.276924 2:202.78716 
0.511127659220147 1:49.884493 2:140.47702 
0.6807049676446617 1:162.84594 2:332.5891 
0.5806069418561144 1:52.276924 2:202.78716 
0.1914162129435191 1:49.884493 2:140.47702 
0.02192378615725055 1:162.84594 2:332.5891 
0.1216801517530133 1:52.276924 2:202.78716 
1 1:52.933909 2:131.90756 
1 1:113.96867 2:242.84928 
1 1:119.41189 2:224.4102 
1 1:20.338671 2:13.490701 
1 1:52.933909 2:131.90756 
1 1:113.96867 2:242.84928 
1 1:119.41189 2:224.4102 
1 1:20.338671 2:13.490701 
1 1:52.933909 2:131.90756 
1 1:113.96867 2:242.84928 
1 1:119.41189 2:224.4102 
1 1:20.338671 2:13.490701 
1 1:52.933909 2:131.90756 
1 1:113.96867 2:242.84928 
1 1:119.41189 2:224.4102 
1 1:20.338671 2:13.490701 
1 1:52.933909 2:131.90756 
1 1:113.96867 2:242.84928 
1 1:119.41189 2:224.4102 
1 1:20.338671 2:13.490701 
1 1:52.933909 2:131.90756 
1 1:113.96867 2:242.84928 
1 1:119.41189 2:224.4102 
0.6956929681964779 1:20.338671 2:13.490701 
1 1:52.933909 2:131.90756 
1 1:113.96867 2:242.84928 
1 1:119.41189 2:224.4102 
1 1:52.933909 2:131.90756 
1 1:113.96867 2:242.84928 
1 1:119.41189 2:224.4102 
1 1:52.933909 2:131.90756 
1 1:113.96867 2:242.84928 
1 1:119.41189 2:224.4102 
1 1:52.933909 2:131.90756 
1 1:113.96867 2:242.84928 
1 1:119.41189 2:224.4102 
1 1:52.933909 2:131.90756 
1 1:113.96867 2:242.84928 
1 1:119.41189 2:224.4102 
1 1:52.933909 2:131.90756 
1 1:113.96867 2:242.84928 
1 1:119.41189 2:224.4102 
1 1:52.933909 2:131.90756 
1 1:113.96867 2:242.84928 
1 1:119.41189 2:224.4102 
1 1:52.933909 2:131.90756 
1 1:113.96867 2:242.84928 
1 1:119.41189 2:224.4102 
1 1:52.933909 2:131.90756 
1 1:113.96867 2:242.84928 
1 1:119.41189 2:224.4102 
1 1:52.933909 2:131.90756 
1 1:113.96867 2:242.84928 
1 1:119.41189 2:224.4102 
1 1:52.933909 2:131.90756 
1 1:113.96867 2:242.84928 
1 1:119.41189 2:224.4102 
1 1:52.933909 2:131.90756 
1 1:113.96867 2:242.84928 
1 1:119.41189 2:224.4102 
1 1:52.933909 2:131.90756 
1 1:113.96867 2:242.84928 
1 1:119.41189 2:224.4102 
1 1:52.933909 2:131.90756 
1 1:113.96867 2:242.84928 
1 1:119.41189 2:224.4102 
1 1:52.933909 2:131.90756 
1 1:113.96867 2:242.84928 
1 1:119.41189 2:224.4102 
1 1:52.933909 2:131.90756 
1 1:113.96867 2:242.84928 
1 1:119.41189 2:224.4102 
1 1:52.933909 2:131.90756 
1 1:113.96867 2:242.84928 
1 1:119.41189 2:224.4102 
1 1:52.933909 2:131.90756 
1 1:113.96867 2:242.84928 
1 1:119.41189 2:224.4102 
0.515084135992856 1:52.933909 2:131.90756 
0.2915204935015154 1:113.96867 2:242.84928 
0.5969322939243185 1:119.41189 2:224.4102 
0.1869986461910766 1:52.933909 2:131.90756 
0.09462315557578549 1:113.96867 2:242.84928 
0.1058657923880375 1:119.41189 2:224.4102 
0.1671214370916917 1:20.338671 2:13.490701 
1 1:115.62503 2:79.042546 
1 1:155.90857 2:154.56358 
1 1:222.56014 2:131.44544 
1 1:115.62503 2:79.042546 
1 1:155.90857 2:154.56358 
1 1:222.56014 2:131.44544 
1 1:115.62503 2:79.042546 
1 1:155.90857 2:154.56358 
1 1:222.56014 2:131.44544 
1 1:115.62503 2:79.042546 
1 1:155.90857 2:154.56358 
1 1:222.56014 2:131.44544 
1 1:115.62503 2:79.042546 
1 1:155.90857 2:154.56358 
1 1:222.56014 2:131.44544 
1 1:115.62503 2:79.042546 
1 1:155.90857 2:154.56358 
1 1:222.56014 2:131.44544 
1 1:115.62503 2:79.042546 
1 1:155.90857 2:154.56358 
1 1:222.56014 2:131.44544 
1 1:115.62503 2:79.042546 
1 1:155.90857 2:154.56358 
1 1:222.56014 2:131.44544 
1 1:115.62503 2:79.042546 
1 1:155.90857 2:154.56358 
1 1:222.56014 2:131.44544 
1 1:115.62503 2:79.042546 
1 1:155.90857 2:154.56358 
1 1:222.56014 2:131.44544 
1 1:115.62503 2:79.042546 
1 1:155.90857 2:154.56358 
1 1:222.56014 2:131.44544 
1 1:115.62503 2:79.042546 
1 1:155.90857 2:154.56358 
1 1:222.56014 2:131.44544 
1 1:115.62503 2:79.042546 
1 1:155.90857 2:154.56358 
1 1:222.56014 2:131.44544 
1 1:115.62503 2:79.042546 
1 1:155.90857 2:154.56358 
1 1:222.56014 2:131.44544 
1 1:115.62503 2:79.042546 
1 1:155.90857 2:154.56358 
1 1:222.56014 2:131.44544 
1 1:115.62503 2:79.042546 
1 1:155.90857 2:154.56358 
1 1:222.56014 2:131.44544 
1 1:115.62503 2:79.042546 
1 1:155.90857 2:154.56358 
1 1:222.56014 2:131.44544 
1 1:115.62503 2:79.042546 
1 1:155.90857 2:154.56358 
1 1:222.56014 2:131.44544 
1 1:115.62503 2:79.042546 
1 1:155.90857 2:154.56358 
1 1:222.56014 2:131.44544 
1 1:115.62503 2:79.042546 
1 1:155.90857 2:154.56358 
1 1:222.56014 2:131.44544 
1 1:115.62503 2:79.042546 
1 1:155.90857 2:154.56358 
1 1:222.56014 2:131.44544 
1 1:115.62503 2:79.042546 
1 1:155.90857 2:154.56358 
1 1:222.56014 2:131.44544 
1 1:115.62503 2:79.042546 
1 1:155.90857 2:154.56358 
1 1:222.56014 2:131.44544 
1 1:115.62503 2:79.042546 
1 1:155.90857 2:154.56358 
1 1:222.56014 2:131.44544 
0.4031712263679861 1:115.62503 2:79.042546 
0.5156770096541035 1:155.90857 2:154.56358 
0.681112683874483 1:222.56014 2:131.44544 
0.2989174632572755 1:115.62503 2:79.042546 
0.18709349254015 1:155.90857 2:154.56358 
0.02095244574544708 1:222.56014 2:131.44544 
1 1:11.105383 2:15.577442 
1 1:86.122702 2:150.03287 
1 1:98.021338 2:340.57671 
1 1:113.86316 2:315.49513 
1 1:11.105383 2:15.577442 
1 1:86.122702 2:150.03287 
1 1:98.021338 2:340.57671 
1 1:113.86316 2:315.49513 
0.4873983386155248 1:11.105383 2:15.577442 
1 1:86.122702 2:150.03287 
1 1:98.021338 2:340.57671 
1 1:113.86316 2:315.49513 
1 1:86.122702 2:150.03287 
1 1:98.021338 2:340.57671 
1 1:113.86316 2:315.49513 
1 1:86.122702 2:150.03287 
1 1:98.021338 2:340.57671 
1 1:113.86316 2:315.49513 
1 1:86.122702 2:150.03287 
1 1:98.021338 2:340.57671 
1 1:113.86316 2:315.49513 
1 1:86.122702 2:150.03287 
1 1:98.021338 2:340.57671 
1 1:113.86316 2:315.49513 
1 1:86.122702 2:150.03287 
1 1:98.021338 2:340.57671 
1 1:113.86316 2:315.49513 
1 1:86.122702 2:150.03287 
1 1:98.021338 2:340.57671 
1 1:113.86316 2:315.49513 
1 1:86.122702 2:150.03287 
1 1:98.021338 2:340.57671 
1 1:113.86316 2:315.49513 
1 1:86.122702 2:150.03287 
1 1:98.021338 2:340.57671 
1 1:113.86316 2:315.49513 
1 1:86.122702 2:150.03287 
1 1:98.021338 2:340.57671 
1 1:113.86316 2:315.49513 
1 1:86.122702 2:150.03287 
1 1:98.021338 2:340.57671 
1 1:113.86316 2:315.49513 
1 1:86.122702 2:150.03287 
1 1:98.021338 2:340.57671 
1 1:113.86316 2:315.49513 
1 1:86.122702 2:150.03287 
1 1:98.021338 2:340.57671 
1 1:113.86316 2:315.49513 
1 1:86.122702 2:150.03287 
1 1:98.021338 2:340.57671 
1 1:113.86316 2:315.49513 
1 1:86.122702 2:150.03287 
1 1:98.021338 2:340.57671 
1 1:113.86316 2:315.49513 
1 1:86.122702 2:150.03287 
1 1:98.021338 2:340.57671 
1 1:113.86316 2:315.49513 
1 1:86.122702 2:150.03287 
1 1:98.021338 2:340.57671 
1 1:113.86316 2:315.49513 
1 1:86.122702 2:150.03287 
1 1:98.021338 2:340.57671 
1 1:113.86316 2:315.49513 
1 1:86.122702 2:150.03287 
1 1:98.021338 2:340.57671 
1 1:113.86316 2:315.49513 
1 1:86.122702 2:150.03287 
1 1:98.021338 2:340.57671 
1 1:113.86316 2:315.49513 
1 1:86.122702 2:150.03287 
1 1:98.021338 2:340.57671 
1 1:113.86316 2:315.49513 
1 1:86.122702 2:150.03287 
1 1:98.021338 2:340.57671 
1 1:113.86316 2:315.49513 
0.4431738139054229 1:86.122702 2:150.03287 
0.6823046646518733 1:98.021338 2:340.57671 
0.6826439218686478 1:113.86316 2:315.49513 
0.03515413005770091 1:11.105383 2:15.577442 
0.9974031965944754 1:11.105383 2:15.577442 
0.1414673883553696 1:86.122702 2:150.03287 
0.01996867557092585 1:98.021338 2:340.57671 
0.02008403647693235 1:113.86316 2:315.49513 
1 1:4.1704232 2:18.127543 
1 1:27.937635 2:60.608221 
1 1:49.560527 2:135.67605 
1 1:58.497756 2:121.89716 
1 1:4.1704232 2:18.127543 
1 1:27.937635 2:60.608221 
1 1:49.560527 2:135.67605 
1 1:58.497756 2:121.89716 
1 1:4.1704232 2:18.127543 
1 1:27.937635 2:60.608221 
1 1:49.560527 2:135.67605 
1 1:58.497756 2:121.89716 
1 1:4.1704232 2:18.127543 
1 1:27.937635 2:60.608221 
1 1:49.560527 2:135.67605 
1 1:58.497756 2:121.89716 
1 1:4.1704232 2:18.127543 
1 1:27.937635 2:60.608221 
1 1:49.560527 2:135.67605 
1 1:58.497756 2:121.89716 
1 1:4.1704232 2:18.127543 
1 1:27.937635 2:60.608221 
1 1:49.560527 2:135.67605 
1 1:58.497756 2:121.89716 
1 1:4.1704232 2:18.127543 
1 1:27.937635 2:60.608221 
1 1:49.560527 2:135.67605 
1 1:58.497756 2:121.89716 
1 1:4.1704232 2:18.127543 
1 1:27.937635 2:60.608221 
1 1:49.560527 2:135.67605 
1 1:58.497756 2:121.89716 
1 1:4.1704232 2:18.127543 
1 1:27.937635 2:60.608221 
1 1:49.560527 2:135.67605 
1 1:58.497756 2:121.89716 
1 1:4.1704232 2:18.127543 
1 1:27.937635 2:60.608221 
1 1:49.560527 2:135.67605 
1 1:58.497756 2:121.89716 
0.7389056033901881 1:4.1704232 2:18.127543 
1 1:27.937635 2:60.608221 
1 1:49.560527 2:135.67605 
1 1:58.497756 2:121.89716 
1 1:27.937635 2:60.608221 
1 1:49.560527 2:135.67605 
1 1:58.497756 2:121.89716 
1 1:27.937635 2:60.608221 
1 1:49.560527 2:135.67605 
1 1:58.497756 2:121.89716 
1 1:27.937635 2:60.608221 
1 1:49.560527 2:135.67605 
1 1:58.497756 2:121.89716 
1 1:27.937635 2:60.608221 
1 1:49.560527 2:135.67605 
1 1:58.497756 2:121.89716 
1 1:27.937635 2:60.608221 
1 1:49.560527 2:135.67605 
1 1:58.497756 2:121.89716 
1 1:27.937635 2:60.608221 
1 1:49.560527 2:135.67605 
1 1:58.497756 2:121.89716 
1 1:27.937635 2:60.608221 
1 1:49.560527 2:135.67605 
1 1:58.497756 2:121.89716 
1 1:27.937635 2:60.608221 
1 1:49.560527 2:135.67605 
1 1:58.497756 2:121.89716 
1 1:27.937635 2:60.608221 
1 1:49.560527 2:135.67605 
1 1:58.497756 2:121.89716 
1 1:27.937635 2:60.608221 
1 1:49.560527 2:135.67605 
1 1:58.497756 2:121.89716 
1 1:27.937635 2:60.608221 
1 1:49.560527 2:135.67605 
1 1:58.497756 2:121.89716 
1 1:27.937635 2:60.608221 
1 1:49.560527 2:135.67605 
1 1:58.497756 2:121.89716 
1 1:27.937635 2:60.608221 
1 1:49.560527 2:135.67605 
1 1:58.497756 2:121.89716 
0.5098769387446307 1:27.937635 2:60.608221 
0.4853828351833105 1:49.560527 2:135.67605 
0.5141903232480693 1:58.497756 2:121.89716 
0.008410304416129031 1:4.1704232 2:18.127543 
0.1918798440215976 1:27.937635 2:60.608221 
0.2170292106815399 1:49.560527 2:135.67605 
0.1884643455411315 1:58.497756 2:121.89716 
1 1:1.4089276 2:18.62395 
1 1:39.905 2:51.061112 
1 1:41.269109 2:134.49095 
1 1:33.781618 2:87.213002 
1 1:5.117792 2:11.843673 
1 1:1.4089276 2:18.62395 
1 1:39.905 2:51.061112 
1 1:41.269109 2:134.49095 
1 1:33.781618 2:87.213002 
1 1:5.117792 2:11.843673 
1 1:1.4089276 2:18.62395 
1 1:39.905 2:51.061112 
1 1:41.269109 2:134.49095 
1 1:33.781618 2:87.213002 
1 1:5.117792 2:11.843673 
1 1:1.4089276 2:18.62395 
1 1:39.905 2:51.061112 
1 1:41.269109 2:134.49095 
1 1:33.781618 2:87.213002 
1 1:5.117792 2:11.843673 
1 1:1.4089276 2:18.62395 
1 1:39.905 2:51.061112 
1 1:41.269109 2:134.49095 
1 1:33.781618 2:87.213002 
1 1:5.117792 2:11.843673 
1 1:1.4089276 2:18.62395 
1 1:39.905 2:51.061112 
1 1:41.269109 2:134.49095 
1 1:33.781618 2:87.213002 
1 1:5.117792 2:11.843673 
1 1:1.4089276 2:18.62395 
1 1:39.905 2:51.061112 
1 1:41.269109 2:134.49095 
1 1:33.781618 2:87.213002 
1 1:5.117792 2:11.843673 
1 1:1.4089276 2:18.62395 
1 1:39.905 2:51.061112 
1 1:41.269109 2:134.49095 
1 1:33.781618 2:87.213002 
1 1:5.117792 2:11.843673 
1 1:1.4089276 2:18.62395 
1 1:39.905 2:51.061112 
1 1:41.269109 2:134.49095 
1 1:33.781618 2:87.213002 
1 1:5.117792 2:11.843673 
1 1:1.4089276 2:18.62395 
1 1:39.905 2:51.061112 
1 1:41.269109 2:134.49095 
1 1:33.781618 2:87.213002 
1 1:5.117792 2:11.843673 
1 1:1.4089276 2:18.62395 
1 1:39.905 2:51.061112 
1 1:41.269109 2:134.49095 
1 1:33.781618 2:87.213002 
1 1:5.117792 2:11.843673 
1 1:1.4089276 2:18.62395 
1 1:39.905 2:51.061112 
1 1:41.269109 2:134.49095 
1 1:33.781618 2:87.213002 
1 1:5.117792 2:11.843673 
1 1:1.4089276 2:18.62395 
1 1:39.905 2:51.061112 
1 1:41.269109 2:134.49095 
1 1:33.781618 2:87.213002 
0.6611687714825688 1:5.117792 2:11.843673 
1 1:1.4089276 2:18.62395 
1 1:39.905 2:51.061112 
1 1:41.269109 2:134.49095 
1 1:33.781618 2:87.213002 
1 1:1.4089276 2:18.62395 
1 1:39.905 2:51.061112 
1 1:41.269109 2:134.49095 
1 1:33.781618 2:87.213002 
1 1:1.4089276 2:18.62395 
1 1:39.905 2:51.061112 
1 1:41.269109 2:134.49095 
1 1:33.781618 2:87.213002 
1 1:1.4089276 2:18.62395 
1 1:39.905 2:51.061112 
1 1:41.269109 2:134.49095 
1 1:33.781618 2:87.213002 
1 1:1.4089276 2:18.62395 
1 1:39.905 2:51.061112 
1 1:41.269109 2:134.49095 
1 1:33.781618 2:87.213002 
1 1:1.4089276 2:18.62395 
1 1:39.905 2:51.061112 
1 1:41.269109 2:134.49095 
1 1:33.781618 2:87.213002 
1 1:1.4089276 2:18.62395 
1 1:39.905 2:51.061112 
1 1:41.269109 2:134.49095 
1 1:33.781618 2:87.213002 
0.8895732891449395 1:1.4089276 2:18.62395 
1 1:39.905 2:51.061112 
1 1:41.269109 2:134.49095 
1 1:33.781618 2:87.213002 
1 1:39.905 2:51.061112 
1 1:41.269109 2:134.49095 
1 1:33.781618 2:87.213002 
1 1:39.905 2:51.061112 
1 1:41.269109 2:134.49095 
1 1:33.781618 2:87.213002 
1 1:39.905 2:51.061112 
1 1:41.269109 2:134.49095 
1 1:33.781618 2:87.213002 
0.4640423053832219 1:39.905 2:51.061112 
0.5477030178063149 1:41.269109 2:134.49095 
0.5314041081459449 1:33.781618 2:87.213002 
0.02473061089101058 1:1.4089276 2:18.62395 
0.1674490112934244 1:39.905 2:51.061112 
0.155038024776454 1:41.269109 2:134.49095 
0.1714271975570263 1:33.781618 2:87.213002 
0.0005758652208420756 1:5.117792 2:11.843673 
1 1:33.006961 2:79.53995 
1 1:59.46701 2:156.10796 
1 1:56.85119 2:135.88018 
1 1:33.006961 2:79.53995 
1 1:59.46701 2:156.10796 
1 1:56.85119 2:135.88018 
1 1:33.006961 2:79.53995 
1 1:59.46701 2:156.10796 
1 1:56.85119 2:135.88018 
1 1:33.006961 2:79.53995 
1 1:59.46701 2:156.10796 
1 1:56.85119 2:135.88018 
1 1:33.006961 2:79.53995 
1 1:59.46701 2:156.10796 
1 1:56.85119 2:135.88018 
1 1:33.006961 2:79.53995 
1 1:59.46701 2:156.10796 
1 1:56.85119 2:135.88018 
1 1:33.006961 2:79.53995 
1 1:59.46701 2:156.10796 
1 1:56.85119 2:135.88018 
1 1:33.006961 2:79.53995 
1 1:59.46701 2:156.10796 
1 1:56.85119 2:135.88018 
1 1:33.006961 2:79.53995 
1 1:59.46701 2:156.10796 
1 1:56.85119 2:135.88018 
1 1:33.006961 2:79.53995 
1 1:59.46701 2:156.10796 
1 1:56.85119 2:135.88018 
1 1:33.006961 2:79.53995 
1 1:59.46701 2:156.10796 
1 1:56.85119 2:135.88018 
1 1:33.006961 2:79.53995 
1 1:59.46701 2:156.10796 
1 1:56.85119 2:135.88018 
1 1:33.006961 2:79.53995 
1 1:59.46701 2:156.10796 
1 1:56.85119 2:135.88018 
1 1:33.006961 2:79.53995 
1 1:59.46701 2:156.10796 
1 1:56.85119 2:135.88018 
1 1:33.006961 2:79.53995 
1 1:59.46701 2:156.10796 
1 1:56.85119 2:135.88018 
1 1:33.006961 2:79.53995 
1 1:59.46701 2:156.10796 
1 1:56.85119 2:135.88018 
1 1:33.006961 2:79.53995 
1 1:59.46701 2:156.10796 
1 1:56.85119 2:135.88018 
1 1:33.006961 2:79.53995 
1 1:59.46701 2:156.10796 
1 1:56.85119 2:135.88018 
1 1:33.006961 2:79.53995 
1 1:59.46701 2:156.10796 
1 1:56.85119 2:135.88018 
1 1:33.006961 2:79.53995 
1 1:59.46701 2:156.10796 
1 1:56.85119 2:135.88018 
1 1:33.006961 2:79.53995 
1 1:59.46701 2:156.10796 
1 1:56.85119 2:135.88018 
1 1:33.006961 2:79.53995 
1 1:59.46701 2:156.10796 
1 1:56.85119 2:135.88018 
1 1:33.006961 2:79.53995 
1 1:59.46701 2:156.10796 
1 1:56.85119 2:135.88018 
1 1:33.006961 2:79.53995 
1 1:59.46701 2:156.10796 
1 1:56.85119 2:135.88018 
0.5084792518011074 1:33.006961 2:79.53995 
0.5104750370818198 1:59.46701 2:156.10796 
0.5177036035251099 1:56.85119 2:135.88018 
0.1935639642069766 1:33.006961 2:79.53995 
0.192034412184185 1:59.46701 2:156.10796 
0.1850820523191388 1:56.85119 2:135.88018 
0.433693478784027 1:9.3582264 2:25.738858 
1 1:42.102745 2:69.543401 
1 1:71.318228 2:121.15882 
1 1:122.57034 2:146.0791 
1 1:7.3395212 2:22.844168 
1 1:42.102745 2:69.543401 
1 1:71.318228 2:121.15882 
1 1:122.57034 2:146.0791 
0.6169885826905986 1:7.3395212 2:22.844168 
1 1:42.102745 2:69.543401 
1 1:71.318228 2:121.15882 
1 1:122.57034 2:146.0791 
1 1:42.102745 2:69.543401 
1 1:71.318228 2:121.15882 
1 1:122.57034 2:146.0791 
1 1:42.102745 2:69.543401 
1 1:71.318228 2:121.15882 
1 1:122.57034 2:146.0791 
1 1:42.102745 2:69.543401 
1 1:71.318228 2:121.15882 
1 1:122.57034 2:146.0791 
1 1:42.102745 2:69.543401 
1 1:71.318228 2:121.15882 
1 1:122.57034 2:146.0791 
1 1:42.102745 2:69.543401 
1 1:71.318228 2:121.15882 
1 1:122.57034 2:146.0791 
1 1:42.102745 2:69.543401 
1 1:71.318228 2:121.15882 
1 1:122.57034 2:146.0791 
1 1:42.102745 2:69.543401 
1 1:71.318228 2:121.15882 
1 1:122.57034 2:146.0791 
1 1:42.102745 2:69.543401 
1 1:71.318228 2:121.15882 
1 1:122.57034 2:146.0791 
1 1:42.102745 2:69.543401 
1 1:71.318228 2:121.15882 
1 1:122.57034 2:146.0791 
1 1:42.102745 2:69.543401 
1 1:71.318228 2:121.15882 
1 1:122.57034 2:146.0791 
1 1:42.102745 2:69.543401 
1 1:71.318228 2:121.15882 
1 1:122.57034 2:146.0791 
1 1:42.102745 2:69.543401 
1 1:71.318228 2:121.15882 
1 1:122.57034 2:146.0791 
1 1:42.102745 2:69.543401 
0.203209208668591 1:71.318228 2:121.15882 
1 1:122.57034 2:146.0791 
1 1:42.102745 2:69.543401 
1 1:122.57034 2:146.0791 
1 1:42.102745 2:69.543401 
1 1:122.57034 2:146.0791 
1 1:42.102745 2:69.543401 
1 1:122.57034 2:146.0791 
1 1:42.102745 2:69.543401 
1 1:122.57034 2:146.0791 
1 1:42.102745 2:69.543401 
1 1:122.57034 2:146.0791 
0.4706652793252974 1:42.102745 2:69.543401 
1 1:122.57034 2:146.0791 
1 1:122.57034 2:146.0791 
1 1:122.57034 2:146.0791 
0.4654115674617376 1:122.57034 2:146.0791 
0.05199614676802078 1:9.3582264 2:25.738858 
0.08895301311260972 1:42.102745 2:69.543401 
0.2393602291641841 1:71.318228 2:121.15882 
0.1827287733188054 1:122.57034 2:146.0791 
1 1:9.5127496 2:21.619347 
1 1:38.329074 2:74.323546 
1 1:48.107588 2:118.17374 
1 1:102.65696 2:160.62073 
1 1:11.830858 2:30.497701 
1 1:9.5127496 2:21.619347 
1 1:38.329074 2:74.323546 
1 1:48.107588 2:118.17374 
1 1:102.65696 2:160.62073 
1 1:11.830858 2:30.497701 
1 1:9.5127496 2:21.619347 
1 1:38.329074 2:74.323546 
1 1:48.107588 2:118.17374 
1 1:102.65696 2:160.62073 
1 1:11.830858 2:30.497701 
1 1:9.5127496 2:21.619347 
1 1:38.329074 2:74.323546 
1 1:48.107588 2:118.17374 
1 1:102.65696 2:160.62073 
1 1:11.830858 2:30.497701 
1 1:9.5127496 2:21.619347 
1 1:38.329074 2:74.323546 
1 1:48.107588 2:118.17374 
1 1:102.65696 2:160.62073 
1 1:11.830858 2:30.497701 
1 1:9.5127496 2:21.619347 
1 1:38.329074 2:74.323546 
1 1:48.107588 2:118.17374 
1 1:102.65696 2:160.62073 
1 1:11.830858 2:30.497701 
1 1:9.5127496 2:21.619347 
1 1:38.329074 2:74.323546 
1 1:48.107588 2:118.17374 
1 1:102.65696 2:160.62073 
1 1:11.830858 2:30.497701 
1 1:9.5127496 2:21.619347 
1 1:38.329074 2:74.323546 
1 1:48.107588 2:118.17374 
1 1:102.65696 2:160.62073 
1 1:11.830858 2:30.497701 
1 1:38.329074 2:74.323546 
1 1:48.107588 2:118.17374 
1 1:102.65696 2:160.62073 
1 1:11.830858 2:30.497701 
1 1:38.329074 2:74.323546 
1 1:48.107588 2:118.17374 
1 1:102.65696 2:160.62073 
1 1:11.830858 2:30.497701 
1 1:38.329074 2:74.323546 
1 1:48.107588 2:118.17374 
1 1:102.65696 2:160.62073 
1 1:11.830858 2:30.497701 
1 1:38.329074 2:74.323546 
1 1:48.107588 2:118.17374 
1 1:102.65696 2:160.62073 
1 1:11.830858 2:30.497701 
1 1:38.329074 2:74.323546 
1 1:48.107588 2:118.17374 
1 1:102.65696 2:160.62073 
1 1:11.830858 2:30.497701 
1 1:38.329074 2:74.323546 
1 1:48.107588 2:118.17374 
1 1:102.65696 2:160.62073 
1 1:11.830858 2:30.497701 
1 1:38.329074 2:74.323546 
1 1:48.107588 2:118.17374 
1 1:102.65696 2:160.62073 
0.1507493828017209 1:11.830858 2:30.497701 
1 1:38.329074 2:74.323546 
1 1:48.107588 2:118.17374 
1 1:102.65696 2:160.62073 
1 1:38.329074 2:74.323546 
1 1:48.107588 2:118.17374 
1 1:102.65696 2:160.62073 
1 1:38.329074 2:74.323546 
0.09663734518410472 1:48.107588 2:118.17374 
1 1:102.65696 2:160.62073 
1 1:38.329074 2:74.323546 
1 1:102.65696 2:160.62073 
1 1:38.329074 2:74.323546 
1 1:102.65696 2:160.62073 
1 1:38.329074 2:74.323546 
1 1:102.65696 2:160.62073 
1 1:38.329074 2:74.323546 
1 1:102.65696 2:160.62073 
1 1:38.329074 2:74.323546 
1 1:102.65696 2:160.62073 
1 1:38.329074 2:74.323546 
1 1:102.65696 2:160.62073 
0.5144664402572943 1:38.329074 2:74.323546 
0.5191606082790479 1:102.65696 2:160.62073 
0.8263979617854895 1:9.5127496 2:21.619347 
0.1876185685016036 1:38.329074 2:74.323546 
0.1374866787651809 1:48.107588 2:118.17374 
0.1835745098494996 1:102.65696 2:160.62073 
1 1:6.7435482 2:26.600095 
1 1:77.019409 2:80.111923 
1 1:123.32482 2:152.57902 
1 1:111.93717 2:194.41888 
1 1:10.646811 2:36.196687 
1 1:6.7435482 2:26.600095 
1 1:77.019409 2:80.111923 
1 1:123.32482 2:152.57902 
1 1:111.93717 2:194.41888 
1 1:10.646811 2:36.196687 
1 1:6.7435482 2:26.600095 
1 1:77.019409 2:80.111923 
1 1:123.32482 2:152.57902 
1 1:111.93717 2:194.41888 
1 1:10.646811 2:36.196687 
1 1:6.7435482 2:26.600095 
1 1:77.019409 2:80.111923 
1 1:123.32482 2:152.57902 
1 1:111.93717 2:194.41888 
1 1:10.646811 2:36.196687 
1 1:6.7435482 2:26.600095 
1 1:77.019409 2:80.111923 
1 1:123.32482 2:152.57902 
1 1:111.93717 2:194.41888 
1 1:10.646811 2:36.196687 
1 1:6.7435482 2:26.600095 
1 1:77.019409 2:80.111923 
1 1:123.32482 2:152.57902 
1 1:111.93717 2:194.41888 
1 1:10.646811 2:36.196687 
1 1:6.7435482 2:26.600095 
1 1:77.019409 2:80.111923 
1 1:123.32482 2:152.57902 
1 1:111.93717 2:194.41888 
1 1:10.646811 2:36.196687 
1 1:6.7435482 2:26.600095 
1 1:77.019409 2:80.111923 
1 1:123.32482 2:152.57902 
1 1:111.93717 2:194.41888 
1 1:10.646811 2:36.196687 
1 1:6.7435482 2:26.600095 
1 1:77.019409 2:80.111923 
1 1:123.32482 2:152.57902 
1 1:111.93717 2:194.41888 
1 1:10.646811 2:36.196687 
1 1:6.7435482 2:26.600095 
1 1:77.019409 2:80.111923 
1 1:123.32482 2:152.57902 
1 1:111.93717 2:194.41888 
1 1:10.646811 2:36.196687 
1 1:6.7435482 2:26.600095 
1 1:77.019409 2:80.111923 
1 1:123.32482 2:152.57902 
1 1:111.93717 2:194.41888 
1 1:10.646811 2:36.196687 
1 1:6.7435482 2:26.600095 
1 1:77.019409 2:80.111923 
1 1:123.32482 2:152.57902 
1 1:111.93717 2:194.41888 
1 1:10.646811 2:36.196687 
1 1:6.7435482 2:26.600095 
1 1:77.019409 2:80.111923 
1 1:123.32482 2:152.57902 
1 1:111.93717 2:194.41888 
1 1:10.646811 2:36.196687 
1 1:6.7435482 2:26.600095 
1 1:77.019409 2:80.111923 
1 1:123.32482 2:152.57902 
1 1:111.93717 2:194.41888 
1 1:10.646811 2:36.196687 
1 1:6.7435482 2:26.600095 
1 1:77.019409 2:80.111923 
1 1:123.32482 2:152.57902 
1 1:111.93717 2:194.41888 
1 1:10.646811 2:36.196687 
1 1:6.7435482 2:26.600095 
1 1:77.019409 2:80.111923 
1 1:123.32482 2:152.57902 
1 1:111.93717 2:194.41888 
1 1:10.646811 2:36.196687 
1 1:6.7435482 2:26.600095 
0.6806442453647814 1:77.019409 2:80.111923 
1 1:123.32482 2:152.57902 
